34 128
34 -0.025024373 -0.19474573 0.06136247 0.10237668 0.028803827 -0.11042065 0.19576257 0.05094381 -0.07551087 0.013621693 -0.04882888 0.16807668 0.051050834 -0.19707596 -0.062203716 -0.15951362 -0.013236264 -0.09777478 -0.0097127985 0.08239698 0.1771752 0.0023600096 0.23994094 0.042814143 -0.0027556184 -0.002999333 -0.040762506 -0.049839675 0.09202808 0.2346136 -0.017686166 -0.0049004564 -0.15789057 0.16362189 -0.19154549 -0.15214929 0.29990032 0.0012257984 -0.084697634 -0.10469485 -0.17228544 0.0034357577 0.105433315 0.23454893 -0.09774937 0.14073105 0.042611163 -0.0877518 -0.018427076 0.012230613 -0.05015954 0.053707965 0.06346491 0.063482486 -0.1899076 -0.067523174 -0.04446865 0.052286368 -0.10514411 0.023819009 0.10226388 -0.10356998 -0.07387749 0.15171891 -0.008035273 -0.0840238 -0.038758546 -0.009112033 -0.01371814 -0.0960825 -0.040348373 0.043670744 -0.03594589 0.010129097 0.17801058 0.09888737 0.05471003 0.038054556 0.052314103 0.013960787 -0.14138004 -0.16935985 0.01059071 -0.11295113 -0.06597149 0.27931157 -0.016469661 -0.033215225 0.0033033865 -0.06384316 0.109607995 0.084834315 0.07454264 -0.07889352 -0.13525224 0.2511052 -0.12475274 -0.02265717 0.09144159 -0.023648052 -0.20522256 0.0226298 -0.14839467 -0.017003728 -0.04440213 0.04470225 0.21131955 0.12984009 -0.03925729 0.0028012195 0.03631624 -0.030255744 0.0723474 0.038849514 -0.080257826 -0.008839986 -0.0827724 0.1866854 -0.09630807 -0.06411504 -0.06204263 -0.17472097 0.060967192 -0.21814762 0.0024102507 0.074897066 0.04154009 0.12895356
1 -0.013231482 -0.2333564 0.019674225 0.12613808 0.024276072 -0.10444228 0.1821381 0.107505284 0.028049666 -0.019805416 -0.011152515 0.17783865 0.0038069205 -0.16562872 0.020699212 -0.17174011 -0.03803492 -0.1412266 -0.013764591 0.041063804 0.18325739 -0.031981084 0.20288163 0.042704474 0.047256082 -0.05648174 -0.07137171 -0.0863005 0.056047946 0.20339303 -0.0034942084 -0.03368576 -0.11421053 0.09855058 -0.15454161 -0.14375494 0.27962944 0.049577057 -0.11472795 -0.08105068 -0.13127029 0.014121494 0.13619721 0.19892626 -0.14527737 0.1651439 0.0969636 -0.08153693 0.010969464 0.04032703 -0.06897533 0.09245303 0.055050496 0.034969274 -0.14471266 -0.10650369 -0.034552112 0.046531774 -0.052827574 -0.011494736 0.11462609 -0.1077629 -0.005568567 0.17750064 -0.04482655 -0.06486632 -0.05501712 0.0045037926 -0.0032935909 -0.16174026 -0.04086936 0.036218844 -0.069718204 -0.00601129 0.21208608 0.08692588 0.054474134 0.009928534 0.0017043892 -0.04823515 -0.13564263 -0.084480874 -0.0023666401 -0.061627124 -0.104973756 0.15682688 0.071709864 -0.027494505 0.020661566 -0.04643808 0.13784632 0.040624443 0.109075785 -0.011215041 -0.13224383 0.1916257 -0.076695986 -0.13131262 0.12014548 0.03914703 -0.15456969 0.017681949 -0.18026865 -0.029221699 -0.0826259 0.011321018 0.200083 0.10639893 -0.02083741 -0.038172584 0.032637414 0.036089998 0.05754174 -0.0022219697 -0.0965442 0.026461134 -0.060419887 0.16538633 -0.09921347 -0.09395474 -0.039161634 -0.14266218 0.14084908 -0.2548772 -0.08843667 0.02314475 0.048915952 0.1275653
33 -0.01215829 -0.22222967 0.026308356 0.124772355 0.026548399 -0.10592016 0.18430904 0.0957331 0.00027364772 -0.011102744 -0.015832372 0.17317043 0.014818103 -0.1759521 0.0034502386 -0.1611415 -0.033534758 -0.12147821 -0.019891482 0.05135334 0.18077208 -0.023574019 0.20783281 0.03729249 0.027308082 -0.0410499 -0.06856641 -0.07619454 0.06659295 0.210271 -0.0056352997 -0.024917617 -0.117727645 0.115960024 -0.16668159 -0.14517672 0.2812466 0.037773903 -0.112122364 -0.08045936 -0.13975114 0.014144865 0.12164494 0.19648628 -0.12913571 0.16319181 0.08139919 -0.08523052 -0.004164776 0.026367385 -0.06233082 0.08193548 0.057926983 0.03464537 -0.1567381 -0.08952624 -0.03973821 0.0446716 -0.06094773 0.0030254486 0.115174554 -0.10775897 -0.024576329 0.17470399 -0.02902293 -0.0764051 -0.047592912 -0.002109106 -0.0035050856 -0.13949762 -0.03790776 0.042265758 -0.061861016 0.0009530238 0.19866782 0.09652174 0.05442418 0.018449862 0.014545747 -0.028328111 -0.12922819 -0.104478694 0.00015259207 -0.0736992 -0.09121347 0.19296104 0.047070388 -0.030338839 0.011954459 -0.051254097 0.13470869 0.05358754 0.09967868 -0.02939128 -0.122287296 0.20754127 -0.089996114 -0.102030896 0.11054345 0.016669543 -0.16572423 0.010453567 -0.17407392 -0.016628565 -0.065862454 0.016218614 0.197051 0.10755296 -0.020515805 -0.027966784 0.034186047 0.019257486 0.059622712 0.000262204 -0.083991945 0.017269982 -0.065072685 0.15380147 -0.092815444 -0.085861735 -0.041316133 -0.14757264 0.12037075 -0.23500961 -0.05667018 0.032868717 0.04006841 0.1153409
7 0.02256919 -0.33334896 -0.09032466 0.21100867 0.013721979 -0.08699185 0.17964114 0.2368164 0.26555648 -0.10822892 0.07935558 0.2189158 -0.11484197 -0.11185989 0.22025864 -0.21165268 -0.098402664 -0.25068954 -0.035547808 -0.036849264 0.20491508 -0.12030954 0.13308057 0.044117447 0.17727105 -0.21031106 -0.159668 -0.20272736 -0.03321384 0.15906647 0.055056974 -0.106928885 -0.029715313 -0.048486914 -0.07826488 -0.12266752 0.27656713 0.18208596 -0.2093701 -0.011982317 -0.04217066 0.057881642 0.22330938 0.12983106 -0.2782374 0.24023607 0.2536176 -0.08612841 0.07627921 0.105747186 -0.108817674 0.18983461 0.051560804 -0.04001439 -0.04785209 -0.2232971 -0.012941125 0.019509774 0.0776987 -0.097623914 0.1440838 -0.1096591 0.16379707 0.27085885 -0.13014627 -0.03493866 -0.09797656 0.028533002 0.042534225 -0.3423252 -0.048059132 0.037320144 -0.18440883 -0.032841787 0.32386166 0.07293004 0.040048417 -0.03528806 -0.12059471 -0.19121517 -0.14639047 0.11937282 -0.035155073 0.055727914 -0.20237245 -0.09739849 0.29167125 -0.008519702 0.044503402 -0.01054724 0.22810581 -0.05337944 0.212263 0.14938486 -0.15340377 0.093210116 0.024853297 -0.39904857 0.19139363 0.19870031 -0.055833712 0.008280037 -0.3075204 -0.07153972 -0.20577283 -0.083433665 0.19310081 0.058123425 0.033289492 -0.1464398 0.038465388 0.21604827 0.026989127 -0.11568482 -0.15052979 0.12343953 -0.019069167 0.13705109 -0.10973123 -0.15650082 0.009114968 -0.092643425 0.37364927 -0.3821784 -0.33563986 -0.09204312 0.08552648 0.14795753
6 0.014455426 -0.31706694 -0.06549464 0.19964243 0.017802645 -0.090492435 0.18582802 0.21223548 0.21387517 -0.09033743 0.061716158 0.21018618 -0.09406349 -0.12321233 0.17902365 -0.20620759 -0.0865105 -0.23453736 -0.027495127 -0.021030376 0.20132577 -0.10434405 0.14911324 0.041401334 0.1522378 -0.18141384 -0.14059238 -0.1835931 -0.014684839 0.17695017 0.04227169 -0.09928322 -0.042851314 -0.018444361 -0.09467008 -0.12814808 0.28395745 0.16206357 -0.19558012 -0.03197247 -0.06347054 0.051021144 0.2079723 0.14148556 -0.25413644 0.22889264 0.22662587 -0.088788 0.064773165 0.09598495 -0.09838666 0.17200369 0.0474194 -0.025998304 -0.06435212 -0.20489797 -0.01859721 0.024276795 0.05036303 -0.0855501 0.14135122 -0.10723106 0.12866308 0.25531024 -0.11248441 -0.04892571 -0.09480485 0.022757128 0.028329372 -0.3094131 -0.044198975 0.035448853 -0.16250645 -0.02366211 0.3042647 0.07365841 0.04472352 -0.023080721 -0.0971408 -0.15874939 -0.15052411 0.07701815 -0.02406432 0.029422337 -0.17922227 -0.04297278 0.2522037 -0.015345189 0.037328847 -0.022493172 0.21012244 -0.031608075 0.19493476 0.12091547 -0.15049116 0.11691969 0.0040725297 -0.34258127 0.17960143 0.16056722 -0.071295306 0.007959253 -0.27881345 -0.06238446 -0.17982584 -0.056745786 0.19490837 0.070139654 0.022463156 -0.12321566 0.040074006 0.17686607 0.03458305 -0.08872227 -0.13656674 0.1077702 -0.025201054 0.14361499 -0.10369007 -0.14597282 -2.3763212e-05 -0.109427966 0.32608646 -0.3651274 -0.286342 -0.06351814 0.07859023 0.13794702
3 -0.034012496 -0.18777275 0.08143242 0.09281829 0.028920462 -0.11714958 0.20519003 0.037328906 -0.11540832 0.025366211 -0.05865388 0.16836211 0.065766156 -0.221555 -0.09120102 -0.16445647 -0.006400638 -0.08871603 -0.010467866 0.090078644 0.17667487 0.016458906 0.25170437 0.04921039 -0.01842033 0.020326534 -0.031535164 -0.029669166 0.11587537 0.2495829 -0.03076121 0.002312214 -0.17306496 0.19346198 -0.21058665 -0.16496286 0.3061108 -0.014959144 -0.07128954 -0.11630258 -0.18808264 -0.00883232 0.09376125 0.25007492 -0.08439901 0.1356488 0.020656155 -0.091192216 -0.03481236 0.0023859758 -0.0438514 0.03755228 0.060775597 0.07385429 -0.21011923 -0.050598618 -0.051600844 0.05516522 -0.1320027 0.043733213 0.10085473 -0.10659997 -0.097880036 0.14716487 0.006199922 -0.0922534 -0.029029189 -0.007628336 -0.023872018 -0.078667685 -0.036121875 0.045477152 -0.020060249 0.015179814 0.16943549 0.10416826 0.06726614 0.042872973 0.0746008 0.033368073 -0.14072704 -0.19745608 0.013033655 -0.13471001 -0.050801817 0.32192802 -0.04991684 -0.03722816 -0.0007235718 -0.07261266 0.102069214 0.1029449 0.058323134 -0.10418211 -0.13552451 0.268412 -0.14610822 0.017550876 0.08615119 -0.046985578 -0.22468036 0.02070452 -0.1376821 -0.0081085265 -0.019808017 0.06486438 0.21112382 0.1393144 -0.04178374 0.012630297 0.03768816 -0.055728033 0.07566957 0.054658465 -0.07147057 -0.01979001 -0.09284809 0.18969621 -0.08947788 -0.05788146 -0.07133468 -0.18666871 0.021408668 -0.20057885 0.041332163 0.08997527 0.036678363 0.1237669
5 0.021100238 -0.34733507 -0.09675635 0.2193484 0.019186016 -0.09140677 0.18842587 0.242447 0.27903187 -0.11613779 0.08723492 0.22622107 -0.12486236 -0.10867861 0.22879972 -0.2210681 -0.10316467 -0.26312414 -0.035543438 -0.035980202 0.21261282 -0.1214077 0.13265567 0.048268348 0.18444385 -0.22105731 -0.1639455 -0.21382834 -0.036270935 0.16462645 0.05339185 -0.1172371 -0.028461734 -0.04931512 -0.07656033 -0.12931797 0.28889343 0.19495651 -0.21914563 -0.009727774 -0.0377047 0.058243766 0.2285433 0.13069355 -0.29064175 0.24856623 0.2664214 -0.08966568 0.07831215 0.10826216 -0.10997057 0.19821076 0.05550289 -0.048907477 -0.043848395 -0.23795395 -0.011726507 0.020035101 0.08151451 -0.10849622 0.1463752 -0.114460886 0.17243291 0.28435832 -0.13703158 -0.037437364 -0.09966225 0.026037201 0.04432679 -0.3563623 -0.049313426 0.03568156 -0.19056101 -0.03755346 0.3351709 0.069654725 0.03876916 -0.04197316 -0.129323 -0.20077145 -0.15527439 0.123764396 -0.036374584 0.055589247 -0.21181338 -0.10509195 0.3093209 -0.006813524 0.047987767 -0.014043188 0.23610055 -0.056607787 0.22152679 0.16077296 -0.16271666 0.094236985 0.022274325 -0.4155691 0.20503373 0.21127439 -0.058508553 0.006445204 -0.3187696 -0.07743137 -0.21638136 -0.085232526 0.20334129 0.058498558 0.029312031 -0.1529112 0.037145536 0.22237167 0.03302684 -0.12107372 -0.15818606 0.13421337 -0.014602298 0.14886293 -0.10840087 -0.16595906 0.010788514 -0.09881517 0.3890976 -0.4069897 -0.35320428 -0.09121799 0.08451776 0.15526012
11 0.018816914 -0.33827057 -0.09568354 0.21611328 0.017663958 -0.086215235 0.17158708 0.24587938 0.2831611 -0.11664235 0.08622216 0.21656689 -0.12883309 -0.09461829 0.23597315 -0.21421026 -0.10237499 -0.2570979 -0.032763578 -0.044577282 0.20463876 -0.12574 0.1263356 0.04110806 0.18124878 -0.21881537 -0.1608638 -0.2060064 -0.041157708 0.15112077 0.057873324 -0.1161421 -0.0143433865 -0.061351094 -0.06614147 -0.11431525 0.277572 0.19625443 -0.21135202 -0.0037016352 -0.02981965 0.062389027 0.22678812 0.11822245 -0.28343666 0.24265595 0.2645163 -0.08206393 0.07681788 0.11146197 -0.105003946 0.19176957 0.04823671 -0.048273597 -0.03527118 -0.23175529 -0.010626595 0.021245793 0.07957537 -0.105746165 0.1419156 -0.11031311 0.1756302 0.2736207 -0.13628194 -0.03367928 -0.10643219 0.025567608 0.046562508 -0.34986618 -0.04684973 0.032523602 -0.18972795 -0.036457397 0.32752287 0.069230966 0.04077176 -0.042205896 -0.13088463 -0.19674103 -0.1459833 0.13415553 -0.034353077 0.05883918 -0.2078828 -0.113140926 0.31123325 -0.008124216 0.047570255 -0.009991223 0.22450104 -0.064036675 0.21615723 0.16555533 -0.14853224 0.07857492 0.032902226 -0.40423816 0.19201735 0.20582093 -0.03785679 0.01062035 -0.30527937 -0.07164906 -0.20849322 -0.0832181 0.18909603 0.046112984 0.034832228 -0.15183127 0.03635312 0.22283553 0.020143531 -0.11998595 -0.1468373 0.12605558 -0.015801016 0.13404675 -0.10265901 -0.16212273 0.014132745 -0.093762785 0.382636 -0.3905463 -0.3453325 -0.09975224 0.07950441 0.1420045
2 -0.017779779 -0.2016951 0.051178087 0.10255882 0.023752471 -0.107449256 0.1911257 0.066891335 -0.05479992 0.00602679 -0.039295953 0.17184034 0.042414363 -0.19257945 -0.042453486 -0.16313694 -0.023748195 -0.104659304 -0.012134698 0.070547305 0.17899448 -0.003603035 0.23150818 0.04381437 0.004031377 -0.011766598 -0.050701123 -0.055501077 0.088397786 0.22721094 -0.013448453 -0.013336985 -0.14867777 0.15127894 -0.18526912 -0.14934179 0.2887742 0.0072612204 -0.08831528 -0.09797253 -0.15779506 0.004542441 0.11040421 0.22255297 -0.108668946 0.14545435 0.049504552 -0.08517074 -0.012034232 0.014001668 -0.054212324 0.055502214 0.06243653 0.057809245 -0.17980309 -0.07253444 -0.040080164 0.053107608 -0.09463503 0.020554924 0.100622386 -0.10095888 -0.055743553 0.1492269 -0.014704421 -0.071966335 -0.039059255 -0.006966069 -0.017640375 -0.10885963 -0.039366364 0.039471485 -0.035215277 0.003833366 0.17852126 0.096962884 0.05606948 0.026063908 0.040467173 -0.0026430874 -0.13446556 -0.14865763 0.0022976673 -0.09702835 -0.07086545 0.24641371 0.0014173496 -0.032955535 0.012769388 -0.061776005 0.115974545 0.07615713 0.07700701 -0.06713582 -0.13372765 0.22817615 -0.11282127 -0.049065538 0.09375912 -0.005173279 -0.18509305 0.014431989 -0.14873308 -0.01971177 -0.047880977 0.031556778 0.20441015 0.12522286 -0.03709741 -0.0073945057 0.029962435 -0.0130271185 0.06934109 0.025779806 -0.08406845 -0.00069140445 -0.07510906 0.17541273 -0.09717283 -0.07232052 -0.05513945 -0.16245613 0.07654565 -0.22173049 -0.013797175 0.06114478 0.045581903 0.122824766
24 -0.026280612 -0.18704373 0.07979652 0.09439044 0.028320996 -0.11618672 0.20445077 0.035776988 -0.11116291 0.030274482 -0.05828995 0.17118488 0.072773844 -0.21888784 -0.09233732 -0.16242604 -0.009023853 -0.08785295 -0.011964459 0.09403974 0.184811 0.019114925 0.25999054 0.05130326 -0.0229049 0.025633141 -0.035438485 -0.035260253 0.10986174 0.2542085 -0.033276726 0.0067587 -0.17994706 0.1912422 -0.21514572 -0.1686642 0.3170783 -0.02350738 -0.07700946 -0.124394834 -0.19396141 -0.0016813669 0.09345142 0.2577894 -0.08192541 0.14412123 0.016096354 -0.0847885 -0.031828817 -0.0026782183 -0.043987542 0.04245314 0.06341026 0.080491565 -0.21094854 -0.04588614 -0.04813361 0.057463497 -0.13092652 0.03974351 0.10385376 -0.11141986 -0.099428646 0.14413424 0.003172131 -0.09272542 -0.03230635 -0.007651415 -0.02615945 -0.07227184 -0.039044652 0.0486062 -0.01971662 0.011432755 0.16961773 0.106155865 0.057723127 0.039432034 0.07041177 0.03767268 -0.1366567 -0.20270157 0.014777234 -0.12814283 -0.05841439 0.32481682 -0.054879285 -0.034926925 0.0033009239 -0.07211363 0.101449445 0.102250785 0.06233134 -0.10881806 -0.13240793 0.27682167 -0.14155224 0.0149624245 0.08429771 -0.05104438 -0.23118165 0.02407635 -0.13389212 -0.005988901 -0.02415124 0.060990967 0.22144046 0.14397725 -0.048140448 0.019700773 0.039570395 -0.06088204 0.07941364 0.05337128 -0.078694195 -0.024742851 -0.09666088 0.1919385 -0.09474868 -0.058375522 -0.07094471 -0.1906875 0.028155869 -0.20814082 0.04823308 0.09461315 0.036761735 0.13343632
28 -0.023727223 -0.19674166 0.05047658 0.10219726 0.025421944 -0.10009228 0.18204984 0.061176397 -0.048498996 0.005336949 -0.032147087 0.1660632 0.035672776 -0.17750442 -0.038881112 -0.15451509 -0.02170497 -0.10605021 -0.011094595 0.06786809 0.16772611 -0.0047318977 0.21520473 0.040984403 0.0059137917 -0.011697019 -0.05153292 -0.0528557 0.08294016 0.21394211 -0.016282324 -0.008699658 -0.13504027 0.1437039 -0.17448425 -0.14930542 0.28359762 0.015584676 -0.08780737 -0.09354773 -0.15570778 0.0023491203 0.108117245 0.21600331 -0.108902186 0.14205176 0.04914973 -0.08182144 -0.017116215 0.014287989 -0.056045864 0.06204823 0.060303442 0.048517786 -0.1662403 -0.073029205 -0.043615 0.043666475 -0.09219406 0.014638711 0.102853596 -0.10453238 -0.05014152 0.15371828 -0.015128547 -0.07742061 -0.04247445 -0.0015228094 -0.014820394 -0.114577934 -0.039544564 0.043628406 -0.04486854 -2.153837e-05 0.1811195 0.094407365 0.05403335 0.029826768 0.032326113 0.00044210535 -0.13227956 -0.14382623 0.008364721 -0.09346289 -0.07595909 0.2411618 0.007728606 -0.029241592 0.009265023 -0.057110947 0.11547393 0.07018806 0.07838058 -0.061355226 -0.12422302 0.2234867 -0.10827846 -0.04785872 0.09603408 -0.010860164 -0.18647344 0.021002136 -0.15418422 -0.017660456 -0.046920016 0.038402647 0.20299968 0.12139794 -0.031359773 -0.012891123 0.03523909 -0.012347921 0.061343253 0.023969553 -0.07781291 -0.0004293896 -0.0785499 0.16851413 -0.09102702 -0.073660076 -0.052529473 -0.16128378 0.07794827 -0.21566705 -0.020554326 0.05339557 0.03980146 0.123176076
17 0.016067483 -0.32700446 -0.075438164 0.20840175 0.015272417 -0.09488674 0.18535513 0.22623508 0.24079697 -0.0965097 0.07264818 0.21956049 -0.10204557 -0.11332298 0.19482125 -0.20639683 -0.09169204 -0.24482352 -0.032633904 -0.024457706 0.20373826 -0.11383977 0.14495848 0.03971931 0.16511993 -0.1910736 -0.1501692 -0.1913073 -0.019953584 0.17084542 0.048116323 -0.1039295 -0.034961127 -0.0309775 -0.087889165 -0.12918301 0.28636736 0.17409146 -0.20254627 -0.016699804 -0.052084144 0.048954092 0.21224345 0.13962838 -0.2667407 0.23189995 0.24175529 -0.08542329 0.06678255 0.10002222 -0.10334776 0.17551011 0.051552948 -0.038537215 -0.05427666 -0.21485543 -0.018293448 0.027293984 0.06520845 -0.09556775 0.14099526 -0.109721854 0.1463218 0.26020864 -0.119973324 -0.038098738 -0.09565972 0.022421908 0.03774574 -0.31935805 -0.049168907 0.03535066 -0.1708282 -0.03247519 0.3137609 0.07662568 0.03911963 -0.03337793 -0.10787655 -0.17641623 -0.14436358 0.09684544 -0.026372753 0.045142423 -0.19273889 -0.06947915 0.27572373 -0.012822711 0.04543622 -0.017481262 0.21061538 -0.044068474 0.19906418 0.13845788 -0.15056896 0.100498505 0.015354903 -0.36621532 0.18803132 0.18173295 -0.06355826 0.007256028 -0.29323548 -0.063597105 -0.19203764 -0.07043832 0.19571006 0.059290703 0.023322418 -0.13039614 0.037895173 0.19477777 0.03616531 -0.09908444 -0.14111109 0.11457075 -0.021259611 0.14445466 -0.1045725 -0.15568475 0.008139985 -0.0992093 0.34951502 -0.3710076 -0.3128546 -0.07877889 0.077955335 0.14555335
32 -0.031854715 -0.18776049 0.076076925 0.089898564 0.029108092 -0.116762966 0.20474353 0.032077327 -0.120647155 0.032579117 -0.06508083 0.170319 0.07274573 -0.21395914 -0.096939914 -0.15582466 -0.004032029 -0.083103485 -0.014698039 0.096628696 0.18034922 0.0222309 0.25490263 0.042649604 -0.03086251 0.027206415 -0.032003142 -0.024353463 0.11360976 0.24655308 -0.032686327 0.0079868 -0.17028886 0.19528335 -0.21531075 -0.16438186 0.3117704 -0.020357914 -0.07339685 -0.12394024 -0.1970985 -0.0047168843 0.08811529 0.25207564 -0.07819103 0.13517073 0.01635575 -0.0847706 -0.03551571 -0.005976046 -0.045594767 0.03865136 0.06381305 0.07941048 -0.2152672 -0.046108756 -0.052597463 0.0566153 -0.13146959 0.04099248 0.10443036 -0.10945142 -0.10767806 0.14337464 0.005916309 -0.09313889 -0.03465974 -0.0073272293 -0.023739858 -0.07074211 -0.0440007 0.05038356 -0.013433616 0.009699346 0.16266485 0.109256625 0.062266164 0.045366626 0.07356081 0.040332984 -0.13831376 -0.21077874 0.019613711 -0.13292712 -0.052131753 0.33489415 -0.054977734 -0.037763827 0.0006179671 -0.074185036 0.09794875 0.103508666 0.057961393 -0.113072954 -0.12732664 0.27108678 -0.14455454 0.022085238 0.07790771 -0.060286358 -0.22722246 0.019150024 -0.13303949 -0.006923816 -0.0153868785 0.06682415 0.2190717 0.13793312 -0.05238197 0.023304235 0.037312597 -0.06626028 0.08025265 0.06011451 -0.068058364 -0.025580503 -0.096270174 0.19331141 -0.09105086 -0.059892777 -0.07300914 -0.1892078 0.017901542 -0.19545618 0.056105126 0.09130153 0.029694317 0.12902802
26 -0.023977714 -0.18915774 0.07206639 0.09345342 0.030038074 -0.11480574 0.20239022 0.040173292 -0.10253742 0.02137308 -0.05748881 0.166639 0.06610809 -0.2130547 -0.08209085 -0.15649392 -0.009045881 -0.09100787 -0.0138011975 0.09066438 0.18718587 0.012574376 0.25428602 0.04928856 -0.019682124 0.012498516 -0.041667596 -0.040686537 0.10222051 0.24864373 -0.02512422 0.0022391265 -0.16642176 0.180086 -0.2144546 -0.16800444 0.31303963 -0.013836051 -0.08264417 -0.11922202 -0.18944371 -0.005314586 0.096133165 0.24840088 -0.089859 0.1507214 0.02450417 -0.08898163 -0.029806916 0.006595326 -0.046808794 0.0502621 0.0638021 0.06830257 -0.20809017 -0.056329716 -0.0488618 0.056111444 -0.12630635 0.036934566 0.10982611 -0.1137203 -0.08974861 0.15495086 0.0011246698 -0.08990216 -0.033601265 -0.012352404 -0.021093087 -0.08461951 -0.03984316 0.04707891 -0.026672926 0.010222881 0.17777775 0.10382763 0.05825107 0.040158506 0.062385164 0.024606561 -0.14534774 -0.1908774 0.014494261 -0.123735756 -0.060807947 0.31513792 -0.04252755 -0.038083628 0.0019217127 -0.071770005 0.11157852 0.09635305 0.07209411 -0.09280757 -0.1320655 0.26694134 -0.1398615 -0.00073018426 0.09299536 -0.042165384 -0.22137561 0.020009965 -0.14419575 -0.006808224 -0.028001603 0.05683555 0.22294924 0.14088415 -0.041269884 0.014647737 0.033954058 -0.05123902 0.07687756 0.04855461 -0.07574471 -0.01805897 -0.09105127 0.18829864 -0.09342881 -0.06776645 -0.068669155 -0.18839204 0.038549807 -0.21777415 0.031958457 0.08759213 0.035219286 0.12549615
14 -0.020743866 -0.20549043 0.047942474 0.10507924 0.02668565 -0.10429937 0.18532158 0.06727134 -0.043859962 0.005721491 -0.036450572 0.1711047 0.032726876 -0.18450917 -0.03269544 -0.15904899 -0.021374026 -0.10999589 -0.013832711 0.06375634 0.17797428 -0.0034822319 0.2211119 0.043784488 0.009911191 -0.016080957 -0.04979977 -0.055485375 0.07666823 0.22268564 -0.012501825 -0.013337587 -0.14048465 0.1423405 -0.17528366 -0.15063779 0.28850216 0.017413007 -0.09667738 -0.096194215 -0.15903547 0.006178772 0.11269637 0.22042745 -0.111628935 0.15100679 0.059472423 -0.081008665 -0.013247573 0.021365475 -0.05654403 0.06462355 0.057777658 0.052539553 -0.17002413 -0.07772106 -0.044354808 0.051282074 -0.088423826 0.0110325515 0.10558972 -0.10716432 -0.04693736 0.15431046 -0.02058063 -0.07536048 -0.041667335 -0.0048196884 -0.011527415 -0.11832878 -0.042097636 0.045778923 -0.04860713 0.005795495 0.19038995 0.0968275 0.056422655 0.026716962 0.03301008 -0.0074391086 -0.1356096 -0.13800065 0.007922112 -0.08909106 -0.0808199 0.23965704 0.011140848 -0.032587428 0.0108198365 -0.058744196 0.11716655 0.06699259 0.08320227 -0.057248503 -0.12975785 0.22974667 -0.109793104 -0.055189934 0.10284503 -0.005043739 -0.1895866 0.018016353 -0.15858866 -0.015789505 -0.056184318 0.035575867 0.2075535 0.12358105 -0.03516349 -0.0129237315 0.032290164 -0.011139425 0.0629105 0.023771971 -0.079112485 0.0015429193 -0.0802991 0.17182192 -0.09438779 -0.074014716 -0.053451687 -0.16372329 0.085421324 -0.22928211 -0.022150684 0.054532338 0.040054396 0.12592737
4 -0.020691723 -0.20103319 0.048261117 0.10980216 0.027221087 -0.11093718 0.18624035 0.072255984 -0.04491054 0.001473016 -0.030934352 0.17333014 0.03867113 -0.19092755 -0.037002347 -0.16491556 -0.023607481 -0.11334602 -0.010860964 0.070537925 0.17883861 -0.008000145 0.22306159 0.04167495 0.01344743 -0.015171924 -0.05328371 -0.05703931 0.0874132 0.2228519 -0.016803335 -0.017624943 -0.14428537 0.14377266 -0.18184781 -0.15112522 0.29454294 0.018744944 -0.09144496 -0.09435279 -0.15516329 0.0007614119 0.11586566 0.22559044 -0.1098143 0.14601044 0.05633103 -0.088815466 -0.016032794 0.015366508 -0.053079575 0.05845863 0.060106874 0.05376481 -0.17628768 -0.07526793 -0.039486237 0.050332908 -0.088605955 0.01244396 0.11002544 -0.107122295 -0.049125105 0.1591735 -0.015734341 -0.074095175 -0.046606004 -0.0016043658 -0.012224864 -0.1185321 -0.038600847 0.04380582 -0.041799795 0.00051177363 0.1922733 0.09516925 0.06186209 0.031029418 0.035398792 -0.0012590361 -0.13495778 -0.145608 0.0036855992 -0.09615141 -0.07433082 0.24010177 0.01456999 -0.03431068 0.012065674 -0.058698 0.11555177 0.07038783 0.07873782 -0.060436483 -0.1338283 0.2302824 -0.11439553 -0.058266412 0.10059888 -0.004371628 -0.1918339 0.01897474 -0.15505204 -0.015212438 -0.05544435 0.03651729 0.19955729 0.123401076 -0.03360001 -0.013039236 0.037186638 -0.011709804 0.06712566 0.026097571 -0.08372154 0.005447312 -0.0778082 0.17810959 -0.09505873 -0.07372667 -0.052931312 -0.16335465 0.0773566 -0.23051447 -0.025362605 0.05930504 0.04636616 0.12783332
30 -0.020898348 -0.19551337 0.058345918 0.10056809 0.021678789 -0.107455194 0.1966086 0.047078084 -0.07980471 0.019462837 -0.052479893 0.16854747 0.05185247 -0.20106585 -0.0668679 -0.16017199 -0.012887647 -0.09627054 -0.017094517 0.08490293 0.1779418 0.005288799 0.24241982 0.04031658 -0.0073952805 0.001751039 -0.039237298 -0.043881286 0.09121798 0.23561372 -0.021752438 -0.005119479 -0.15598306 0.16290958 -0.19726306 -0.15248321 0.29703337 0.00018762925 -0.081741154 -0.11049416 -0.17399555 0.0017228482 0.10141169 0.2381112 -0.09330994 0.14253224 0.036373373 -0.08685507 -0.024510333 0.008647606 -0.049493898 0.053092394 0.06345341 0.060667187 -0.18779369 -0.058989696 -0.05007826 0.05334059 -0.10612242 0.028596822 0.1027617 -0.108528174 -0.072402336 0.1483642 -0.00053292816 -0.08440247 -0.03765713 -0.008033969 -0.016432118 -0.0938578 -0.03696992 0.04530037 -0.02848784 0.0073276786 0.17209198 0.09547479 0.055532135 0.039164547 0.052185424 0.020994863 -0.13708004 -0.17298344 0.0061385683 -0.11113331 -0.06350855 0.28298557 -0.027043603 -0.031990524 0.0020815867 -0.06353181 0.10874519 0.081387326 0.06851762 -0.08098264 -0.123576775 0.24628676 -0.12689444 -0.013555548 0.08897933 -0.032354947 -0.20069548 0.020237392 -0.14468962 -0.016119929 -0.03665564 0.04534433 0.20996313 0.1308228 -0.04474896 0.0031863458 0.033365473 -0.039648335 0.06905489 0.036684893 -0.0730434 -0.013337578 -0.08969285 0.18021038 -0.09465163 -0.06115616 -0.06555596 -0.17172356 0.052704033 -0.2083429 0.016175047 0.07715928 0.042635337 0.12729825
25 -0.024587842 -0.19374453 0.053390574 0.0976284 0.021544464 -0.10811755 0.1872939 0.052387673 -0.06277869 0.01242564 -0.044502784 0.16364887 0.047912944 -0.18808374 -0.055387806 -0.15943953 -0.014674672 -0.100958146 -0.010399888 0.07891663 0.17830323 0.00015899834 0.23378438 0.046489034 -0.00038799417 -0.0058940067 -0.04395315 -0.049775843 0.08566227 0.22885776 -0.017371617 -0.00627073 -0.14879684 0.15194036 -0.19121313 -0.15003836 0.28708434 0.004082415 -0.08725264 -0.10530967 -0.1696516 0.0043588006 0.09882993 0.22305068 -0.094161294 0.14612147 0.043403096 -0.078649335 -0.015785867 0.010919821 -0.054091185 0.056246888 0.062040128 0.061527636 -0.18608291 -0.06552177 -0.04027394 0.04682574 -0.10080151 0.026503965 0.09989422 -0.10033363 -0.0653415 0.14548314 -0.012409622 -0.08079482 -0.038839437 -0.003328714 -0.01969643 -0.094778046 -0.039868034 0.039986894 -0.030970056 0.008328299 0.17231965 0.09344017 0.051407274 0.03312313 0.049765114 0.00813026 -0.13126953 -0.16087069 0.00942015 -0.10658639 -0.0681374 0.26116902 -0.0130422115 -0.037103508 0.0029397316 -0.06573462 0.10448597 0.07778237 0.07559836 -0.076097146 -0.12850384 0.23744147 -0.11553198 -0.028033182 0.08999342 -0.019810347 -0.1974934 0.02002662 -0.14489378 -0.012446487 -0.037165463 0.040048655 0.20247853 0.12443939 -0.034596656 0.00048960996 0.032177567 -0.027119584 0.07039407 0.03143219 -0.08153315 -0.008698074 -0.07777022 0.17433982 -0.09230566 -0.067602895 -0.057133336 -0.1622409 0.060292423 -0.21432549 0.00056128984 0.07172128 0.035301138 0.12331436
9 -0.024193726 -0.19348285 0.052304633 0.098909035 0.025372274 -0.10636656 0.1886091 0.05695281 -0.061073955 0.011124129 -0.042700384 0.16871472 0.044680256 -0.19516118 -0.053065993 -0.15735346 -0.01913156 -0.09765478 -0.014457998 0.0750839 0.17103058 0.0033642482 0.23211324 0.039324924 -0.0021483426 -0.0025254863 -0.045586005 -0.052908614 0.08628247 0.22719316 -0.016856667 -0.0043558907 -0.1483461 0.15067431 -0.18342331 -0.15330929 0.29509318 0.0061302125 -0.08982273 -0.09977664 -0.1688393 -0.0007915628 0.104806215 0.22810653 -0.102006935 0.14292398 0.04547506 -0.085308105 -0.021133823 0.010142459 -0.053300127 0.057187483 0.056880202 0.057582267 -0.17769334 -0.06751276 -0.046203844 0.04958996 -0.10120932 0.019946333 0.10385111 -0.105736814 -0.06658649 0.15353827 -0.007656842 -0.082995236 -0.037257053 -0.006176397 -0.015796032 -0.10145176 -0.036414642 0.04562834 -0.03371992 0.0057429643 0.18174389 0.094596006 0.054084055 0.03612927 0.042129412 0.010405397 -0.13286154 -0.15675133 0.0057679387 -0.10860574 -0.07123559 0.26210418 -0.00862347 -0.03293365 0.0032677513 -0.06097143 0.1140366 0.076141745 0.07886317 -0.06557711 -0.12734225 0.23316476 -0.11559051 -0.031869084 0.092991 -0.018574314 -0.19798039 0.016164517 -0.15238796 -0.0129740555 -0.041460387 0.042532157 0.20364018 0.12767991 -0.039012495 -0.005619763 0.037683394 -0.02409863 0.069433816 0.031483725 -0.07674686 -0.008126868 -0.0851164 0.1779545 -0.09201203 -0.0649173 -0.060260806 -0.16983944 0.061842825 -0.21396193 -0.0020032546 0.069421075 0.03872243 0.12332086
31 -0.023691574 -0.18605241 0.06937449 0.095594764 0.026518114 -0.11283701 0.18882714 0.041750442 -0.0896429 0.020172471 -0.047282167 0.16881377 0.060318172 -0.20162977 -0.06952676 -0.15809597 -0.01807819 -0.08866692 -0.0076977042 0.081550956 0.1771359 0.005662252 0.23495904 0.046737086 -0.0116847865 0.011546352 -0.034629513 -0.036145486 0.0978056 0.23221916 -0.027202403 0.0029794048 -0.16111091 0.17396651 -0.19498721 -0.15324888 0.29587987 -0.008642916 -0.07580744 -0.11459935 -0.17502503 0.0009670597 0.09851827 0.2335439 -0.090184934 0.14191936 0.027252624 -0.088256724 -0.025552008 0.008881141 -0.054190185 0.050983857 0.062561356 0.06335047 -0.19356614 -0.05850268 -0.044492118 0.05100325 -0.11820511 0.02628257 0.10803388 -0.109134026 -0.08415114 0.14195397 -0.006300658 -0.08667137 -0.04081354 -0.010795426 -0.022097213 -0.088275716 -0.03905693 0.04072492 -0.02663013 0.009004773 0.1773951 0.10276269 0.065326095 0.035854086 0.06094392 0.021651236 -0.13767105 -0.18141289 0.009506223 -0.12042409 -0.06332884 0.29226607 -0.030077323 -0.03995892 0.005293501 -0.07078542 0.10599733 0.09181319 0.07348168 -0.088151075 -0.13515146 0.2542607 -0.1322149 -0.013095683 0.088901244 -0.029207153 -0.21250443 0.019531948 -0.14033063 -0.013476462 -0.034459 0.050603233 0.21096347 0.13495475 -0.038572226 0.006695369 0.030671416 -0.044721823 0.06752913 0.038923915 -0.0725078 -0.011874629 -0.08855053 0.18164371 -0.09667251 -0.061711043 -0.06507207 -0.17564319 0.041217078 -0.20911291 0.021788958 0.078083254 0.031205043 0.11995116
27 -0.01678371 -0.20278765 0.045627892 0.100329794 0.025749503 -0.10443557 0.18916216 0.06766086 -0.053157747 0.00885334 -0.037651356 0.16631106 0.038712084 -0.18029135 -0.041470557 -0.16016656 -0.016427778 -0.10903135 -0.014821131 0.06567499 0.17904541 -0.0013186912 0.2262065 0.045841984 0.0062217885 -0.014827007 -0.055653695 -0.04990363 0.081529185 0.22311951 -0.016124059 -0.013743409 -0.14439778 0.1413556 -0.17854977 -0.153103 0.28706747 0.010024652 -0.092190795 -0.10045561 -0.16294263 0.0037253047 0.10535512 0.22199497 -0.103109166 0.14937845 0.0552671 -0.08275884 -0.016616171 0.017076336 -0.050099134 0.062461328 0.057202 0.05916792 -0.1761328 -0.07436077 -0.042684358 0.05041346 -0.08553745 0.018155472 0.10095004 -0.099694744 -0.05883643 0.1505287 -0.013589229 -0.07649655 -0.044418246 -1.40669035e-05 -0.014183317 -0.108952925 -0.044660684 0.04667635 -0.03933163 -0.0033254665 0.1783799 0.09126674 0.056854997 0.0249119 0.034735225 0.0017300345 -0.13147649 -0.14615469 0.0066621634 -0.0885892 -0.07718431 0.2432881 0.00754464 -0.03281719 0.0042216717 -0.057284717 0.1059068 0.06647081 0.077686474 -0.062238164 -0.12800391 0.22634943 -0.10615628 -0.04887616 0.09578614 -0.016222566 -0.18949856 0.018267455 -0.1431239 -0.019454945 -0.043465268 0.03633595 0.20207196 0.11386645 -0.037599675 -0.0026006966 0.035934914 -0.016418304 0.06638095 0.024059284 -0.078611426 -0.0028613529 -0.07825404 0.17481484 -0.09609854 -0.07434078 -0.057327602 -0.15876947 0.080143295 -0.2243532 -0.019395104 0.06264675 0.041868273 0.12722276
29 -0.020995134 -0.19424826 0.050300032 0.09974583 0.027392892 -0.10716497 0.18729192 0.05536931 -0.059212446 0.010182307 -0.037817888 0.16862132 0.04089328 -0.19094737 -0.04671978 -0.15815197 -0.022724826 -0.10351533 -0.012159884 0.070049465 0.17620783 -0.003480007 0.2219779 0.04288763 -0.0005787454 -0.009207356 -0.046127304 -0.053756356 0.088660486 0.22425237 -0.015440441 -0.0102484245 -0.14167835 0.14992814 -0.18701573 -0.14855771 0.2911865 0.0065942546 -0.08571969 -0.105521284 -0.15813982 0.0055112084 0.100617565 0.21771234 -0.09853454 0.14985688 0.043982744 -0.08388815 -0.01863332 0.01377019 -0.052494653 0.055862766 0.056391545 0.055556424 -0.1813051 -0.061461437 -0.037883397 0.05098487 -0.0958843 0.023393305 0.1055754 -0.10723985 -0.0633872 0.15018351 -0.015026676 -0.08016074 -0.04235693 -0.0068784934 -0.012309549 -0.09824892 -0.040156256 0.041391898 -0.04087035 0.008709241 0.17904139 0.099979885 0.060090646 0.030807912 0.044411033 0.0043307967 -0.13749422 -0.14687662 0.010145259 -0.10252699 -0.06831767 0.25387084 -0.004509392 -0.036215045 0.0069646626 -0.06390307 0.114243224 0.072594054 0.07672751 -0.06545338 -0.12217873 0.23592696 -0.11641163 -0.03379364 0.092531845 -0.018848866 -0.19173202 0.02071395 -0.14766192 -0.012953986 -0.04224572 0.039325047 0.19783726 0.120461956 -0.031707246 -0.0015403612 0.03520837 -0.021552958 0.061345734 0.026986882 -0.07936634 -0.007916284 -0.079272546 0.1653359 -0.08619761 -0.06856386 -0.057708286 -0.16420653 0.062829465 -0.21399984 0.00059344387 0.064770885 0.036475573 0.11594307
13 -0.01959131 -0.21396689 0.05718878 0.107152 0.024842152 -0.115605354 0.20218816 0.06447898 -0.05806912 0.012333581 -0.045689903 0.17894343 0.04660819 -0.20651756 -0.045326315 -0.17216985 -0.026577162 -0.11113852 -0.0143877305 0.07231329 0.1913111 -0.0034132246 0.23929259 0.044815384 -0.0002865388 -0.00837052 -0.04559731 -0.05304518 0.09221737 0.23742755 -0.020303613 -0.008109574 -0.15475197 0.15574136 -0.19278125 -0.16033563 0.30910757 0.012734343 -0.09232839 -0.10603008 -0.16786318 0.0043666996 0.11379743 0.23786993 -0.10957743 0.15692101 0.051635597 -0.08714589 -0.018670876 0.018166132 -0.06087657 0.06373451 0.06657684 0.061792217 -0.19046554 -0.07619447 -0.04922445 0.051107846 -0.09848034 0.016787743 0.11309832 -0.110932365 -0.06339402 0.15640806 -0.010169094 -0.0841944 -0.04515611 -0.008156506 -0.011824368 -0.11513394 -0.043527447 0.0419972 -0.039055016 0.0019556212 0.191483 0.09834155 0.05931213 0.03029276 0.04059405 0.0002214433 -0.14047596 -0.16235511 0.005414447 -0.1085412 -0.07991682 0.26527673 0.0012529963 -0.0351785 0.006262503 -0.058921713 0.1241152 0.0761206 0.07745497 -0.0743811 -0.13442694 0.24088232 -0.119006686 -0.04794919 0.09585857 -0.013744272 -0.19517007 0.01924351 -0.15751864 -0.016706431 -0.0493391 0.034743354 0.21605249 0.12731725 -0.037645277 -0.0114147905 0.037388694 -0.019990044 0.0677639 0.033117358 -0.086405195 -0.0067573655 -0.08702625 0.1859517 -0.098385304 -0.07616703 -0.058132593 -0.16906628 0.078896835 -0.22631624 -0.009990252 0.066878475 0.04491355 0.13178661
20 -0.01764779 -0.2085304 0.039731987 0.11145335 0.021134133 -0.107502945 0.18885764 0.07674206 -0.032131255 -0.003005119 -0.031099167 0.16690476 0.03164761 -0.18132563 -0.023232374 -0.16208163 -0.030334067 -0.11328211 -0.014915214 0.05731284 0.17658706 -0.014179865 0.21751195 0.042398438 0.019653108 -0.021975856 -0.051390406 -0.06659095 0.076251194 0.21165833 -0.014077281 -0.020448957 -0.1314366 0.12876342 -0.16796058 -0.14397722 0.28693777 0.020765342 -0.10071449 -0.09549369 -0.1510669 0.005197397 0.11127348 0.21059431 -0.11442307 0.1516657 0.0683624 -0.08152611 -0.006380863 0.018904347 -0.06012119 0.0674547 0.058313526 0.042191908 -0.16174722 -0.08008329 -0.038643595 0.04263173 -0.08165903 0.010236575 0.109798364 -0.10040636 -0.036899887 0.1614253 -0.023407642 -0.07459663 -0.04446127 0.0011752833 -0.011720199 -0.12028259 -0.040432278 0.042837735 -0.052437063 0.0016279508 0.18963785 0.09442174 0.055974193 0.023731038 0.028669482 -0.010629193 -0.13244037 -0.12666589 0.004069236 -0.08953789 -0.078428105 0.21987963 0.021321231 -0.028670114 0.008031628 -0.053075213 0.123788655 0.0626281 0.08758946 -0.047475778 -0.1261181 0.21515149 -0.09688928 -0.07156002 0.099112555 0.007308199 -0.17682298 0.014051865 -0.16341917 -0.015894786 -0.05889321 0.031002743 0.19653882 0.11596191 -0.024059813 -0.015022744 0.03238854 0.0042946045 0.06235878 0.018879404 -0.08600114 0.0064244657 -0.06904424 0.16887838 -0.090864375 -0.07571766 -0.049791373 -0.15209876 0.09472388 -0.23077416 -0.034464672 0.050410025 0.04057555 0.122837044
8 -0.014158732 -0.21731643 0.029985689 0.1178002 0.020910194 -0.09975843 0.18267076 0.088819936 -0.0022373097 -0.007962767 -0.0198001 0.17155936 0.011519654 -0.17023228 0.002949738 -0.16555509 -0.031163407 -0.124278195 -0.011709304 0.052462425 0.1728686 -0.02186663 0.20259432 0.037892144 0.033482347 -0.03721379 -0.06240476 -0.07240681 0.062967844 0.20740993 -0.006431252 -0.025863696 -0.11937284 0.114617854 -0.15905242 -0.1414258 0.2802389 0.03665649 -0.10154028 -0.07797761 -0.13601913 0.011914837 0.11946548 0.2015638 -0.12791762 0.15805522 0.07856795 -0.08179571 -0.002264194 0.031731755 -0.06201348 0.07453207 0.059772454 0.039001323 -0.15145084 -0.092229486 -0.03946175 0.041955452 -0.0661431 -0.004132074 0.10470042 -0.10513942 -0.019614255 0.16656116 -0.029625647 -0.070991136 -0.045299273 -0.0013539095 -0.004656032 -0.1436483 -0.04090205 0.036805853 -0.062686704 -0.0016512928 0.19796078 0.090041086 0.05124842 0.01661306 0.013025154 -0.029422026 -0.12938453 -0.10308565 -0.002145779 -0.07034417 -0.093499415 0.18798374 0.050478496 -0.026924448 0.0151103465 -0.052768365 0.12921394 0.048070975 0.0947155 -0.02730222 -0.12882389 0.19665642 -0.08829383 -0.10143891 0.10533672 0.019001557 -0.15790589 0.012691536 -0.17251639 -0.025197392 -0.06721822 0.0146256555 0.19403942 0.103110656 -0.023531467 -0.031360243 0.02916759 0.022195607 0.057888363 0.0046256282 -0.0898284 0.021195129 -0.06699937 0.15877567 -0.092032075 -0.08193773 -0.044873055 -0.14783596 0.117332436 -0.2324843 -0.058153007 0.030763365 0.047041733 0.11712491
19 -0.020869082 -0.20211303 0.06318486 0.09913959 0.025169749 -0.109797634 0.19812183 0.051745176 -0.07348485 0.015664939 -0.051530033 0.17486072 0.0496398 -0.20143184 -0.06376189 -0.1614693 -0.017631145 -0.105306454 -0.01017109 0.08555023 0.18428633 0.0005934633 0.24304709 0.048313823 -0.0047101323 0.0025516609 -0.046860676 -0.04781209 0.09308528 0.23857191 -0.020603808 -0.0052417675 -0.15588255 0.16189471 -0.20097621 -0.16105768 0.3011822 0.0037073265 -0.08544844 -0.10899151 -0.17738587 8.0395715e-05 0.104159154 0.2375075 -0.096201 0.150756 0.044428192 -0.089201696 -0.022298608 0.011793079 -0.053177588 0.054746147 0.059453506 0.06137412 -0.18995412 -0.06342268 -0.050294198 0.054731026 -0.10515516 0.025586542 0.105363876 -0.11125065 -0.06989372 0.15863219 -0.0072771944 -0.08858195 -0.035962302 -0.006820525 -0.020732027 -0.102074504 -0.039956544 0.04548728 -0.032299805 0.008248 0.17836644 0.09693998 0.06076931 0.03732699 0.048320424 0.010628461 -0.14162017 -0.17090611 0.011064185 -0.11469821 -0.07196819 0.28267145 -0.014781113 -0.033888444 0.0017881913 -0.06882595 0.11262555 0.08704252 0.078715906 -0.077058956 -0.13499975 0.253761 -0.12651798 -0.02371624 0.095070176 -0.029650008 -0.20550914 0.021490896 -0.15318188 -0.01644411 -0.038923565 0.04777179 0.21331899 0.1313121 -0.041592263 0.0012289009 0.03425635 -0.03293299 0.07336149 0.03464593 -0.07657855 -0.0067710797 -0.08306029 0.18780069 -0.09823329 -0.06586829 -0.06436599 -0.17773768 0.057346355 -0.22421652 0.004235037 0.07445921 0.03668934 0.12548494
10 -0.020474978 -0.19161917 0.051361766 0.099405244 0.027280524 -0.100923985 0.18843737 0.05592507 -0.058235165 0.007990423 -0.038800698 0.16588372 0.042145107 -0.18502028 -0.051692206 -0.15121207 -0.015918303 -0.09620605 -0.0150388945 0.074169636 0.17623623 -0.0008045987 0.22666456 0.04838254 -0.0009056732 -0.0058729257 -0.044257678 -0.05256474 0.085308686 0.22095966 -0.021660795 -0.0108592175 -0.14400578 0.15567471 -0.18862177 -0.15192604 0.2915873 0.0002680727 -0.08909516 -0.10446506 -0.16626802 0.001530187 0.104992256 0.22644188 -0.09569657 0.14881273 0.047879547 -0.0827764 -0.013208711 0.009235911 -0.05100926 0.056813516 0.06339338 0.05599497 -0.1818243 -0.06348452 -0.040935293 0.04495082 -0.10258847 0.023675157 0.10374561 -0.10399125 -0.0669863 0.15055409 -0.010743927 -0.077746905 -0.03989328 -0.0081458725 -0.018510167 -0.102601945 -0.036736034 0.038766515 -0.032593217 0.0054772724 0.18008727 0.09861956 0.055160668 0.028091155 0.041747306 0.00542777 -0.13725112 -0.15627041 0.009421373 -0.09896794 -0.073869295 0.2586005 -0.01104415 -0.03595845 0.006378801 -0.063737534 0.11502696 0.07754084 0.080127485 -0.06675022 -0.12799019 0.23785104 -0.11593015 -0.03768725 0.09309689 -0.014554257 -0.19468309 0.016777517 -0.1474645 -0.012833121 -0.04364207 0.03911229 0.20636666 0.12593287 -0.038043566 0.00045905754 0.036851536 -0.02789958 0.06905715 0.02867522 -0.07687864 -0.005187698 -0.0779829 0.17566663 -0.0915583 -0.0711907 -0.057426218 -0.16708738 0.06540895 -0.21365902 0.0024075839 0.062716894 0.035402764 0.12260889
16 -0.020602493 -0.19873735 0.046800856 0.106562816 0.024001224 -0.10472047 0.18913801 0.06563448 -0.041807756 0.0025755053 -0.035873193 0.16982459 0.032075543 -0.18313496 -0.031284697 -0.161917 -0.026510516 -0.112816386 -0.017194405 0.06299682 0.17346449 -0.0061610523 0.22362228 0.041918393 0.0138726765 -0.018956214 -0.0493978 -0.061181825 0.07849306 0.21617432 -0.015738528 -0.012721542 -0.1415853 0.13608746 -0.1760039 -0.1455665 0.29070085 0.013983831 -0.095454425 -0.098442726 -0.15679617 0.00840379 0.11516535 0.21808632 -0.10956568 0.14629893 0.060514465 -0.08187005 -0.01409919 0.023060689 -0.05135885 0.0646477 0.059108645 0.052299503 -0.16924393 -0.07692812 -0.04089032 0.048875984 -0.08764473 0.01086444 0.107307106 -0.10751545 -0.049995154 0.15474589 -0.01647876 -0.07666495 -0.041319396 -0.0008905545 -0.012816234 -0.11971505 -0.033527438 0.036964506 -0.043850955 0.003085201 0.19038469 0.0915479 0.058538407 0.025845127 0.032719657 -0.004718833 -0.13237353 -0.138529 0.00483828 -0.096225254 -0.07530504 0.23853453 0.010336154 -0.028219188 0.010779186 -0.057704054 0.115665026 0.07154941 0.080038056 -0.053435847 -0.13041316 0.22885233 -0.105116695 -0.057860274 0.09782351 -0.005901544 -0.18124323 0.019999294 -0.15367095 -0.021037586 -0.05688032 0.029888634 0.19966193 0.121400364 -0.028043829 -0.011393461 0.033355042 -0.0046102963 0.061187398 0.024742072 -0.08083542 0.0061414707 -0.076833494 0.17613766 -0.092006415 -0.07445243 -0.05427225 -0.15970147 0.08064957 -0.22626662 -0.021328056 0.059037097 0.043691736 0.12747194
18 -0.015233076 -0.2108162 0.034729153 0.112627015 0.025460165 -0.106470525 0.18283299 0.08159775 -0.021026628 8.96313e-05 -0.027572948 0.17604512 0.028751139 -0.18133771 -0.01611578 -0.16768669 -0.03102422 -0.11658579 -0.016761893 0.06264042 0.180706 -0.015335915 0.22019802 0.041736808 0.025127603 -0.026103273 -0.056816254 -0.06815777 0.07567746 0.2168712 -0.009034234 -0.018189661 -0.13158517 0.12971613 -0.16679898 -0.14647122 0.28311026 0.02630692 -0.09827257 -0.085660934 -0.14654456 0.011983523 0.11523238 0.2091803 -0.12154328 0.15432274 0.06542784 -0.08320369 -0.00536144 0.022273468 -0.05842522 0.06652939 0.061268285 0.047610477 -0.16133092 -0.08159303 -0.03803413 0.043793906 -0.07761902 0.0043914896 0.10843394 -0.10653901 -0.034575585 0.16014719 -0.02102798 -0.071067125 -0.045128237 -0.00383918 -0.004706592 -0.12519194 -0.04095271 0.04048343 -0.049878027 -0.0029287203 0.19661917 0.0944644 0.058622073 0.025711007 0.026116515 -0.016662424 -0.13632984 -0.11846777 0.0037969924 -0.08611392 -0.08545388 0.21286197 0.031820837 -0.029660568 0.009506882 -0.050857842 0.12270289 0.057456557 0.09033879 -0.046289377 -0.13271588 0.21377397 -0.09983045 -0.074882895 0.10477811 0.0071230223 -0.17375699 0.019414593 -0.16172525 -0.020451035 -0.06204014 0.024856336 0.19446324 0.111621104 -0.027833566 -0.023732675 0.030569632 0.0038275109 0.057845503 0.012641535 -0.08412275 0.007982381 -0.07157369 0.16431995 -0.09070594 -0.07867481 -0.04899274 -0.15703274 0.10033952 -0.23303378 -0.04149988 0.042483106 0.042725038 0.12135443
15 -0.026933562 -0.19056728 0.061005965 0.09269665 0.026752891 -0.102362685 0.1889707 0.047856323 -0.071045175 0.012846411 -0.043504056 0.16322887 0.04885121 -0.18966283 -0.055953458 -0.15564077 -0.018875938 -0.09801517 -0.014691703 0.07233376 0.17640647 0.0043085846 0.22971076 0.044810656 -0.0064047654 0.0001479873 -0.04365073 -0.045521583 0.09126073 0.2222729 -0.022672486 -0.0030550568 -0.1459448 0.15752158 -0.18725018 -0.15059492 0.2858171 -0.0002767479 -0.07820932 -0.10298298 -0.1700501 0.0017413485 0.09937397 0.22522053 -0.09153368 0.14392526 0.03530882 -0.08371282 -0.020248545 0.009476109 -0.050036643 0.05203697 0.059001513 0.062275454 -0.18618959 -0.06539073 -0.047720417 0.046449117 -0.102963395 0.027528582 0.105906636 -0.10107016 -0.06969146 0.14340901 -0.0063589574 -0.07751479 -0.03671941 -0.007158956 -0.014199846 -0.09312653 -0.036033608 0.039061546 -0.029794358 0.0039798617 0.1728883 0.09662279 0.060587347 0.033229206 0.046031114 0.008008066 -0.13567452 -0.16029039 0.01036362 -0.11162093 -0.06970327 0.26666573 -0.016528158 -0.038329657 0.005663629 -0.06143171 0.11070477 0.08404174 0.076074265 -0.07782257 -0.13303253 0.24364643 -0.118880376 -0.021304218 0.09219369 -0.020230472 -0.19450475 0.018878924 -0.14596583 -0.012579681 -0.036236268 0.04130132 0.20609567 0.12743452 -0.037338827 -0.0024718307 0.0342841 -0.030736169 0.066601835 0.03251432 -0.078885116 -0.0046630856 -0.08009473 0.18171047 -0.09562271 -0.06392997 -0.057662927 -0.17282121 0.059856407 -0.20996146 0.0030390613 0.07020441 0.0396153 0.124303214
21 -0.017071003 -0.22099543 0.025894023 0.1199062 0.021117808 -0.10428374 0.18978181 0.09098319 0.0017406836 -0.009175085 -0.017973153 0.1777722 0.013320012 -0.17977712 0.0016303327 -0.16842973 -0.033052098 -0.13277943 -0.016392116 0.05269896 0.18548557 -0.024085648 0.21068202 0.045834474 0.03595014 -0.0486662 -0.06800551 -0.08113073 0.06489217 0.21528918 -0.0009738992 -0.0301135 -0.1232966 0.11571122 -0.16995886 -0.15055989 0.2913753 0.045428406 -0.11063717 -0.08436215 -0.14620577 0.017288089 0.1250773 0.20497169 -0.13996357 0.16677497 0.089387804 -0.08399213 0.003332933 0.030929452 -0.058526635 0.08547878 0.06000733 0.036242686 -0.15692732 -0.09794168 -0.03823403 0.040940095 -0.06779494 0.0010999271 0.110641934 -0.105583414 -0.019122202 0.18041602 -0.030435469 -0.07376124 -0.051781353 -0.002267448 -0.0057313405 -0.15366302 -0.03808302 0.03832104 -0.06549369 2.0840955e-05 0.21032155 0.092473395 0.050994754 0.015538507 0.013147813 -0.029899046 -0.14111108 -0.100539975 0.0001669825 -0.07633719 -0.09924106 0.18935046 0.050528243 -0.030935844 0.016470656 -0.055211216 0.13882202 0.053877577 0.10226866 -0.022141192 -0.13452765 0.20920546 -0.09168618 -0.103191316 0.11476151 0.022766039 -0.16909114 0.014454837 -0.18163228 -0.022252202 -0.07011932 0.020562282 0.20246896 0.10766125 -0.024164194 -0.031705365 0.04023148 0.025877012 0.060375705 0.00486097 -0.09518167 0.024242787 -0.07199685 0.17086859 -0.094181634 -0.08420349 -0.04580993 -0.15724662 0.12811185 -0.257548 -0.066610485 0.037230458 0.05146692 0.12627947
23 -0.027810786 -0.18902275 0.07066548 0.09516829 0.027537586 -0.112074345 0.20248003 0.04250677 -0.102335036 0.02299444 -0.059718642 0.1721502 0.06582239 -0.21542545 -0.0877458 -0.15869515 -0.010813031 -0.08928125 -0.00997239 0.09504736 0.18421544 0.011619771 0.25371194 0.049992923 -0.018568905 0.014882032 -0.04024731 -0.040798984 0.10391962 0.25232884 -0.027763695 0.0032281291 -0.17226811 0.18667234 -0.21657799 -0.16842471 0.31512752 -0.016629076 -0.08231975 -0.11969345 -0.19191884 -0.0032299235 0.100138985 0.25426766 -0.08513169 0.14375538 0.023955232 -0.08676322 -0.031788234 0.003117806 -0.04795219 0.045279473 0.06801255 0.06920191 -0.21016504 -0.058543794 -0.05257429 0.056465127 -0.12582415 0.034191296 0.107132584 -0.11267879 -0.09084798 0.14987348 0.004899119 -0.090994425 -0.033207733 -0.006829464 -0.021523234 -0.08004069 -0.03958401 0.046662025 -0.018862015 0.01162387 0.17246829 0.10698604 0.06450336 0.04221213 0.06977094 0.03033921 -0.14129479 -0.20017736 0.016779773 -0.12953138 -0.06259233 0.3226739 -0.04454309 -0.038199782 0.0001346098 -0.0745683 0.10979362 0.10004566 0.06411927 -0.09940855 -0.14034556 0.2702146 -0.14047118 0.0020012495 0.089203484 -0.039358146 -0.22664598 0.02007926 -0.1400223 -0.013229004 -0.028919838 0.053799614 0.21953899 0.14073794 -0.0443079 0.014473079 0.033630095 -0.0543264 0.076394945 0.046426013 -0.07868449 -0.020052275 -0.0969515 0.19745333 -0.09893324 -0.0641913 -0.06899416 -0.18689452 0.035793215 -0.21895763 0.034959752 0.0864343 0.03830882 0.13136108
22 -0.01217249 -0.21770975 0.02977838 0.11911993 0.022340978 -0.10601886 0.18312387 0.08621579 -0.0095634805 -0.0099447 -0.021196583 0.17572679 0.019211546 -0.1770687 -0.0014060423 -0.16617619 -0.03528143 -0.12503192 -0.012075872 0.056476507 0.17809087 -0.02051913 0.2119346 0.040159352 0.027074741 -0.034820974 -0.062359616 -0.07771092 0.069712825 0.21289378 -0.0063772323 -0.027721109 -0.12850115 0.11793553 -0.16341332 -0.14505325 0.2816866 0.03428166 -0.10750821 -0.08650788 -0.13515203 0.0068318048 0.12024722 0.20803672 -0.12629244 0.15905482 0.075616345 -0.08061219 -8.8514644e-05 0.026311236 -0.06340603 0.07299909 0.05411086 0.037871957 -0.14957388 -0.091109514 -0.034952737 0.04796 -0.064625844 -0.004097335 0.10972503 -0.10092249 -0.022732224 0.16792811 -0.03047625 -0.06902497 -0.05264848 0.0015044304 -0.0013288779 -0.13716418 -0.04070675 0.042376176 -0.059699267 -0.002443301 0.20469093 0.09339395 0.05086636 0.022085063 0.019573694 -0.026307225 -0.13546798 -0.10917989 0.002563136 -0.078671314 -0.08918816 0.19243748 0.046660457 -0.032027423 0.016447995 -0.051630285 0.12948889 0.05230857 0.09400715 -0.03662441 -0.12996317 0.20627879 -0.09188518 -0.09475954 0.110470355 0.016353663 -0.16695231 0.016238283 -0.16844092 -0.020407008 -0.06905403 0.021293368 0.19650748 0.11395794 -0.024058692 -0.027467636 0.03660976 0.01720468 0.061573807 0.011102689 -0.08810938 0.016265314 -0.07140813 0.1642713 -0.095409416 -0.08331925 -0.042623814 -0.15030855 0.11522933 -0.2363973 -0.056420952 0.037921265 0.048588812 0.12396033
12 -0.009931553 -0.2299028 0.0020450433 0.12858288 0.018909855 -0.093847595 0.16770013 0.111857854 0.0522639 -0.028955206 0.007704517 0.1749201 -0.015841277 -0.14567421 0.046713054 -0.16133462 -0.047843363 -0.14406556 -0.016071973 0.025705855 0.1714476 -0.037944853 0.17821386 0.036400612 0.057597082 -0.076345384 -0.07805425 -0.09701906 0.04058564 0.18411578 0.0095041515 -0.04203723 -0.097807035 0.07248152 -0.13099334 -0.12649633 0.2619871 0.07043122 -0.12191444 -0.05925741 -0.10742934 0.019875176 0.1393345 0.1726893 -0.15469253 0.16773117 0.115753874 -0.0791497 0.011410285 0.042756867 -0.06682102 0.09745691 0.04993903 0.014658786 -0.12109116 -0.11922257 -0.029271193 0.03758462 -0.030053983 -0.021610493 0.11112108 -0.096058354 0.017659603 0.18164065 -0.0530087 -0.057535738 -0.054438405 0.0056084404 0.009108174 -0.17244944 -0.033843625 0.03877948 -0.082088515 -0.0071273413 0.21487455 0.07906311 0.050548866 0.00898863 -0.015834307 -0.05729958 -0.12747322 -0.047184743 -0.010035112 -0.0428775 -0.11064318 0.117657304 0.09723579 -0.022873182 0.017391142 -0.042025667 0.13938794 0.028403161 0.11236911 0.011133144 -0.123674095 0.16310254 -0.056858152 -0.15893519 0.1218135 0.05696941 -0.13365069 0.010059432 -0.18831937 -0.031229472 -0.09492336 -0.006999096 0.18302968 0.090698175 -0.0066600824 -0.05559494 0.030192606 0.05978769 0.0489285 -0.017312672 -0.094643846 0.04329934 -0.054329686 0.15299343 -0.09354849 -0.09771599 -0.031182548 -0.13149285 0.16708872 -0.2554114 -0.11913911 0.00784661 0.04859065 0.121452376
