34 128
34 -0.07485637 -0.20530379 0.09137432 0.0040546744 0.12190707 -0.110341966 0.12607408 0.040219236 -0.03180357 -0.028319282 -0.09910034 0.154282 0.047615796 -0.1785298 -0.0099087665 -0.2116336 -0.08709118 -0.086687356 0.017423663 -0.03724214 0.21526235 0.03573727 0.18826362 0.037854895 -0.07081221 -0.059249077 0.0085406285 0.0011524202 0.048280373 0.07022588 -0.040284835 0.07474191 -0.14928062 0.05818284 -0.07875471 -0.05283356 0.2524821 0.042219322 -0.017856667 -0.099185124 -0.17492768 0.075440936 0.23468637 0.17434053 -0.07786091 0.1239315 0.08208896 -0.13579585 -0.022815794 0.0612782 -0.047017567 0.13548648 0.02988428 0.18278158 -0.24573529 -0.1390783 -0.03886551 0.020433651 -0.10088249 0.007827115 0.17901221 -0.10645988 -0.16713671 0.11200871 -0.028958026 -0.09157526 -0.08407766 -0.02742793 0.018381996 -0.14808059 0.013648202 -0.017862843 0.039313424 -0.031681184 0.15215304 -0.038079534 0.19100894 0.077102266 -0.05634627 -0.0014223496 -0.13989227 -0.16216035 -0.038293373 -0.23919913 -0.08592758 0.21059275 0.032773048 -0.03093592 -0.07207335 0.02110696 0.09607918 0.09718693 0.10308303 -0.07907613 -0.15644462 0.1886998 -0.094021425 -0.12103492 0.03434925 -0.0025046945 -0.15341292 0.076817214 -0.08875152 -0.08801263 -0.097964555 0.003755521 0.20356067 0.11858759 -0.024757255 -0.09146565 0.04230057 -0.026145551 -0.026863616 0.05018082 -0.06651387 0.0013826416 -0.036908284 0.2880854 -0.14644855 -0.03415491 -0.08401586 -0.17913163 0.04405368 -0.23278643 -0.083897345 0.10719223 0.0037064964 0.12843885
1 -0.050691564 -0.2577958 0.0061566993 0.012993584 0.07173963 -0.10642014 0.110268466 0.09258232 0.14600605 -0.06444094 -0.060789693 0.1837191 0.0048564365 -0.08881132 0.09721814 -0.18326116 -0.10771298 -0.15967175 -0.010468755 -0.07389458 0.22584951 -0.03221118 0.16597274 0.046957593 0.018364973 -0.11974365 -0.03617624 -0.0757356 -0.014576516 -0.012672518 0.010075262 0.04671588 -0.0589933 -0.062132083 -0.028278593 -0.053327788 0.18182914 0.070908904 -0.06407156 -0.08820688 -0.1256632 0.050719332 0.21659476 0.12950777 -0.14177313 0.14171743 0.1456729 -0.07279447 0.06477565 0.0859221 -0.10424775 0.18847777 0.030809304 0.083095744 -0.123594105 -0.13079216 -0.0049458644 0.020332888 -0.02392195 -0.020089976 0.17988794 -0.12504108 -0.022072831 0.153007 -0.10041156 -0.0047177975 -0.09607136 0.0031229393 0.028103458 -0.21448219 -0.024717622 -0.011260659 -0.046734817 -0.06882238 0.20995183 -0.017527193 0.11143829 0.018131165 -0.12208022 -0.11364976 -0.15050785 -0.015242285 -0.024650363 -0.10889094 -0.15314752 0.0029746396 0.12011726 -0.010326618 6.294681e-05 0.058425702 0.14125873 -0.0024030204 0.15238483 0.045103177 -0.09767798 0.09326972 0.019565377 -0.2223536 0.07229889 0.08597965 -0.070466064 0.095337115 -0.1338084 -0.06883053 -0.13891767 -0.030084971 0.1613089 0.07402719 -0.0006268487 -0.09514131 0.029072545 0.09482762 -0.047083963 0.008716983 -0.086465426 0.012789237 0.0021749758 0.21748342 -0.14643846 -0.07565108 -0.042857405 -0.06621664 0.15317146 -0.23144493 -0.20194286 0.0067619784 0.004774075 0.14770253
33 -0.06389954 -0.20745812 0.06572556 0.0070574395 0.10716563 -0.102729075 0.11527186 0.047812708 0.006540958 -0.034638267 -0.07957476 0.1548335 0.03337402 -0.15308622 0.014013201 -0.19569224 -0.09294386 -0.09736782 0.0024376279 -0.04241578 0.21103248 0.023864564 0.17540036 0.039061643 -0.055002116 -0.06672256 -0.008857154 -0.014484943 0.035850633 0.052836157 -0.032985486 0.06720522 -0.1250776 0.033102337 -0.07108086 -0.055910543 0.22985944 0.046952847 -0.030895853 -0.0924247 -0.15831181 0.068658 0.22058786 0.1566692 -0.08548147 0.13167615 0.089132115 -0.12099306 -0.015398093 0.05653432 -0.05641726 0.14349818 0.028596373 0.1502282 -0.21282811 -0.12716752 -0.033125624 0.01891288 -0.075896956 0.00696593 0.17580162 -0.11198441 -0.13047123 0.118829474 -0.038270462 -0.07484533 -0.07741075 -0.017691249 0.020289633 -0.15001844 0.010582478 -0.011553803 0.023771802 -0.04083327 0.15337135 -0.031938735 0.17255218 0.061249886 -0.070049316 -0.021221204 -0.13111034 -0.12753686 -0.03779973 -0.20700997 -0.098771095 0.16701478 0.047465604 -0.025096437 -0.057834603 0.026116077 0.105897635 0.07543927 0.11093523 -0.05408056 -0.13430782 0.17002489 -0.07158069 -0.13669041 0.045561112 0.010902851 -0.13767156 0.07476111 -0.09836123 -0.07808149 -0.098387115 -0.006916817 0.18888946 0.10743527 -0.017731667 -0.09331156 0.03718535 -0.0042053633 -0.03136549 0.028177822 -0.06555928 0.004474309 -0.030686805 0.26019534 -0.14230485 -0.044105805 -0.07300041 -0.15246297 0.064352036 -0.22493836 -0.10000604 0.08437146 -0.0021656067 0.12766297
6 -0.029116835 -0.3390669 -0.076873414 0.037873704 0.030806718 -0.10785005 0.116585866 0.15412559 0.33499992 -0.109344855 -0.029724091 0.23419322 -0.04261886 -0.010337896 0.21992396 -0.17537667 -0.14031346 -0.25528976 -0.040672023 -0.11815804 0.26092738 -0.11045836 0.17006278 0.054442592 0.11637078 -0.20621924 -0.08358308 -0.17639653 -0.0836246 -0.088020444 0.074177705 0.016341675 0.02669596 -0.19415887 0.026425548 -0.05057229 0.14291032 0.11985203 -0.1279309 -0.082303196 -0.091675214 0.042876225 0.22997223 0.09677933 -0.22784407 0.1784271 0.24109721 -0.02526078 0.16535546 0.12296189 -0.16269188 0.2592235 0.03337668 -0.013714871 -0.00022861751 -0.14160529 0.028774377 0.011762006 0.058330156 -0.05635758 0.19574483 -0.1409783 0.12753797 0.21340801 -0.17696726 0.07415701 -0.12803246 0.027970778 0.04707937 -0.31422997 -0.06214476 -0.0015335844 -0.1564071 -0.10434375 0.30490604 0.002545551 0.034244914 -0.025412263 -0.2083147 -0.22982936 -0.18449837 0.14348929 -0.009328192 0.017529972 -0.22800985 -0.20729566 0.22620413 0.010961038 0.06328589 0.10680533 0.20076768 -0.10270925 0.21994898 0.18202068 -0.04653947 0.012297403 0.14049809 -0.34207618 0.114450805 0.17848594 0.016376518 0.12487346 -0.1995119 -0.054273874 -0.20666972 -0.06623713 0.13084404 0.036467128 0.030479785 -0.11132829 0.033083078 0.23661734 -0.075999826 -0.029401368 -0.11081535 0.03160067 0.040189594 0.16490377 -0.15631308 -0.11726516 -0.0033916612 0.033437937 0.29476884 -0.2581726 -0.35236627 -0.090253346 0.01903371 0.17933151
7 -0.034968846 -0.33861202 -0.06241662 0.031932198 0.043222416 -0.11176743 0.12491393 0.14379624 0.30433026 -0.1068629 -0.041215993 0.23996462 -0.031177238 -0.03938438 0.19905917 -0.19293462 -0.14191298 -0.24385396 -0.04028843 -0.11232734 0.2715231 -0.09281024 0.18496916 0.06330941 0.093007796 -0.19821969 -0.08315651 -0.16152121 -0.070913434 -0.07333372 0.061690897 0.033223506 -0.004380525 -0.17094341 0.006581154 -0.054117527 0.16855946 0.10641855 -0.1185554 -0.09152532 -0.110749304 0.050273746 0.243287 0.11947191 -0.21485578 0.18446475 0.22911586 -0.039557498 0.14357531 0.11549126 -0.15764551 0.25966433 0.03641496 0.019233413 -0.043940328 -0.1448195 0.023749614 0.012327087 0.03702439 -0.040820353 0.20349917 -0.14729184 0.09002379 0.21495095 -0.17096823 0.055435035 -0.1273874 0.028518267 0.04717772 -0.31107917 -0.05627361 0.0013754496 -0.13793762 -0.10332305 0.3028149 -0.0022326543 0.060490552 -0.012089686 -0.20031221 -0.21172847 -0.18699007 0.1049269 -0.019372288 -0.021917569 -0.22870812 -0.15208624 0.20503673 0.0086013805 0.043771714 0.10174079 0.20244929 -0.07836551 0.22203018 0.14932588 -0.0670433 0.046712775 0.116376385 -0.3315655 0.10280525 0.16355315 -0.016871274 0.12996994 -0.2003867 -0.06602629 -0.20070985 -0.06627209 0.1481685 0.05051807 0.027631875 -0.11317882 0.037301607 0.21248049 -0.0752394 -0.027784592 -0.116408244 0.023470595 0.02648138 0.19493839 -0.16820753 -0.10915523 -0.020028645 0.006235906 0.27489224 -0.2657842 -0.33049107 -0.06777527 0.016079742 0.19238955
3 -0.070602216 -0.21908955 0.06682354 0.006367728 0.10564528 -0.10679763 0.12303467 0.053787086 0.018880598 -0.04126369 -0.08173594 0.16066784 0.028100947 -0.15451795 0.020878822 -0.20673938 -0.092716 -0.11465107 0.003272156 -0.052478433 0.21592166 0.01846694 0.18003128 0.047404777 -0.040313687 -0.07833299 -0.00803804 -0.01985614 0.033813525 0.047769226 -0.029517287 0.061774857 -0.124633394 0.023038251 -0.06624323 -0.057102874 0.23494859 0.054397367 -0.031211382 -0.09553602 -0.15901251 0.06362879 0.22927105 0.16493025 -0.0980911 0.13350809 0.104434974 -0.11908588 -0.0051246807 0.06804537 -0.059050456 0.1512706 0.02446288 0.15185542 -0.21096541 -0.13681243 -0.030508231 0.019917777 -0.08020328 0.006975727 0.17717348 -0.11251901 -0.121479005 0.1307876 -0.050386887 -0.068616144 -0.08339375 -0.012262651 0.021300819 -0.1723675 0.007740224 -0.012460769 0.010734565 -0.042798124 0.17303865 -0.03459284 0.1734712 0.057133447 -0.07584887 -0.034182686 -0.14263545 -0.11217907 -0.03769207 -0.20213318 -0.10686581 0.1509068 0.05775522 -0.022144662 -0.05363923 0.030468965 0.10985111 0.068553284 0.118134916 -0.039747074 -0.13918927 0.16502401 -0.063120686 -0.15010652 0.051429924 0.024477217 -0.13505036 0.0856948 -0.110919535 -0.08329791 -0.10962838 -0.0023749107 0.19343017 0.10738231 -0.013297172 -0.09878718 0.042916205 0.0108279 -0.034858882 0.03407133 -0.071774565 0.0069619245 -0.028365437 0.26964772 -0.1411333 -0.04692756 -0.07489288 -0.15066178 0.07433665 -0.23499036 -0.11990536 0.079172045 0.003839505 0.1382722
5 -0.033481073 -0.35399765 -0.07672017 0.035229996 0.043534838 -0.11804934 0.12764446 0.14759995 0.3323855 -0.11416594 -0.03275788 0.25019813 -0.04039449 -0.021568228 0.21502803 -0.19521889 -0.15000555 -0.2600281 -0.043403655 -0.11238246 0.27900428 -0.099800475 0.18026324 0.06457431 0.105951525 -0.20884153 -0.08620655 -0.176097 -0.07941212 -0.084435 0.06562745 0.02380746 0.010378965 -0.18464531 0.019824946 -0.05718036 0.16359739 0.11994042 -0.12578776 -0.08636827 -0.09719341 0.046038814 0.2375409 0.10963925 -0.22868252 0.1866688 0.2407544 -0.034341346 0.1537642 0.11654325 -0.16400719 0.26612902 0.041662134 -0.006368733 -0.017954739 -0.14841093 0.029735385 0.012835574 0.05086325 -0.05562692 0.20050496 -0.15273702 0.114700526 0.22177789 -0.18045992 0.06708978 -0.12649658 0.024930803 0.05137016 -0.31859586 -0.06379616 -7.574078e-05 -0.14997758 -0.11401386 0.3093958 -0.0035396267 0.04580033 -0.02485675 -0.21290584 -0.22865525 -0.1926072 0.12464524 -0.016512292 -0.0056792544 -0.2372595 -0.18450092 0.22526473 0.014545308 0.057651687 0.10466156 0.20651795 -0.095475495 0.22704017 0.17152867 -0.060541667 0.029178245 0.1248135 -0.34493858 0.116440155 0.1796571 -0.005685139 0.13103287 -0.20675245 -0.066670455 -0.21318409 -0.06942669 0.14881104 0.04302509 0.022450056 -0.117192626 0.030027196 0.22715771 -0.07578804 -0.03314012 -0.119378135 0.031136574 0.0383294 0.19438381 -0.16392466 -0.11781384 -0.013467817 0.018804718 0.29088095 -0.2778738 -0.35372534 -0.07605299 0.009983407 0.19640228
11 -0.03277452 -0.3645265 -0.08882737 0.04081575 0.0323489 -0.118002556 0.11976041 0.16668327 0.36848572 -0.12242289 -0.029076852 0.25446627 -0.047910515 -0.0027488994 0.23935585 -0.18822879 -0.1519386 -0.27139243 -0.047796775 -0.12513429 0.28053907 -0.11846519 0.18372002 0.06141631 0.122375034 -0.22284193 -0.09596998 -0.19008937 -0.09435572 -0.10221685 0.08288464 0.019124262 0.033017136 -0.21489799 0.03121957 -0.04944794 0.15235706 0.12705687 -0.13649678 -0.078777 -0.087817624 0.0446589 0.24086556 0.10105774 -0.24332482 0.1902434 0.25885046 -0.016454827 0.1733135 0.125353 -0.17284688 0.2736843 0.038861107 -0.024136184 0.0074226353 -0.14793499 0.036016732 0.01618589 0.06139372 -0.057586778 0.19952603 -0.15250152 0.14680415 0.22953174 -0.19666955 0.08671595 -0.1384021 0.03045168 0.056151673 -0.33653048 -0.07029816 0.00093443244 -0.17080402 -0.11858529 0.3282554 0.00663554 0.028824436 -0.035630602 -0.2265361 -0.25093186 -0.19239238 0.15961754 -0.012787277 0.021697782 -0.2536232 -0.22563428 0.24642476 0.01538982 0.07271655 0.11526579 0.21340774 -0.11771346 0.23929937 0.20015262 -0.045202024 0.0063765785 0.1561179 -0.36823955 0.11907222 0.20042518 0.018905878 0.1394028 -0.21847871 -0.058409907 -0.22193561 -0.07681805 0.14113785 0.030958708 0.03267778 -0.1189893 0.032161273 0.25833613 -0.083294235 -0.039033342 -0.121392526 0.027734457 0.039504156 0.17957303 -0.16747537 -0.12958018 -0.002586274 0.038087796 0.3213572 -0.27694502 -0.37985086 -0.10373047 0.012080658 0.19963668
2 -0.059151076 -0.22060163 0.05509556 0.0053519406 0.09761437 -0.10680376 0.11884852 0.061396636 0.029424414 -0.04149332 -0.08186502 0.16657352 0.033582196 -0.14542899 0.030418871 -0.2019998 -0.101208426 -0.11246288 0.0039717616 -0.05120474 0.21763842 0.011537289 0.17939988 0.039928798 -0.040711615 -0.078332305 -0.012559041 -0.027632382 0.029412936 0.039453566 -0.019924747 0.059471186 -0.116264105 0.01396896 -0.06274822 -0.050608434 0.22636878 0.050085984 -0.034430653 -0.096232824 -0.15081249 0.06679856 0.22445057 0.1541597 -0.101936735 0.13153021 0.10171636 -0.11163428 0.0073278705 0.06302295 -0.06635083 0.1470532 0.030325178 0.14456049 -0.19881657 -0.13175191 -0.022313561 0.022141818 -0.072497055 0.0005864533 0.1772242 -0.11061357 -0.108232066 0.12375056 -0.055129636 -0.054921646 -0.0896479 -0.014148315 0.017075665 -0.17259927 -0.001274256 -0.013188635 0.011296879 -0.049431965 0.17221667 -0.026784735 0.16377798 0.052900717 -0.081297316 -0.041300077 -0.14286567 -0.10771734 -0.03739737 -0.18840587 -0.10721638 0.1362286 0.0667808 -0.023240676 -0.04094498 0.030960584 0.11534151 0.061642084 0.11953585 -0.036950473 -0.13538237 0.15174696 -0.05161167 -0.16063811 0.044794958 0.031429052 -0.11749252 0.078509554 -0.10323518 -0.08172827 -0.11184414 -0.012105551 0.18737161 0.10484417 -0.01695989 -0.09322164 0.03430254 0.022038074 -0.0332094 0.030789655 -0.07630723 0.006174126 -0.022749865 0.25917676 -0.14549832 -0.052260786 -0.06969006 -0.13900267 0.08488687 -0.2381794 -0.12420963 0.071869254 0.007863651 0.13550156
28 -0.07162182 -0.21412048 0.07421603 0.0060290564 0.10640363 -0.101469494 0.121393114 0.04561374 0.0006982038 -0.036063228 -0.083446525 0.15879042 0.034233928 -0.1502994 0.007221142 -0.2003935 -0.09057939 -0.10570652 0.01062357 -0.042844035 0.20933269 0.022411045 0.17838909 0.041105125 -0.054105874 -0.068207905 -0.0070111817 -0.012576265 0.03837774 0.051414236 -0.033121567 0.0672007 -0.124458246 0.034195967 -0.07005448 -0.056835942 0.23749259 0.050643697 -0.026826914 -0.09821158 -0.1628748 0.06349987 0.22767241 0.1653698 -0.09149975 0.12683181 0.09116948 -0.120498575 -0.012876659 0.05972109 -0.059746902 0.14650914 0.02932871 0.15128475 -0.21120618 -0.1334865 -0.03391312 0.016189538 -0.08702939 0.0062743896 0.1753232 -0.11109649 -0.12893239 0.123704515 -0.042594526 -0.074443474 -0.084832996 -0.012564094 0.013931374 -0.16154493 0.0068439147 -0.009838269 0.017563643 -0.04346715 0.1577651 -0.03403193 0.17082097 0.06520745 -0.073866695 -0.017660936 -0.13791545 -0.13416298 -0.03374505 -0.2061344 -0.09763079 0.17312945 0.046911966 -0.021848524 -0.057851855 0.025881426 0.10297679 0.07656272 0.10720907 -0.056137364 -0.13339488 0.16639806 -0.0700022 -0.13250181 0.042262964 0.0080159465 -0.13861302 0.08183148 -0.09938531 -0.08291341 -0.09797349 0.003399285 0.19556077 0.11185403 -0.016827116 -0.09255826 0.040847007 -0.0042817914 -0.033077847 0.03798578 -0.064893655 0.0012100576 -0.032415584 0.26459315 -0.14014697 -0.045580022 -0.07461556 -0.15419371 0.059773277 -0.22193593 -0.10265717 0.08386906 0.0016168795 0.13139689
17 -0.031482898 -0.31967577 -0.068109445 0.035386026 0.030487277 -0.10801365 0.11405476 0.14256059 0.30934978 -0.09875044 -0.02993384 0.22746116 -0.034223706 -0.01573907 0.19536689 -0.16932033 -0.13223948 -0.23845482 -0.04064834 -0.1033158 0.24996266 -0.09988721 0.16827862 0.05161135 0.102423154 -0.18736313 -0.0788363 -0.15946 -0.07176871 -0.07471212 0.06545465 0.020679351 0.016651679 -0.17391184 0.015528957 -0.052445885 0.1480132 0.11107771 -0.11667211 -0.07540858 -0.0920975 0.03837039 0.21641044 0.102001525 -0.21037182 0.16757603 0.22391927 -0.025687398 0.14478439 0.11190543 -0.15251973 0.23965207 0.035924133 -0.0072401846 -0.0141664315 -0.13544162 0.022016518 0.016277688 0.04877719 -0.051406242 0.1854695 -0.13772964 0.108255774 0.19921273 -0.16298707 0.06624025 -0.12057541 0.022937441 0.04634165 -0.2912057 -0.059989426 -0.0023529888 -0.13660444 -0.102572866 0.28820458 0.0043690572 0.03802775 -0.023774642 -0.19186105 -0.21295613 -0.17290641 0.11819828 -0.010429345 0.0023498219 -0.22047737 -0.17286381 0.2101093 0.006796817 0.05744532 0.096174784 0.1852116 -0.08983172 0.20664771 0.16350529 -0.053495836 0.022439409 0.12373437 -0.3174414 0.1075419 0.16777404 0.0019185274 0.11960177 -0.1923946 -0.054309674 -0.19348338 -0.06489899 0.13482384 0.036209445 0.021141654 -0.10426298 0.0317057 0.21331863 -0.06630974 -0.025908075 -0.108290106 0.02574884 0.031262785 0.17859067 -0.15422821 -0.113232546 -0.007934935 0.020601127 0.2738453 -0.25192437 -0.3309436 -0.075631864 0.013567702 0.18154478
32 -0.06613192 -0.22401424 0.05533189 0.008518603 0.101543345 -0.10363501 0.12398362 0.052523453 0.022090094 -0.039481997 -0.082158476 0.16612618 0.027606027 -0.1437495 0.023753762 -0.19983453 -0.094409555 -0.115163624 -4.169927e-05 -0.04821033 0.21537553 0.018478017 0.17625543 0.040358964 -0.0464082 -0.07979596 -0.012372898 -0.0208715 0.029326111 0.041375093 -0.027069869 0.06077283 -0.11366273 0.018487964 -0.06621603 -0.05199688 0.2339586 0.05707607 -0.03605189 -0.10187923 -0.15877071 0.06804287 0.22442746 0.15738112 -0.10025204 0.13116172 0.10605119 -0.11208693 -0.0011200714 0.058752034 -0.062357675 0.15242463 0.025475683 0.14552504 -0.20067991 -0.13309672 -0.027640376 0.017684516 -0.074239515 0.0010941832 0.17509598 -0.11002787 -0.11788354 0.12929316 -0.056340966 -0.067558184 -0.092543624 -0.008951113 0.017429924 -0.17610896 0.00039172507 -0.007417599 0.011074199 -0.04814501 0.1683233 -0.030739496 0.16540998 0.0585192 -0.08256611 -0.031760417 -0.14298801 -0.11550276 -0.0330184 -0.19314569 -0.10742788 0.14985068 0.06212804 -0.020406136 -0.049016032 0.027030053 0.11144305 0.06648114 0.121717975 -0.04055304 -0.12886396 0.1593064 -0.05542224 -0.15039821 0.04167822 0.01627195 -0.12480507 0.079376586 -0.10737377 -0.08392237 -0.10446864 -0.00046274174 0.19150561 0.102637455 -0.019893944 -0.08974798 0.041118678 0.009003048 -0.032002624 0.034499332 -0.066613495 0.006816547 -0.028150458 0.26362222 -0.1378386 -0.049747597 -0.07397915 -0.1465628 0.076421835 -0.22912219 -0.11413043 0.073654465 -0.0012097318 0.1390281
24 -0.07017625 -0.20889436 0.08392267 0.0068262964 0.115686186 -0.10679864 0.12495518 0.041062802 -0.014638465 -0.031762183 -0.086522125 0.15586087 0.040997952 -0.17057598 -0.0018639473 -0.21241389 -0.091532685 -0.100951746 0.010050958 -0.044885695 0.21711925 0.034660865 0.1839547 0.05015436 -0.062056683 -0.063263066 -0.0023651877 -0.006857399 0.04145388 0.06348265 -0.045246627 0.070289195 -0.14388233 0.042293034 -0.07651085 -0.056920882 0.25007492 0.04359743 -0.023409152 -0.1080641 -0.16894017 0.074536435 0.2305799 0.1724595 -0.08323557 0.13244171 0.085724875 -0.12421429 -0.020447854 0.056994528 -0.04528883 0.1459502 0.020886043 0.17318848 -0.22750404 -0.13092156 -0.031595916 0.020108625 -0.09526412 0.010051174 0.17627132 -0.11082888 -0.14848453 0.11958511 -0.042338215 -0.08825315 -0.08503005 -0.013764101 0.012346215 -0.15496773 0.015492876 -0.010648639 0.027170537 -0.038038723 0.15646532 -0.041337855 0.1831912 0.06453707 -0.067002155 -0.005692925 -0.13634472 -0.14388911 -0.038692396 -0.22275947 -0.09676552 0.18967643 0.034975685 -0.021335881 -0.064037085 0.022567043 0.09924122 0.089314684 0.111749664 -0.0676145 -0.14340384 0.18795185 -0.08008396 -0.12637936 0.03947734 -5.1638417e-06 -0.15236177 0.0843383 -0.09163604 -0.08490301 -0.098400384 0.0084246695 0.20146328 0.11712692 -0.020215198 -0.08882322 0.045957822 -0.020608757 -0.031110603 0.0410955 -0.06942932 0.0015005332 -0.03664595 0.27772376 -0.13932425 -0.03669951 -0.08182601 -0.17151767 0.04960868 -0.23414344 -0.08620714 0.101575784 -0.0005700052 0.13653713
14 -0.06303518 -0.22393385 0.053735178 0.003669383 0.09667211 -0.1022628 0.1125713 0.06025808 0.045404654 -0.040575653 -0.08144948 0.16508834 0.024359137 -0.13488893 0.038842764 -0.19279832 -0.09498786 -0.11739285 0.0033935169 -0.055056617 0.21764317 0.008549627 0.1732206 0.042519175 -0.031071922 -0.08004431 -0.009263692 -0.029396573 0.017432006 0.03627975 -0.015683008 0.060249023 -0.10718596 0.0066310223 -0.0528344 -0.05499442 0.21709576 0.055552 -0.039652012 -0.09049782 -0.15302463 0.062480155 0.22304948 0.15465656 -0.10315349 0.13529347 0.110003896 -0.10501909 0.0128336875 0.07356742 -0.074095 0.1546293 0.02929062 0.13670412 -0.18858323 -0.13449134 -0.028666861 0.021719776 -0.06631391 -0.006011942 0.17840569 -0.11679537 -0.09598039 0.12546793 -0.058353294 -0.049120907 -0.08314852 -0.0161008 0.023439424 -0.17339535 -0.005358082 -0.01124578 -0.0012596545 -0.044604648 0.17754781 -0.025356177 0.15497088 0.04949776 -0.084995426 -0.053369585 -0.14111738 -0.09140633 -0.030067118 -0.17313206 -0.116910115 0.118315645 0.07040466 -0.024374522 -0.038525976 0.035741992 0.11405678 0.048389405 0.12097914 -0.02379847 -0.12928759 0.14582828 -0.04559955 -0.16009557 0.054957587 0.03776656 -0.1168341 0.08191082 -0.11085253 -0.07394992 -0.11704142 -0.0117464205 0.18311302 0.0998489 -0.016695933 -0.0969556 0.03283926 0.026065685 -0.038203098 0.028724533 -0.07063639 0.005754002 -0.023344161 0.24762498 -0.14321187 -0.049998526 -0.06370461 -0.12847833 0.09110912 -0.23001131 -0.13166559 0.059388995 0.0029927618 0.13263433
9 -0.06401321 -0.2151312 0.05483632 0.006411846 0.09987356 -0.10236321 0.117683314 0.05498299 0.03131628 -0.040325254 -0.0772026 0.16419204 0.028506348 -0.14613563 0.025332611 -0.19859566 -0.09764993 -0.110774666 0.0008080476 -0.048754055 0.20956387 0.017121902 0.17709911 0.039032664 -0.041867428 -0.07500386 -0.012464692 -0.029093068 0.02655955 0.0429941 -0.024290834 0.063938476 -0.117102355 0.011999081 -0.05868581 -0.055120096 0.23081042 0.053211227 -0.03819116 -0.09393282 -0.15709892 0.06302127 0.22388603 0.15853383 -0.09878269 0.13102822 0.10327323 -0.114505194 -0.0010246788 0.060125336 -0.06511933 0.15199287 0.024136294 0.14421932 -0.19434144 -0.13166167 -0.027942266 0.01748564 -0.071588054 -0.0013783582 0.17631884 -0.11166757 -0.11539512 0.12661767 -0.05023061 -0.06502229 -0.08547883 -0.012449507 0.01787727 -0.16890492 0.004969591 -0.008993962 0.01199528 -0.04750878 0.17277214 -0.03344213 0.160723 0.058287468 -0.08477709 -0.03354746 -0.1367276 -0.1087807 -0.038137276 -0.19443788 -0.10992363 0.13837454 0.062672086 -0.022160292 -0.04982708 0.03247761 0.11260619 0.060946513 0.12279036 -0.03183609 -0.1314 0.15432324 -0.052143157 -0.15251271 0.047090597 0.025678324 -0.12838455 0.07932766 -0.10882573 -0.07892843 -0.10876811 -0.0071666003 0.18470797 0.10640387 -0.018969415 -0.09648884 0.04386957 0.015309273 -0.032277662 0.028577842 -0.07221198 0.0046470426 -0.029282326 0.2638825 -0.14352426 -0.045361154 -0.07190908 -0.14334199 0.07826812 -0.23149917 -0.12293805 0.078202136 0.0032911415 0.13772361
30 -0.06648541 -0.20832632 0.07508634 0.006440731 0.10722746 -0.10335286 0.12371982 0.03821603 -0.015638985 -0.028209098 -0.0925293 0.15407553 0.037907183 -0.1657248 -0.0040547373 -0.20842096 -0.08971604 -0.09708234 0.0050864904 -0.03730559 0.21461898 0.028284982 0.18462573 0.038788162 -0.0611122 -0.06425452 0.0033943404 -0.004482382 0.039014943 0.062832996 -0.040129863 0.06459996 -0.13472578 0.04074583 -0.079383805 -0.051551417 0.24499705 0.04991705 -0.02056116 -0.1061177 -0.16726603 0.07256252 0.22831544 0.1713349 -0.080883995 0.13227485 0.086859964 -0.13049702 -0.02240468 0.058909025 -0.04898034 0.13990216 0.027643194 0.15996818 -0.22336671 -0.12832308 -0.03904848 0.02073391 -0.08998307 0.010696415 0.1755812 -0.112377554 -0.14249432 0.11518371 -0.029853988 -0.08486934 -0.08390158 -0.021016184 0.01671627 -0.14982545 0.014774499 -0.013804399 0.03292288 -0.03802779 0.15174901 -0.0396573 0.18329498 0.069947146 -0.062858574 -0.004496086 -0.14018084 -0.14503855 -0.041552458 -0.22201711 -0.09107097 0.19226605 0.034294173 -0.026110766 -0.06678758 0.020873383 0.100742646 0.08096242 0.106340215 -0.06208577 -0.1383304 0.17890449 -0.0856791 -0.121483274 0.041415058 0.00013032311 -0.14162359 0.07960035 -0.09572398 -0.08835719 -0.09733838 0.0024753069 0.20036209 0.1149143 -0.026210468 -0.092411555 0.03811397 -0.022676619 -0.033569604 0.036266267 -0.060406543 -0.00032676297 -0.03878777 0.27144524 -0.13969329 -0.034710255 -0.0837688 -0.16517057 0.04784979 -0.22735626 -0.083820745 0.10056281 0.003062698 0.12846087
26 -0.066759765 -0.21084408 0.0758815 0.0034938653 0.11152972 -0.10903172 0.1251549 0.043397054 -0.005111244 -0.036464766 -0.0887426 0.1555818 0.039320912 -0.16259885 0.005750566 -0.20425168 -0.09087279 -0.10498946 0.0067756465 -0.04378229 0.21981551 0.02645275 0.18485081 0.04663762 -0.05669309 -0.07135983 -0.0059748045 -0.013510015 0.035454866 0.057626873 -0.03404877 0.06671641 -0.12967245 0.030648135 -0.07628534 -0.05753997 0.24126135 0.047799807 -0.026978169 -0.10340952 -0.16415477 0.06604875 0.22509713 0.16399965 -0.08974221 0.13433857 0.08961174 -0.1224489 -0.014678283 0.06545864 -0.04939171 0.14780356 0.024055205 0.15556656 -0.21814463 -0.13355072 -0.030657085 0.021459723 -0.091081224 0.0073639704 0.17828108 -0.11329583 -0.13573866 0.124088675 -0.04218451 -0.07764054 -0.08349874 -0.02026571 0.016515264 -0.16061535 0.011837197 -0.01432496 0.021878943 -0.041512687 0.16404183 -0.04075818 0.1759976 0.062805966 -0.07161672 -0.01985738 -0.14431691 -0.1319982 -0.03639792 -0.21403578 -0.096981965 0.17772213 0.042057633 -0.023901371 -0.059059598 0.023700172 0.10477263 0.08063758 0.11532248 -0.050619897 -0.13852651 0.17282125 -0.0752777 -0.13431944 0.047062524 0.007725305 -0.13874905 0.081608415 -0.09672897 -0.082481354 -0.1006477 0.0036679273 0.2004946 0.11316822 -0.015704077 -0.08848513 0.0371257 -0.009720492 -0.031696606 0.041907374 -0.06529607 0.004452071 -0.030554961 0.2707517 -0.13682556 -0.04657415 -0.07831333 -0.16202207 0.055152386 -0.23566078 -0.09750371 0.09456402 -0.0014565862 0.12854679
4 -0.04996437 -0.24318784 0.011740588 0.016463654 0.07502607 -0.104657 0.10822717 0.089423165 0.12840775 -0.06283065 -0.056861755 0.17981113 0.008988323 -0.09418459 0.08752716 -0.18266167 -0.10514345 -0.15549386 -0.008984856 -0.06722078 0.22156623 -0.028061537 0.16356656 0.043837514 0.015349672 -0.11319881 -0.036095973 -0.07108555 -0.006460126 -0.005146387 0.006983586 0.04237805 -0.06514002 -0.05395113 -0.031092566 -0.051815074 0.19057612 0.071807735 -0.06103235 -0.082954384 -0.124882735 0.050149567 0.21583585 0.13353598 -0.13259941 0.13716906 0.14086394 -0.079633705 0.053325213 0.07806952 -0.09136594 0.17383437 0.030413926 0.087635055 -0.1278887 -0.12759401 -0.0047329175 0.016869187 -0.02552986 -0.020328982 0.17766564 -0.1182245 -0.027156891 0.14744684 -0.088670656 -0.0081344 -0.09776727 0.0023138663 0.02850495 -0.20692396 -0.020392396 -0.007522579 -0.041647505 -0.06722723 0.2070619 -0.018052796 0.1155036 0.02616978 -0.11797945 -0.09694805 -0.14522927 -0.0245337 -0.024911463 -0.11182435 -0.14152503 0.017772926 0.116959795 -0.013049796 -0.004481541 0.055669133 0.13081451 0.003716642 0.14162628 0.035175025 -0.10110999 0.10111985 0.009720286 -0.20929389 0.06697466 0.07660265 -0.075456806 0.09214304 -0.12629782 -0.063347206 -0.13846579 -0.02592044 0.15524073 0.07563746 -0.0013124886 -0.09449731 0.03595046 0.086279765 -0.045093488 0.011723759 -0.08362788 0.016526943 -0.0019993328 0.21930191 -0.1413345 -0.06974541 -0.04211737 -0.07433489 0.14255564 -0.23257214 -0.19477394 0.015842175 0.010697235 0.14604238
31 -0.05998647 -0.22772372 0.052140992 0.010892434 0.09601159 -0.109094955 0.12009255 0.059044413 0.04753998 -0.04497271 -0.074830145 0.1740391 0.028792694 -0.14010046 0.040888216 -0.2035045 -0.10482017 -0.123232745 0.0015506444 -0.05553509 0.22195128 0.0032398566 0.17507552 0.048226073 -0.027183084 -0.086768344 -0.013240313 -0.03396665 0.019655572 0.032203335 -0.020783292 0.063184604 -0.1097828 0.0027444875 -0.053240668 -0.051503427 0.2215591 0.056414954 -0.03841228 -0.099736005 -0.15075494 0.06657785 0.22469625 0.15086465 -0.10932916 0.13595973 0.11064151 -0.10920528 0.013647396 0.07165274 -0.07449981 0.1629112 0.028843582 0.13115278 -0.18353483 -0.13594604 -0.021143714 0.014971115 -0.06787164 -0.008343671 0.18210402 -0.11549344 -0.09929944 0.12914698 -0.06392325 -0.053994358 -0.093645 -0.012345386 0.019179009 -0.18158662 -0.0020116775 -0.014825822 -0.0017539432 -0.05122206 0.18395898 -0.029267121 0.15850718 0.04797683 -0.08665707 -0.049609315 -0.14271732 -0.091634825 -0.034246016 -0.17904061 -0.11615538 0.1140051 0.0707493 -0.022135714 -0.039231222 0.03435867 0.114197865 0.05423267 0.13042453 -0.020364894 -0.13164982 0.14595515 -0.042412918 -0.16441678 0.051134776 0.039468218 -0.116716735 0.08365327 -0.10998651 -0.08095882 -0.11667346 -0.010097943 0.18101673 0.09936338 -0.009736916 -0.09259801 0.03497173 0.026547581 -0.039432094 0.024267 -0.07210932 0.0111835 -0.023413416 0.2537071 -0.14352737 -0.050283715 -0.06632362 -0.12781562 0.08968085 -0.23275511 -0.13475022 0.06307618 0.00014183187 0.13509564
25 -0.06858514 -0.21706362 0.061663717 0.005143344 0.101017505 -0.104900606 0.11953922 0.045921378 0.017393196 -0.03790492 -0.084220886 0.15790251 0.030805524 -0.14800061 0.015689429 -0.20620432 -0.09132778 -0.11119374 0.0070642196 -0.043795686 0.21757616 0.019207932 0.18052308 0.046161253 -0.047801223 -0.0789413 -0.0071310946 -0.020087156 0.027358908 0.050554495 -0.028118765 0.06380856 -0.12194042 0.019848613 -0.07143445 -0.05181338 0.23105468 0.05466578 -0.03343975 -0.10256102 -0.16226692 0.0709612 0.22207598 0.15641129 -0.089790985 0.13581243 0.10036362 -0.113965765 -0.004194894 0.061688088 -0.061159767 0.15241124 0.027409606 0.15185842 -0.21011408 -0.13190742 -0.026061006 0.0147258425 -0.07916019 0.008248115 0.17201495 -0.10807969 -0.12310695 0.12211327 -0.05135099 -0.074791566 -0.08796531 -0.011808344 0.013019236 -0.1649645 0.006004139 -0.013828853 0.01737595 -0.0406706 0.16316676 -0.039018612 0.1659303 0.06120687 -0.074901685 -0.026881794 -0.13990396 -0.12350501 -0.036950625 -0.20542897 -0.10483934 0.15677471 0.053332616 -0.02628637 -0.058399048 0.023269512 0.10516368 0.068965696 0.120440766 -0.04677082 -0.13489734 0.16738652 -0.0632928 -0.14245073 0.044664018 0.015886642 -0.13615464 0.082747824 -0.1047415 -0.08173765 -0.10098276 -0.003102866 0.1917595 0.10743337 -0.015635954 -0.09210657 0.039906725 0.002972152 -0.031785686 0.030752992 -0.07216477 0.0026555278 -0.027675508 0.26291317 -0.14010063 -0.04507714 -0.074458934 -0.14603904 0.0664907 -0.23230863 -0.10890716 0.08811824 -0.0023942601 0.13316706
29 -0.068989545 -0.21161403 0.07108902 0.0043376735 0.11216116 -0.107495375 0.12217475 0.043618903 0.0013434915 -0.034192767 -0.08397586 0.16220637 0.033192392 -0.16212595 0.010163633 -0.20917271 -0.09737375 -0.1066506 0.009513542 -0.046647713 0.21723999 0.023490172 0.17749567 0.043158952 -0.056016795 -0.07037786 -0.0039115096 -0.015900621 0.03958097 0.05762088 -0.032000378 0.06581053 -0.13108633 0.032983556 -0.0731158 -0.054107353 0.24592541 0.049262147 -0.026017155 -0.10364738 -0.1612858 0.07329597 0.22672902 0.16313261 -0.086028114 0.1371838 0.09279883 -0.12539256 -0.0150109 0.06389956 -0.056755126 0.14751275 0.02433873 0.16318768 -0.22605543 -0.13193293 -0.028629377 0.021925217 -0.08451961 0.007226535 0.18239522 -0.116791934 -0.14053398 0.123424456 -0.045835804 -0.08052979 -0.08787746 -0.018559527 0.021064349 -0.15728277 0.0074683893 -0.013710044 0.018501127 -0.038191736 0.1654998 -0.032972153 0.18384573 0.06450759 -0.07088006 -0.020411853 -0.144805 -0.12939481 -0.03635212 -0.21978831 -0.1010188 0.17486331 0.051371846 -0.028193725 -0.060693525 0.023478625 0.107945114 0.07613705 0.11511514 -0.053062372 -0.14137061 0.18053313 -0.076299936 -0.1379622 0.044326894 0.009755047 -0.14575647 0.08567285 -0.10266838 -0.08496021 -0.10543639 -0.0020865812 0.19507973 0.11037345 -0.017093915 -0.09415371 0.04438744 -0.003265276 -0.03727104 0.03401483 -0.07442765 0.0011164459 -0.033978436 0.2747673 -0.14275613 -0.042535324 -0.08004321 -0.16236961 0.060896095 -0.23986302 -0.101923384 0.09398782 0.0004243137 0.13218056
27 -0.067063995 -0.20269203 0.07688222 -0.0015555385 0.11054086 -0.09973059 0.1213894 0.040339764 -0.021935813 -0.028078077 -0.08981093 0.14810702 0.03726334 -0.16037807 -0.0044298996 -0.20491196 -0.08410743 -0.096161775 0.011094576 -0.043049105 0.21081707 0.033546537 0.17809527 0.045977257 -0.0626035 -0.06401639 -0.0033115728 -0.00012952073 0.040661406 0.06379042 -0.03772402 0.06449528 -0.13809936 0.04207527 -0.074337095 -0.05637005 0.23822908 0.044728145 -0.021421632 -0.102060504 -0.16828333 0.07066412 0.22109893 0.1653439 -0.0766123 0.1302254 0.08720972 -0.12665413 -0.022467976 0.059377607 -0.04405353 0.13828175 0.022805661 0.16940723 -0.2272381 -0.13249221 -0.03585341 0.018686464 -0.08822513 0.012687525 0.16812877 -0.10187713 -0.14934507 0.11284663 -0.03189557 -0.08526993 -0.08285298 -0.016291326 0.013637551 -0.14889961 0.010058655 -0.010776816 0.03218034 -0.03929859 0.14703318 -0.042300746 0.18371047 0.06577765 -0.064106636 -0.0050212867 -0.13763109 -0.14481036 -0.03814391 -0.21834941 -0.093459286 0.1916241 0.03961524 -0.028112944 -0.070527196 0.019840868 0.09349197 0.08308626 0.10465777 -0.06575982 -0.145673 0.17905949 -0.082735926 -0.12217794 0.040311478 -0.004186347 -0.1489839 0.07674154 -0.088243105 -0.08717296 -0.08997091 0.005628665 0.19651651 0.108517416 -0.023814123 -0.08742714 0.043587662 -0.019130042 -0.030348407 0.037535083 -0.06181106 0.00045979067 -0.03579831 0.26830894 -0.13755707 -0.03541476 -0.08194231 -0.16110124 0.045231856 -0.22406015 -0.08446143 0.101156615 0.0023482642 0.12315478
20 -0.06495196 -0.21164759 0.06839681 0.0041321907 0.100959755 -0.108104385 0.12250837 0.050276436 0.0035695508 -0.03638399 -0.08838075 0.15429619 0.039343353 -0.15540242 0.012598104 -0.20235445 -0.09702536 -0.10245997 0.0056390967 -0.048938707 0.21568835 0.018738173 0.18045361 0.04212878 -0.04794622 -0.06607509 -0.0004014828 -0.016248172 0.03534007 0.047475155 -0.033905055 0.063184574 -0.12440292 0.026350211 -0.06596177 -0.05199217 0.23593609 0.04533314 -0.030312425 -0.1020375 -0.16333637 0.06495807 0.22113751 0.16092142 -0.08685241 0.13170487 0.096982 -0.11941553 -0.006889703 0.06211065 -0.062318478 0.14575318 0.029944872 0.15140691 -0.2149044 -0.13282317 -0.0315046 0.015867814 -0.08517858 0.0059805545 0.18357655 -0.110622644 -0.12724271 0.122437626 -0.04326705 -0.07202379 -0.08347431 -0.014819506 0.01552955 -0.15768322 0.0052528125 -0.013367956 0.019516042 -0.042651694 0.16255634 -0.032404333 0.17671256 0.06030307 -0.07007802 -0.022787977 -0.1392984 -0.12866348 -0.037512716 -0.2116244 -0.098667555 0.16734482 0.048798196 -0.02452272 -0.058653604 0.028608516 0.10948107 0.07387776 0.11412112 -0.050248083 -0.13956109 0.16605869 -0.065747455 -0.14095825 0.041447587 0.018708855 -0.13362785 0.07503195 -0.101714835 -0.07867285 -0.103518724 -0.001808217 0.18910213 0.10813487 -0.014063771 -0.089940205 0.034549106 0.0026070136 -0.03248992 0.037063554 -0.07060372 0.003500124 -0.026248956 0.266692 -0.14076462 -0.04286134 -0.075436294 -0.14757064 0.06423645 -0.23357631 -0.10363939 0.08697566 0.0002595157 0.12992778
8 -0.061543327 -0.22087668 0.05835284 0.0070372927 0.095631465 -0.101815544 0.11826389 0.05641294 0.031474 -0.036988374 -0.081841186 0.16023478 0.026064338 -0.14124347 0.03189607 -0.19877802 -0.09298873 -0.11214372 0.007887138 -0.047787264 0.21219541 0.011575206 0.17343707 0.03810088 -0.036767118 -0.073291235 -0.0098930625 -0.023970557 0.02291588 0.042638227 -0.024337567 0.06162047 -0.1118687 0.014647195 -0.061488505 -0.054691605 0.22611623 0.050992038 -0.03250912 -0.09196135 -0.15436266 0.064385414 0.21795657 0.15678747 -0.09577741 0.13555256 0.09982162 -0.11101513 0.0030582699 0.06910475 -0.06942912 0.15052953 0.031810302 0.14401163 -0.19930887 -0.1315462 -0.03026527 0.017283488 -0.072612576 -0.003091868 0.17551708 -0.11656404 -0.108952165 0.12699099 -0.05070135 -0.063555144 -0.08172597 -0.01467114 0.019229006 -0.16995023 -0.0016751054 -0.014342913 0.005832848 -0.045073617 0.16810617 -0.02942268 0.15787639 0.053278677 -0.080529094 -0.039698083 -0.13602266 -0.10810322 -0.0361009 -0.18467572 -0.1113775 0.13700189 0.06514708 -0.02192981 -0.04552353 0.029086445 0.11292125 0.055727538 0.117778085 -0.033131666 -0.13023365 0.14869109 -0.052638266 -0.15509006 0.045354772 0.02307772 -0.11767438 0.07611259 -0.10736764 -0.07843853 -0.10397486 -0.011351007 0.18287636 0.09638026 -0.015836488 -0.09374976 0.032218937 0.018112423 -0.0329861 0.029516723 -0.075302206 0.008469617 -0.025823519 0.25247112 -0.14331852 -0.04896737 -0.070391856 -0.13835005 0.08295308 -0.22688346 -0.11839217 0.067051426 0.0050689788 0.1285809
13 -0.05242113 -0.23543848 0.032195117 0.008098807 0.08272951 -0.10321602 0.11471399 0.07016473 0.08732244 -0.04923923 -0.0725743 0.1691153 0.017609881 -0.11684959 0.06473845 -0.1887764 -0.104855426 -0.13708463 -0.0056622433 -0.06442146 0.22295307 -0.011111083 0.16723458 0.044511277 -0.013257711 -0.09955 -0.019519435 -0.04991865 0.0052060387 0.014127714 -0.006527584 0.05425216 -0.084858306 -0.028015293 -0.04179073 -0.053011265 0.20531781 0.067036785 -0.049879428 -0.08971834 -0.13548467 0.059000548 0.21659929 0.14122654 -0.11879783 0.14036731 0.12681247 -0.09028958 0.032401443 0.0770322 -0.084618464 0.16874278 0.031208089 0.11040793 -0.1562208 -0.13205057 -0.018925123 0.014096097 -0.04333248 -0.013565753 0.17676839 -0.1134273 -0.0642332 0.13465472 -0.07152616 -0.035219382 -0.09403539 -0.008813315 0.028315306 -0.1946569 -0.013911015 -0.012213958 -0.022139935 -0.058662876 0.19134462 -0.026515273 0.13139458 0.03581589 -0.10483634 -0.076640554 -0.14316589 -0.05872136 -0.029168243 -0.14549562 -0.13181613 0.066976085 0.093828596 -0.016616503 -0.027129773 0.049107388 0.12778813 0.025155911 0.13108864 0.0041952105 -0.11039245 0.117974095 -0.014473418 -0.18587662 0.055150263 0.05459334 -0.0877223 0.08605362 -0.11927812 -0.07088889 -0.12366794 -0.022674566 0.1702588 0.082004964 -0.0066297334 -0.09650684 0.037474696 0.05602482 -0.04217776 0.021426914 -0.07793245 0.0070975763 -0.014861083 0.23151788 -0.13716172 -0.061469395 -0.052914515 -0.09680894 0.12036399 -0.2226978 -0.15975818 0.039691336 0.006667192 0.13809794
16 -0.07081192 -0.22246683 0.0728814 0.0045917123 0.110104546 -0.11028017 0.1291912 0.050358515 0.008154024 -0.036983848 -0.09209695 0.16802433 0.033966176 -0.16038656 0.017570097 -0.21649939 -0.10174682 -0.11458073 0.0030465422 -0.05228724 0.22519419 0.02409074 0.19049402 0.04390284 -0.05090884 -0.07367076 -0.0039443965 -0.016564136 0.034837876 0.050015904 -0.0361192 0.06971656 -0.13412623 0.026310302 -0.07099794 -0.055741616 0.2514969 0.049159367 -0.03180786 -0.10752069 -0.17232236 0.07483327 0.24027735 0.17187247 -0.093125254 0.13807549 0.10275639 -0.12393038 -0.011422286 0.07072414 -0.058319606 0.15565208 0.029467596 0.166051 -0.22478095 -0.14056246 -0.033641532 0.02071678 -0.086681046 0.0020580383 0.19006635 -0.1220142 -0.13745062 0.12577295 -0.04453274 -0.07703236 -0.088755876 -0.013804978 0.017672535 -0.17376426 0.01078757 -0.018384296 0.022128936 -0.046848405 0.17563972 -0.037947934 0.18733042 0.06165215 -0.07853749 -0.025088362 -0.144002 -0.13348357 -0.03864015 -0.22039206 -0.106839925 0.17534931 0.05467503 -0.023249919 -0.0572159 0.029188097 0.1097861 0.07817544 0.11688522 -0.050166592 -0.14695564 0.17873727 -0.06903952 -0.15091217 0.04562683 0.012923202 -0.13870093 0.086511225 -0.1031618 -0.089875855 -0.11196494 -0.0058396603 0.2016834 0.1139757 -0.016721962 -0.0980143 0.04028539 0.0040960666 -0.038849074 0.038784046 -0.07153297 0.007221996 -0.033127036 0.28517118 -0.14901054 -0.0480541 -0.08102847 -0.16090226 0.067849904 -0.24790458 -0.10964532 0.09224393 0.003307247 0.1435437
10 -0.074617624 -0.2129292 0.08719555 0.0030178877 0.122425556 -0.107417844 0.13072526 0.041112963 -0.023380361 -0.03394636 -0.093914196 0.16213526 0.04208841 -0.17721686 -0.008299349 -0.21487978 -0.09238835 -0.0928982 0.011605474 -0.04128166 0.22353977 0.03607217 0.19149373 0.047100488 -0.07235084 -0.06138478 0.0046892716 -0.0031629263 0.048081454 0.06683999 -0.047472995 0.07135492 -0.1489242 0.057061628 -0.085700154 -0.05900502 0.26190782 0.040465306 -0.024203114 -0.11015712 -0.18139748 0.07230228 0.24313399 0.18237168 -0.07814416 0.1379036 0.08972233 -0.13841113 -0.022078075 0.058823157 -0.052221492 0.1467773 0.030838814 0.18258187 -0.25215235 -0.13958083 -0.037515596 0.017214887 -0.10633866 0.012671025 0.19009578 -0.115537114 -0.16992848 0.12216403 -0.034095086 -0.09241814 -0.0876991 -0.023476267 0.011528685 -0.1602168 0.017783325 -0.018780358 0.042203896 -0.037190095 0.16341092 -0.038885392 0.1993693 0.07353178 -0.06627325 -0.0051335464 -0.14802136 -0.16520701 -0.04144577 -0.24224313 -0.09768871 0.21363673 0.033974368 -0.033350497 -0.07280326 0.018753998 0.10778894 0.0981024 0.11473107 -0.074055105 -0.15778747 0.19737716 -0.09359241 -0.13284075 0.04022663 0.0013391048 -0.16095638 0.07772869 -0.096072234 -0.08841079 -0.10063146 0.003312123 0.21264802 0.1273724 -0.025407005 -0.094112 0.04644477 -0.027513633 -0.027716476 0.044153772 -0.06817872 0.002240028 -0.037632048 0.29778966 -0.1514577 -0.04256279 -0.08742839 -0.18310899 0.045357376 -0.24165308 -0.083465606 0.10781619 -0.0013505677 0.13538572
23 -0.06376224 -0.2006526 0.06681141 0.004618366 0.10436942 -0.10042959 0.11668879 0.047768448 0.0019881031 -0.03392842 -0.08602588 0.15365477 0.037344065 -0.15826109 0.0060796845 -0.1979283 -0.09215261 -0.09727092 0.009134168 -0.038855862 0.20861802 0.021563763 0.17157017 0.04444341 -0.0509608 -0.06550645 -0.0064005987 -0.01516602 0.032979164 0.055731464 -0.03413741 0.065514944 -0.1265595 0.03148525 -0.07277132 -0.056005243 0.23329644 0.044515565 -0.02743556 -0.09643324 -0.15941784 0.068270385 0.21998742 0.16024053 -0.08220295 0.1274449 0.087134674 -0.11667293 -0.014155252 0.060097627 -0.05232501 0.13874687 0.029031169 0.1524036 -0.21314499 -0.13231489 -0.033729255 0.017593179 -0.083585866 0.0011418848 0.17482677 -0.11083362 -0.12897666 0.11715392 -0.035997536 -0.07529593 -0.08008469 -0.015252537 0.01804669 -0.150971 0.009066696 -0.014578718 0.027980827 -0.04042048 0.15437303 -0.035073273 0.17674722 0.06240742 -0.065002576 -0.018332178 -0.1326418 -0.13031754 -0.03314647 -0.20971155 -0.09808329 0.17040473 0.045217723 -0.024831694 -0.060246058 0.022846086 0.103106946 0.07692739 0.1072698 -0.052941423 -0.14363104 0.16580127 -0.070740044 -0.13378124 0.041125923 0.014247851 -0.13486029 0.07624947 -0.09228627 -0.08419354 -0.099715285 -0.0045015286 0.18533233 0.104924485 -0.01688208 -0.08950625 0.034556706 -0.008111878 -0.032858495 0.03217037 -0.067658894 0.0036842031 -0.03262319 0.26302874 -0.13555019 -0.039838582 -0.07345252 -0.15156211 0.05519441 -0.22938709 -0.09542605 0.08551884 0.0012549064 0.12528156
21 -0.06510028 -0.21212402 0.055139646 0.0028527163 0.09431604 -0.1036783 0.11514432 0.053029653 0.03452768 -0.036662407 -0.077949286 0.16109888 0.028692383 -0.14276952 0.029314417 -0.19555645 -0.095149934 -0.11506373 0.004983484 -0.049285334 0.21604386 0.010255983 0.1718598 0.044685222 -0.034769893 -0.08000306 -0.009774204 -0.027747184 0.024876492 0.038309567 -0.0199565 0.058463696 -0.11082989 0.011251522 -0.062545426 -0.055800084 0.22224496 0.057532858 -0.032630645 -0.09337224 -0.15505618 0.06824319 0.21723947 0.15103444 -0.101073995 0.13390408 0.10507022 -0.10859523 0.008580036 0.06549607 -0.06127343 0.15339729 0.029791234 0.13725945 -0.19403826 -0.12889133 -0.024900291 0.014611351 -0.07238377 0.0016077897 0.17384118 -0.1120454 -0.105540246 0.12896386 -0.049392976 -0.05951032 -0.086363554 -0.016088892 0.018446555 -0.17205535 0.004272758 -0.016666569 0.007069504 -0.04505203 0.17281516 -0.030603621 0.1563462 0.04971035 -0.07996126 -0.037694074 -0.14127594 -0.09976269 -0.03424936 -0.18849774 -0.11207254 0.1269433 0.06282767 -0.024222981 -0.04131606 0.029881576 0.11364648 0.058590252 0.11739512 -0.026157519 -0.12969464 0.14990282 -0.052667305 -0.1509985 0.050068095 0.027323976 -0.12101588 0.080171384 -0.106046624 -0.074077554 -0.106008776 -0.0054217507 0.18092477 0.096179426 -0.015870389 -0.09454526 0.04204087 0.02172767 -0.036316544 0.030952856 -0.073280685 0.010630204 -0.026692512 0.25245342 -0.1375542 -0.044332825 -0.06783981 -0.13633172 0.08116905 -0.2330774 -0.12054249 0.07066165 0.0061894725 0.12909496
15 -0.070352726 -0.21582648 0.07126935 0.0015479184 0.10860672 -0.103096396 0.12329234 0.04481063 0.0084596295 -0.037682895 -0.083057426 0.16055518 0.03518972 -0.155026 0.015724087 -0.20699637 -0.098555624 -0.10963543 0.0033460343 -0.049684424 0.22127035 0.023944922 0.18096834 0.04543872 -0.05313569 -0.07140277 -0.008186031 -0.01740119 0.03541021 0.048790053 -0.033972748 0.06694186 -0.124562815 0.026806384 -0.068219766 -0.055447835 0.23638353 0.050596762 -0.025307864 -0.09746831 -0.16392696 0.068817966 0.22584595 0.16356683 -0.08859122 0.13734104 0.09269088 -0.121397376 -0.009785416 0.060914084 -0.056538537 0.14662674 0.026077691 0.15661587 -0.21572061 -0.13668375 -0.033828124 0.01545202 -0.08074623 0.006570855 0.1811147 -0.108652 -0.12833336 0.11945972 -0.042841345 -0.06884056 -0.0838145 -0.017512942 0.02239385 -0.15811878 0.009710297 -0.015368694 0.0211905 -0.046762515 0.16261919 -0.036356263 0.17574668 0.06080761 -0.07734369 -0.027396113 -0.14035462 -0.12165498 -0.03621549 -0.21112362 -0.10522422 0.16012184 0.050961576 -0.028192526 -0.05582772 0.029538943 0.107614756 0.0753688 0.1174837 -0.05085011 -0.14317344 0.17071041 -0.067118496 -0.13772255 0.047312412 0.0187129 -0.13356274 0.081476085 -0.10359465 -0.08141538 -0.10346327 -0.0055084988 0.19547886 0.10973278 -0.018431176 -0.0978008 0.04102828 -0.0004721551 -0.034917288 0.032401554 -0.07197863 0.008293671 -0.02818435 0.2723014 -0.14346507 -0.04065346 -0.072635 -0.15729253 0.068637505 -0.23108734 -0.11051225 0.08716033 0.0035845677 0.1348243
19 -0.067465685 -0.21501909 0.0809293 0.001363378 0.11124349 -0.10692767 0.124254785 0.040894877 -0.0066778534 -0.031752806 -0.09399538 0.16313095 0.037761826 -0.16554482 0.0011573832 -0.21068427 -0.09689421 -0.10639027 0.0115216905 -0.039358933 0.2209043 0.025446378 0.18480392 0.045229793 -0.059803005 -0.06365896 -0.0015943162 -0.007065194 0.039472032 0.058566786 -0.038337894 0.06940305 -0.13482912 0.036031682 -0.07804389 -0.05599288 0.24379398 0.051922496 -0.021076001 -0.10385414 -0.16986768 0.07165995 0.23175149 0.16854474 -0.083191335 0.13505909 0.093662396 -0.13079582 -0.01815547 0.06388556 -0.05476609 0.1455526 0.02411473 0.16594489 -0.22650771 -0.13405997 -0.03812821 0.021643268 -0.088845216 0.0056774574 0.18162093 -0.1167646 -0.14291574 0.123084344 -0.039468072 -0.086578876 -0.084707454 -0.020256981 0.013072534 -0.16414504 0.012389446 -0.015889985 0.030909384 -0.040433906 0.16113216 -0.042867936 0.19073094 0.069862984 -0.07269018 -0.017107222 -0.14491615 -0.14378932 -0.038589604 -0.22888245 -0.10085979 0.18842536 0.047073163 -0.026318243 -0.06629796 0.020490974 0.10430334 0.08752741 0.117091745 -0.05905684 -0.14995936 0.1845847 -0.08184054 -0.13228787 0.04304361 0.0024920322 -0.14267296 0.08239019 -0.10013554 -0.08944582 -0.10169652 0.0027970502 0.20117906 0.115474425 -0.023588354 -0.095210224 0.038752884 -0.014250717 -0.031429414 0.038036723 -0.06432607 0.006552071 -0.031435598 0.28362915 -0.14611101 -0.03838329 -0.08350356 -0.16963428 0.051905446 -0.24181662 -0.09880107 0.09944654 -0.0024623743 0.13086523
18 -0.051643886 -0.23475805 0.023256598 0.010962955 0.083251834 -0.10431547 0.108976796 0.076316625 0.09718233 -0.049709808 -0.068249054 0.1739953 0.018335955 -0.1108721 0.06851474 -0.18982145 -0.10430826 -0.13587674 -0.00921421 -0.057752013 0.22179602 -0.01438349 0.17266472 0.04380194 -0.001951272 -0.096825585 -0.023714492 -0.057177275 0.004044959 0.012414142 -0.003602609 0.053487383 -0.078868695 -0.028661726 -0.03813767 -0.053175054 0.19756234 0.062762186 -0.05152877 -0.085148394 -0.13516222 0.06000474 0.21022952 0.13589141 -0.120841414 0.13963918 0.122502886 -0.08790466 0.03915459 0.0729687 -0.08513468 0.16432783 0.032201674 0.107285514 -0.14916323 -0.1249389 -0.013042583 0.013253542 -0.043950815 -0.014576397 0.17742947 -0.11908925 -0.056774963 0.13786575 -0.072682865 -0.028164795 -0.08980606 -0.007465065 0.029188469 -0.1863462 -0.014941028 -0.011551018 -0.021435045 -0.061476994 0.19433327 -0.020207202 0.13152498 0.036886323 -0.10136454 -0.079034135 -0.14578928 -0.04834289 -0.02557986 -0.14247836 -0.13247648 0.059191782 0.096961975 -0.015732257 -0.023686934 0.049798448 0.12589179 0.019859789 0.1386541 0.009190363 -0.112724565 0.117490835 -0.012914171 -0.18440798 0.061890557 0.057459183 -0.08938091 0.08960964 -0.12073487 -0.06895428 -0.12497412 -0.020602748 0.16324893 0.08078338 -0.006403936 -0.096230105 0.031151475 0.058212843 -0.043628044 0.01463891 -0.076979704 0.007930473 -0.00951437 0.2235142 -0.1351322 -0.062194712 -0.05217253 -0.09830463 0.1195551 -0.22615242 -0.16113766 0.031088017 0.001675581 0.13454114
22 -0.051373858 -0.22666104 0.031579748 0.011308949 0.08231235 -0.10149985 0.109541655 0.06732389 0.075454615 -0.050565705 -0.06916013 0.16517772 0.018175574 -0.11626177 0.05998523 -0.18466173 -0.10056443 -0.12935314 -0.00052718294 -0.05528474 0.21256445 -0.00817794 0.16829574 0.042543594 -0.0147475535 -0.0904551 -0.02270187 -0.052871887 0.008283677 0.020136422 -0.0068211136 0.049482774 -0.08886021 -0.021015126 -0.044333998 -0.052562453 0.19944884 0.057768557 -0.0501775 -0.08956677 -0.13132477 0.05403638 0.20819524 0.14112046 -0.11041517 0.13704655 0.1156123 -0.088773094 0.031268373 0.07023597 -0.08047415 0.15877059 0.024754466 0.10731037 -0.15143237 -0.1258873 -0.013792517 0.019565713 -0.04467543 -0.012264715 0.17212883 -0.11031321 -0.06375874 0.13679054 -0.07028186 -0.034806665 -0.090841815 -0.0043165004 0.028806118 -0.17923625 -0.010544337 -0.008028317 -0.01955951 -0.054639038 0.18683954 -0.021569015 0.12998289 0.040020786 -0.09355222 -0.06837051 -0.14200701 -0.061480567 -0.026773011 -0.15084353 -0.12424643 0.072438985 0.08864845 -0.018750077 -0.025188055 0.043339662 0.12303433 0.028511647 0.12997249 -0.00073441816 -0.11203187 0.12371348 -0.019615853 -0.17694041 0.05876368 0.04869315 -0.09579309 0.08584267 -0.114835575 -0.06884919 -0.11923852 -0.016400004 0.16682671 0.08789065 -0.005555091 -0.09186696 0.036982715 0.051945057 -0.038292285 0.021134278 -0.07699504 0.008429197 -0.016802369 0.23016842 -0.14006238 -0.058472335 -0.053794004 -0.10516809 0.11304071 -0.22473775 -0.15136594 0.041795705 0.0070834085 0.13534112
12 -0.054387994 -0.23942219 0.020901486 0.010476656 0.074772336 -0.10157346 0.10885145 0.07373749 0.10085414 -0.053025194 -0.06112733 0.17554033 0.010231297 -0.10050434 0.0737497 -0.17938109 -0.105227984 -0.13954683 -0.0050094216 -0.06720086 0.21664263 -0.015371497 0.1670136 0.041480046 -0.0024411515 -0.106335394 -0.025438845 -0.06027924 -0.0021082803 0.0050469823 0.0035225765 0.04867962 -0.07785639 -0.037125774 -0.035021752 -0.04637524 0.19191653 0.066822715 -0.055390377 -0.08455411 -0.12937054 0.055006444 0.21333978 0.13225272 -0.12449424 0.13965456 0.13262986 -0.083944604 0.0401854 0.07441865 -0.08744443 0.17004988 0.028590895 0.09210377 -0.14162503 -0.13029735 -0.010281993 0.016717887 -0.03691445 -0.0126070725 0.17375034 -0.11152898 -0.048453484 0.14217691 -0.083564356 -0.022210553 -0.08925917 -0.0030918443 0.029439922 -0.19115348 -0.011545775 -0.0072711445 -0.030430187 -0.05777099 0.1946492 -0.020453107 0.12455667 0.034179777 -0.106003664 -0.08006901 -0.14378586 -0.03900764 -0.029658977 -0.12952274 -0.13534494 0.048527006 0.09844194 -0.01360732 -0.019173048 0.045481417 0.12664181 0.019141389 0.13538519 0.019245269 -0.102221124 0.10667191 0.000550639 -0.19600916 0.061675355 0.06380705 -0.0852991 0.084084205 -0.12177039 -0.06859132 -0.12741135 -0.026970103 0.16221595 0.078875646 0.00056509365 -0.09488836 0.029568987 0.06945641 -0.04286899 0.017013673 -0.0770955 0.01425171 -0.008826932 0.22499552 -0.14165716 -0.06701401 -0.05129128 -0.08947856 0.13056685 -0.22220014 -0.17264442 0.027689792 0.0025414003 0.13851665
