34 128
34 -0.09678391 -0.23212913 0.059368044 0.10841788 0.056436256 -0.14202748 0.15844749 0.049311068 0.01757225 0.028222168 -0.07809498 0.09640206 0.035826635 -0.16736607 -0.06968577 -0.18894199 0.052232794 -0.14019337 -0.026179735 0.0684715 0.17434922 0.0087575065 0.2229461 0.03180509 0.03854931 -0.099647716 -0.05134435 0.02242883 0.010525944 0.17115249 -0.046395563 0.08937139 -0.13085726 0.049155124 -0.15903229 -0.1264473 0.19648379 0.113032475 -0.054501675 -0.09082257 -0.24295022 0.084470764 0.15344116 0.1635788 -0.133367 0.065944694 0.08983629 -0.10258813 -0.046349693 0.07300379 -0.025939595 0.2219954 0.025560044 0.10343932 -0.18763539 -0.11327101 -0.0991868 0.034597278 -0.02046385 0.042112257 0.09179297 -0.12987642 -0.110282466 0.1750024 -0.011109691 -0.18734783 -0.024201175 0.04480061 -0.009222054 -0.1230381 0.017927278 0.028388761 -0.004221093 0.009535085 0.04242762 -0.069585696 0.063236766 0.061332434 0.03196662 0.043673027 -0.06338707 -0.17172633 -0.019896876 -0.18385087 -0.082400516 0.20445527 -0.02720827 0.03412718 -0.08522508 -0.0046655736 0.022536237 0.0915764 0.10218118 -0.046154566 -0.08154288 0.23173141 -0.10176966 -0.037718687 0.11160632 -0.08198047 -0.24894734 0.1072871 -0.1593324 -0.0948013 -0.011814571 0.07887479 0.22534393 0.06847073 -0.033236835 -0.03206291 0.042620167 -0.05841583 0.029731207 0.010240832 -0.023372557 -0.001553023 -0.04802851 0.19831757 -0.10568739 0.0077972864 -0.08091895 -0.09721139 0.02881506 -0.16245446 -0.08748158 0.11225618 -0.02417547 0.1495013
1 -0.07858511 -0.23986752 0.019252472 0.11707839 0.04764281 -0.13228935 0.15697326 0.05059234 0.0919203 0.0076998402 -0.043252725 0.12196146 0.0018704017 -0.14711952 -0.011421142 -0.1879129 0.019405194 -0.16227685 -0.048153903 0.05038035 0.16042525 -0.0066868286 0.17089322 0.03585999 0.06397726 -0.12107375 -0.048649758 -0.009053163 0.005000266 0.13059999 -0.04273976 0.07351814 -0.11002033 0.028275548 -0.12322941 -0.12056137 0.18319081 0.13071804 -0.06444451 -0.076340064 -0.17582457 0.07371422 0.15345082 0.14847474 -0.16101305 0.06338174 0.10882352 -0.08578711 -0.02239914 0.073858686 -0.055524286 0.22823322 0.038631268 0.07014782 -0.13922723 -0.11927668 -0.08022665 0.025264971 0.014733924 0.0045682658 0.09168817 -0.13531661 -0.0642959 0.1730065 -0.037406128 -0.14564142 -0.031384956 0.0416528 0.012547058 -0.16584429 0.0024984344 0.019335618 -0.034613412 -0.011111284 0.083320886 -0.0552601 0.040449575 0.031343915 -0.0022229543 -0.015954034 -0.067805685 -0.108878896 -0.025898626 -0.13448653 -0.10232038 0.106021374 0.023155784 0.042935815 -0.046167675 0.014723973 0.05867327 0.052569382 0.104606375 -0.013256009 -0.07336678 0.18447614 -0.071563 -0.08381115 0.10604485 -0.024172103 -0.1896492 0.10183012 -0.1685121 -0.09984362 -0.048186027 0.03974694 0.18708405 0.051386606 -0.03227231 -0.05486417 0.04542666 -0.014212456 0.019650772 -0.010347384 -0.038040966 0.012571555 -0.04094194 0.17150249 -0.08249576 -0.006730375 -0.06024477 -0.05909743 0.07534238 -0.14460783 -0.12819153 0.0673863 -0.010235138 0.16912621
33 -0.09501689 -0.20834783 0.07336155 0.08974825 0.051404666 -0.13671073 0.13933131 0.04696023 -0.01756051 0.038900197 -0.08181954 0.07369513 0.052179445 -0.16741574 -0.08800441 -0.17200953 0.057571016 -0.11566466 -0.016655492 0.068009004 0.16974078 0.016991492 0.22598065 0.028644161 0.018054835 -0.07029697 -0.05163349 0.04134058 0.019595673 0.17505985 -0.052516446 0.091856495 -0.12579761 0.059494674 -0.17023809 -0.12857208 0.17893966 0.090574145 -0.04369213 -0.09261247 -0.25374863 0.07645826 0.13264938 0.1535609 -0.10858469 0.06938342 0.060531784 -0.100066796 -0.059150476 0.061168298 -0.016551372 0.20277262 0.017433697 0.10742768 -0.19855931 -0.091650926 -0.10240479 0.035030726 -0.038546808 0.06346153 0.09082859 -0.12540433 -0.121647015 0.16242675 0.005755273 -0.19139375 -0.012466438 0.045721564 -0.0254667 -0.08737706 0.026837813 0.028898591 0.018402303 0.014645022 0.01471164 -0.06764122 0.07338856 0.064102106 0.04792798 0.06651182 -0.050198797 -0.1898451 -0.019234715 -0.19374299 -0.06888984 0.23334646 -0.052369613 0.023627967 -0.09135459 -0.015320223 0.014335801 0.10272039 0.0929638 -0.06252925 -0.07314453 0.23245157 -0.112008005 -0.020917658 0.11371795 -0.10417996 -0.26316032 0.0970353 -0.14869693 -0.07882568 0.016292464 0.09182132 0.23029406 0.07532265 -0.029466119 -0.025754482 0.035153355 -0.07633415 0.033712313 0.013009037 -0.018198054 -0.0071559343 -0.05214469 0.192073 -0.11191929 0.0046215877 -0.08659995 -0.11067658 0.00744271 -0.16490428 -0.060757585 0.12333532 -0.033088226 0.13352968
3 -0.09370264 -0.21623604 0.062434703 0.0981355 0.049821533 -0.13505839 0.14944094 0.0459984 0.0062527056 0.029608956 -0.07128106 0.08560599 0.03420875 -0.16680554 -0.07125115 -0.18139322 0.05109134 -0.1347797 -0.025413943 0.06210374 0.16384152 0.012591023 0.21150297 0.03687807 0.036568362 -0.08531495 -0.05102518 0.028189735 0.017782558 0.16950618 -0.050342977 0.081962965 -0.12577745 0.052024554 -0.15779707 -0.12991612 0.18699451 0.10522583 -0.048823588 -0.08814324 -0.23380414 0.07148108 0.13851409 0.15926069 -0.12596352 0.06897106 0.07896664 -0.09734709 -0.053827256 0.06838987 -0.021264499 0.2072577 0.017172543 0.09873212 -0.18282233 -0.10325231 -0.09819905 0.0334492 -0.029400373 0.049427498 0.08602877 -0.12605731 -0.104315884 0.1715835 -0.007313882 -0.182114 -0.0155847445 0.048299674 -0.014855814 -0.1143389 0.020862576 0.030067839 -0.0022393998 0.010185782 0.03996558 -0.066644266 0.06673496 0.055242732 0.036754496 0.04493579 -0.058109336 -0.16292593 -0.020359935 -0.17811435 -0.07703566 0.20320907 -0.031938065 0.031586137 -0.08265507 -0.01011343 0.02235679 0.08999946 0.09552485 -0.046492662 -0.07760229 0.22218527 -0.103145845 -0.028603295 0.112904094 -0.08428888 -0.24526842 0.099785045 -0.15619573 -0.084386356 0.0006726594 0.085850246 0.2166402 0.06795357 -0.026992626 -0.032834876 0.040466506 -0.06066783 0.030067293 0.010387018 -0.02262883 -0.00095566537 -0.051468037 0.18906641 -0.09599397 0.0038222116 -0.083532736 -0.1041986 0.02171337 -0.16531797 -0.080205284 0.11210905 -0.025235297 0.1459315
6 -0.03392089 -0.3482601 -0.118869215 0.22625051 0.04249137 -0.12971906 0.22908205 0.07408349 0.37042868 -0.067685366 0.057492986 0.27022436 -0.12898284 -0.12381218 0.18822645 -0.23746325 -0.08660331 -0.29820445 -0.15944543 0.01872922 0.16640772 -0.07239056 0.074972235 0.04539962 0.18554334 -0.26811397 -0.072312325 -0.1514124 -0.03429748 0.061881214 -0.013722887 0.04208989 -0.086503126 -0.04505737 -0.038709044 -0.1240538 0.25253183 0.26581576 -0.16021125 -0.0362376 -0.043518167 0.102867484 0.2502185 0.16479969 -0.3345725 0.08760767 0.27436957 -0.08709616 0.04210394 0.11279144 -0.15427615 0.3354855 0.097489074 -0.02911503 -0.011639597 -0.21665488 -0.05690828 -0.005078192 0.16906492 -0.14742361 0.12818436 -0.1848149 0.071895756 0.2436709 -0.13368773 -0.08082756 -0.081345014 0.033995807 0.11942071 -0.39630184 -0.043409117 0.015861005 -0.18343838 -0.06982982 0.28473502 -0.019598426 -0.026972959 -0.026886268 -0.13714553 -0.21021056 -0.11347482 0.076767564 -0.045773562 -0.015411685 -0.20808636 -0.15607764 0.22071025 0.09978888 0.036876243 0.089830115 0.19138037 -0.04358003 0.17479156 0.11485543 -0.09065074 0.1364713 0.015269377 -0.26863316 0.11860097 0.15953699 -0.054061443 0.12290565 -0.29027766 -0.16845056 -0.23303734 -0.09662571 0.12535472 0.0057126954 -0.03220079 -0.15118723 0.08872104 0.14712577 -0.013465664 -0.09614716 -0.07701213 0.083530076 -0.03658457 0.15981297 -0.032472964 -0.039009523 -0.0034501553 0.036820278 0.2884173 -0.1402573 -0.33187518 -0.060389165 0.03900167 0.29147175
7 -0.035909794 -0.29257444 -0.087929524 0.18183784 0.033669382 -0.11475208 0.19420163 0.05992188 0.28818095 -0.047622457 0.031137517 0.2197408 -0.093232304 -0.119357154 0.1371167 -0.20440437 -0.05817139 -0.24253379 -0.13148427 0.025414215 0.14918408 -0.0531731 0.08524296 0.04273956 0.14720741 -0.21429844 -0.06567304 -0.109486334 -0.026110768 0.06485796 -0.0149762845 0.04981087 -0.0854193 -0.028588524 -0.054600645 -0.113021754 0.21576177 0.21160023 -0.1265713 -0.03662435 -0.06980685 0.088288486 0.20666608 0.15273279 -0.2705528 0.07758005 0.21955152 -0.07763114 0.023088042 0.09273015 -0.124432325 0.28241134 0.08110866 -0.0069516236 -0.03813943 -0.17439082 -0.05851812 -0.0022241063 0.12552018 -0.10046205 0.10757961 -0.16079436 0.041855138 0.20992897 -0.10198097 -0.08251987 -0.058613382 0.034794576 0.09261584 -0.3181009 -0.03436713 0.018676255 -0.14095849 -0.0534311 0.22206539 -0.020489365 -0.014326276 -0.013561076 -0.09787752 -0.15841419 -0.0891267 0.036842283 -0.040446587 -0.034519598 -0.17300496 -0.089466445 0.15838043 0.08161463 0.016198838 0.068531245 0.15114269 -0.022725372 0.14711997 0.07803774 -0.0805173 0.1346063 -0.0037401733 -0.20883393 0.10209611 0.110661365 -0.08164845 0.10999043 -0.25417784 -0.14296469 -0.17597912 -0.06732029 0.12606183 0.010698377 -0.028230103 -0.121085934 0.07228946 0.10605591 -0.0067761196 -0.07866093 -0.06555846 0.06256594 -0.04018102 0.15162632 -0.042327154 -0.024209687 -0.018682068 0.016091242 0.22778536 -0.12834114 -0.26765096 -0.033890463 0.026200635 0.25457957
2 -0.09215045 -0.24267921 0.053740468 0.1095976 0.051477734 -0.14611277 0.16565529 0.053249173 0.026192134 0.027955381 -0.07407281 0.10631717 0.03479853 -0.17628217 -0.06316832 -0.20083012 0.0423641 -0.14965779 -0.033048186 0.06524659 0.18125248 0.009000434 0.22459891 0.03656333 0.039302144 -0.102820456 -0.056485575 0.020291476 0.015137825 0.17450768 -0.048459057 0.0881097 -0.13604532 0.05034262 -0.16573468 -0.13403682 0.20311372 0.116516314 -0.057044826 -0.09749706 -0.24023728 0.08538567 0.15686874 0.16768108 -0.14637664 0.07301387 0.09038248 -0.10297722 -0.04725949 0.073028296 -0.033420533 0.2308922 0.028368138 0.104988955 -0.1917074 -0.1177009 -0.09938052 0.037584443 -0.020146647 0.04284005 0.09541272 -0.1368965 -0.10654764 0.17942415 -0.01584594 -0.1854946 -0.025951583 0.047573816 -0.014088044 -0.13516675 0.0153133115 0.028019456 -0.003170172 0.0029839897 0.049267672 -0.06796726 0.06530975 0.053219117 0.028977562 0.034933724 -0.066679314 -0.17147666 -0.026597356 -0.18337977 -0.08886771 0.2011914 -0.02181319 0.035161406 -0.07805565 -0.006905648 0.034653954 0.091547824 0.1066389 -0.04779157 -0.08639343 0.23254612 -0.10266671 -0.05004236 0.115441605 -0.07435404 -0.24878696 0.10580599 -0.1667378 -0.10114329 -0.012978523 0.07407269 0.23382992 0.07372342 -0.03626459 -0.03807965 0.04126604 -0.053408336 0.031169606 0.0042904257 -0.03160373 -0.0009367601 -0.051509716 0.20156276 -0.10714357 0.00035194063 -0.08325569 -0.09772997 0.036859013 -0.17297746 -0.09241155 0.113278575 -0.019909268 0.15895414
11 -0.04470839 -0.3441775 -0.110736124 0.21820304 0.0421714 -0.1338092 0.21814562 0.07456088 0.35689434 -0.06591634 0.046755325 0.26305965 -0.12079405 -0.12262444 0.1772095 -0.23847203 -0.07979185 -0.2879807 -0.15719987 0.022058815 0.17252466 -0.066305056 0.09291524 0.045310307 0.1715317 -0.2576889 -0.076359965 -0.13800596 -0.035746135 0.061623927 -0.013954124 0.050496247 -0.08720073 -0.045947336 -0.046906516 -0.12132451 0.25603124 0.25790194 -0.15364602 -0.030591996 -0.05660337 0.10260639 0.2469274 0.17152591 -0.32140028 0.090572394 0.26616046 -0.08011564 0.028571127 0.1068064 -0.1472724 0.3287953 0.09681978 -0.022135204 -0.02572476 -0.21050724 -0.061595425 0.00038584278 0.15060346 -0.12984996 0.12586555 -0.18976028 0.064877674 0.24677795 -0.12774116 -0.08556613 -0.0807463 0.036798958 0.119378015 -0.38200653 -0.039891392 0.019226426 -0.17241558 -0.07142002 0.27556422 -0.019831942 -0.023110704 -0.024395376 -0.1293528 -0.19494615 -0.10181614 0.060189586 -0.04781617 -0.032823 -0.21109809 -0.1266538 0.20652355 0.0966085 0.030326424 0.08615693 0.17872244 -0.04156692 0.17128083 0.105147146 -0.08439005 0.13898732 0.0113949 -0.2516009 0.11351471 0.14808431 -0.06670634 0.12837093 -0.2903893 -0.16002287 -0.2162799 -0.09001213 0.13391033 0.002221097 -0.031096246 -0.1489836 0.08594946 0.13790268 -0.014188525 -0.09501848 -0.07555945 0.070917346 -0.049640734 0.1737187 -0.042795435 -0.03890479 -0.009475566 0.024846725 0.27654752 -0.14287189 -0.31622922 -0.054266423 0.027321085 0.29395998
5 -0.044414286 -0.31744158 -0.09030366 0.19294918 0.045776535 -0.12764725 0.21029082 0.05874091 0.3007986 -0.051662706 0.03492568 0.23354442 -0.10053473 -0.12444912 0.13874623 -0.22518073 -0.061187252 -0.26048276 -0.13363418 0.03138973 0.16295126 -0.04924104 0.090492554 0.047237996 0.1510174 -0.22947143 -0.06574537 -0.11549801 -0.025028128 0.07345137 -0.022223964 0.048637826 -0.09328685 -0.022413705 -0.05564768 -0.12223748 0.23033588 0.22808063 -0.13143533 -0.03927175 -0.06676807 0.092289776 0.21533571 0.15784074 -0.2840324 0.07872355 0.22757253 -0.08444486 0.021484543 0.09535404 -0.12814935 0.30175194 0.08946373 -0.009274549 -0.04161003 -0.18904346 -0.059353925 0.00021523962 0.13166372 -0.10941191 0.11002128 -0.17211342 0.04035558 0.22243074 -0.10871356 -0.09192018 -0.06132588 0.032392636 0.096836336 -0.33402258 -0.03526413 0.016880004 -0.14536075 -0.059448652 0.22911116 -0.029465878 -0.014811283 -0.017225532 -0.10505583 -0.16385597 -0.09972314 0.029999375 -0.04381271 -0.04408816 -0.18112059 -0.092053205 0.16967647 0.08782763 0.018853612 0.06946553 0.15744278 -0.023623377 0.15137531 0.08020511 -0.08712771 0.14429128 -0.012747559 -0.21618578 0.11317798 0.1173045 -0.090015456 0.11526382 -0.2589543 -0.15335976 -0.18624349 -0.06799019 0.1372791 0.0129475165 -0.03779382 -0.12787871 0.073204316 0.105405375 -0.004198454 -0.08047583 -0.06926308 0.06668504 -0.035264216 0.1596956 -0.038814705 -0.025832409 -0.018119868 0.016127259 0.23099071 -0.13761331 -0.27667695 -0.026714474 0.023931889 0.26303983
28 -0.09335844 -0.23025349 0.05323629 0.10542256 0.050312083 -0.13283993 0.15507415 0.045040168 0.025623249 0.025615502 -0.06652712 0.10090535 0.02863363 -0.16102259 -0.06074294 -0.18723084 0.04231802 -0.14457393 -0.029830303 0.06617782 0.16605873 0.008719984 0.2069991 0.03420388 0.03819967 -0.09395791 -0.05622631 0.019288553 0.014328481 0.162584 -0.049111385 0.08753762 -0.12286467 0.048855375 -0.15431176 -0.13244955 0.19557366 0.11543063 -0.054301485 -0.088866465 -0.23058511 0.07664669 0.14818278 0.16256651 -0.13894537 0.06817848 0.08347507 -0.09736956 -0.050788134 0.06581718 -0.035066172 0.22094776 0.029175343 0.0925383 -0.1741386 -0.10954622 -0.09851634 0.026606008 -0.020662189 0.038261168 0.09079296 -0.13454778 -0.09527485 0.17601976 -0.012272993 -0.17993945 -0.02314402 0.050195023 -0.012068234 -0.13068433 0.013828007 0.03206668 -0.010871751 0.00041502484 0.046441548 -0.06501471 0.058393303 0.05646121 0.022058563 0.038363867 -0.060203295 -0.16252361 -0.02011903 -0.17123237 -0.08583434 0.19140217 -0.020392464 0.037740447 -0.07701954 -0.0029220423 0.032819223 0.08264945 0.09796939 -0.045782864 -0.073531576 0.21818905 -0.09853118 -0.041631225 0.110857785 -0.0777121 -0.24299069 0.107141174 -0.16668466 -0.09404923 -0.010330687 0.07705657 0.22098067 0.069753185 -0.03098076 -0.041759074 0.043603167 -0.051526953 0.02436753 0.0024545973 -0.026372567 -0.0018051475 -0.05314632 0.18617336 -0.097615466 0.0019836335 -0.078962564 -0.094865866 0.03464653 -0.1600766 -0.09224284 0.10253154 -0.021857426 0.15589143
24 -0.09650293 -0.20888053 0.07960959 0.09224163 0.051725704 -0.14023733 0.14316587 0.04456173 -0.02460633 0.04216602 -0.08488618 0.071063384 0.058030665 -0.17481692 -0.09732208 -0.18255992 0.06177406 -0.121370405 -0.010494155 0.07008919 0.17293015 0.020824015 0.23226956 0.037233323 0.021238867 -0.06799 -0.05114246 0.041247215 0.017640937 0.18327758 -0.0574312 0.09146047 -0.13503921 0.056597386 -0.17201649 -0.12985598 0.18811019 0.08837691 -0.041152384 -0.10328055 -0.25867888 0.08051441 0.13100763 0.16068652 -0.10642298 0.07071379 0.056944508 -0.09524377 -0.058751095 0.059999637 -0.008537888 0.20508133 0.010666398 0.11845329 -0.2000408 -0.088752136 -0.09749877 0.035897333 -0.04751797 0.06603571 0.08721622 -0.124893785 -0.12282656 0.16566019 0.0005963811 -0.19872367 -0.016277105 0.053268705 -0.031701118 -0.084343664 0.026671613 0.034090653 0.014654931 0.016832776 0.013041485 -0.07417646 0.070954815 0.06478649 0.051709734 0.078687534 -0.04996781 -0.19333453 -0.017372698 -0.19580983 -0.067270376 0.23944467 -0.06099676 0.02923269 -0.09429517 -0.017606108 0.005313907 0.10448374 0.0923669 -0.06854643 -0.07227216 0.23942468 -0.11160171 -0.008776066 0.108734176 -0.113646545 -0.2714216 0.10470804 -0.13940464 -0.0769934 0.019466922 0.10502747 0.23119962 0.07748027 -0.02850051 -0.01753202 0.038579613 -0.08477871 0.033220544 0.020299708 -0.023525182 -0.013003062 -0.053633716 0.19106153 -0.10546859 0.012739523 -0.09041708 -0.1169182 -0.0043664677 -0.1706464 -0.04862378 0.13384874 -0.032304212 0.13436164
32 -0.10019907 -0.21512221 0.06909969 0.09060728 0.05069778 -0.13769151 0.14694622 0.0446658 -0.021322535 0.038978092 -0.08657986 0.07760005 0.051281184 -0.16727933 -0.093623064 -0.17697537 0.060765553 -0.12321813 -0.020208035 0.06942589 0.17229365 0.02197996 0.2296482 0.03065951 0.016442087 -0.07548395 -0.05395679 0.04373663 0.018172061 0.17632161 -0.053774532 0.089979045 -0.1255212 0.056657232 -0.17282341 -0.12673606 0.18963623 0.09624413 -0.04535677 -0.10039353 -0.25811112 0.07718802 0.13260132 0.15712917 -0.10988031 0.06768554 0.06648271 -0.09480494 -0.06053416 0.057523847 -0.013272877 0.20462124 0.013166516 0.112719074 -0.20182051 -0.09789456 -0.10269502 0.03564403 -0.04322844 0.063612446 0.089979336 -0.1230677 -0.12478511 0.16853558 -0.0013199835 -0.19467415 -0.019714648 0.053196203 -0.026562 -0.09425403 0.022724371 0.035333935 0.01892358 0.011456109 0.015597893 -0.070316836 0.07419235 0.066968985 0.046598442 0.0710369 -0.053858504 -0.19358735 -0.015678184 -0.19534153 -0.069902346 0.24208626 -0.0521518 0.026285617 -0.09388611 -0.019869091 0.009473811 0.10478429 0.09555048 -0.0652848 -0.0728583 0.2333626 -0.108433776 -0.0144966515 0.1056752 -0.109719396 -0.26169991 0.096909836 -0.1469185 -0.08176323 0.019905878 0.10045503 0.2333682 0.073329836 -0.033341084 -0.0193449 0.03656292 -0.082148075 0.035474572 0.020429438 -0.015731076 -0.009319001 -0.05335362 0.19865757 -0.10465431 0.0053782077 -0.090205394 -0.11578701 -0.00014361885 -0.16479158 -0.053434923 0.12616144 -0.0368958 0.1378939
17 -0.04295452 -0.31312186 -0.08669953 0.19589019 0.037397303 -0.1280548 0.206181 0.06786002 0.30480534 -0.04604493 0.03532566 0.23652935 -0.095504045 -0.12138999 0.13915592 -0.21545641 -0.063146465 -0.2614257 -0.13699077 0.02818619 0.1598985 -0.05759234 0.09603852 0.038653318 0.15424167 -0.22244774 -0.06765406 -0.113814965 -0.022826867 0.07395934 -0.01893831 0.05098697 -0.08697734 -0.028491972 -0.05662158 -0.12305657 0.23475266 0.22900102 -0.13385521 -0.03588127 -0.07132726 0.088657916 0.21873885 0.1628986 -0.28771615 0.07767242 0.23115066 -0.079997845 0.020952601 0.09946135 -0.13086924 0.29636842 0.08573936 -0.011802752 -0.03690037 -0.18896502 -0.066305965 0.0056813317 0.13239929 -0.11386189 0.11671224 -0.17323169 0.04345533 0.21893406 -0.105712146 -0.086757556 -0.06644401 0.03307935 0.09788258 -0.33264676 -0.036383715 0.016918728 -0.14395468 -0.061785616 0.23699062 -0.02045952 -0.014301246 -0.017537333 -0.104733236 -0.16611421 -0.09444215 0.03311346 -0.038867526 -0.038374808 -0.18666375 -0.090838686 0.17497942 0.08383764 0.022919098 0.07156438 0.15407233 -0.024111738 0.1513766 0.085879795 -0.08484129 0.1399189 -0.00046770484 -0.21683538 0.11140703 0.118669316 -0.0790565 0.11345045 -0.25948426 -0.14556114 -0.1848433 -0.06978045 0.1342795 0.008966583 -0.035391096 -0.12498661 0.07514587 0.10895791 -0.0029348887 -0.07550452 -0.065697245 0.063769214 -0.042547528 0.16478783 -0.04400287 -0.034142308 -0.0134089375 0.017242001 0.23672804 -0.1322207 -0.2804158 -0.03551569 0.025247626 0.26422134
14 -0.07838342 -0.2625911 0.009651679 0.1323351 0.04938406 -0.13378558 0.17069902 0.0525348 0.11874041 0.0045351805 -0.039641533 0.14641044 -0.012891314 -0.15345012 0.0061658802 -0.19871643 0.010384817 -0.18275474 -0.0656565 0.050263636 0.17268808 -0.008658638 0.17271535 0.040292475 0.07585092 -0.13655269 -0.05499185 -0.019927911 -0.003680735 0.13722222 -0.039297406 0.07667229 -0.11433294 0.02444751 -0.121613376 -0.1291244 0.20612732 0.15255404 -0.08204516 -0.07312482 -0.18332876 0.08416883 0.17303789 0.16426934 -0.18503144 0.07620464 0.13634841 -0.089491025 -0.024717992 0.08108684 -0.06632038 0.24647363 0.045017216 0.064760774 -0.13415717 -0.13629623 -0.09024363 0.023926307 0.028563477 -0.012089524 0.10069836 -0.1498146 -0.050826825 0.18734702 -0.04745935 -0.15022692 -0.034653448 0.041121706 0.025463646 -0.19915728 -0.0036394426 0.027810663 -0.05447357 -0.01397116 0.1125604 -0.051178586 0.03897194 0.030621734 -0.018129533 -0.034092106 -0.07344648 -0.09754587 -0.025832588 -0.12850517 -0.12400642 0.1013116 0.041231606 0.049657974 -0.044558123 0.019965949 0.07249065 0.04805208 0.11960032 -0.0035441355 -0.082133055 0.20013425 -0.06958664 -0.09871678 0.11379483 -0.011337905 -0.19274573 0.10778873 -0.19735748 -0.107854225 -0.07156635 0.029571416 0.1957447 0.051362008 -0.036932502 -0.06959144 0.050299216 -0.0040603657 0.0150034195 -0.021536877 -0.037649497 0.020261645 -0.050273977 0.18179448 -0.082288064 -0.006348936 -0.058517877 -0.060896266 0.10011892 -0.15636022 -0.1495548 0.05796201 -0.01095017 0.1909212
26 -0.088773854 -0.21148086 0.0647899 0.09316332 0.051852055 -0.13613015 0.14610657 0.042468145 -0.0065743187 0.030642977 -0.0784769 0.07684595 0.045436915 -0.16573828 -0.07905041 -0.17574453 0.054197438 -0.12726475 -0.020729842 0.06701661 0.17190638 0.015001446 0.22006112 0.037444916 0.025409086 -0.082198374 -0.054986764 0.027217392 0.010828997 0.17328629 -0.047441293 0.08473259 -0.12325855 0.046278507 -0.16506141 -0.1298094 0.18649065 0.09756888 -0.050299916 -0.09569382 -0.2392713 0.07282794 0.1305943 0.15299717 -0.11676108 0.075502366 0.06657385 -0.09347724 -0.05494101 0.06759103 -0.01594911 0.21060592 0.016576525 0.09849554 -0.18583249 -0.09908009 -0.09493849 0.033997856 -0.036514115 0.054147363 0.09006543 -0.12821215 -0.1068617 0.17189786 -0.004307052 -0.18501592 -0.016912568 0.044847235 -0.019078428 -0.10160552 0.02150854 0.031762276 0.0012929419 0.0103058815 0.031332094 -0.07171236 0.061553326 0.059342645 0.03722346 0.054639682 -0.059563726 -0.1714225 -0.016927322 -0.18038812 -0.0724737 0.21614233 -0.044048496 0.0297779 -0.08703352 -0.012552144 0.019356878 0.09166682 0.098033115 -0.04954276 -0.06966951 0.2238719 -0.105657905 -0.022954166 0.11422431 -0.09613821 -0.25113836 0.1016736 -0.14872625 -0.07939338 0.0070467503 0.09083225 0.22568473 0.07249033 -0.024218159 -0.023651144 0.034132414 -0.07025992 0.029339822 0.01396982 -0.020809088 -0.007248311 -0.0498098 0.18300262 -0.096486226 0.0015244065 -0.08426492 -0.10740649 0.01239852 -0.17114322 -0.067318425 0.1220333 -0.03125993 0.13592759
4 -0.08893178 -0.23790608 0.04383462 0.11447566 0.054111138 -0.14530346 0.1569695 0.056494113 0.049765922 0.021220142 -0.060523085 0.113578744 0.02726893 -0.16753265 -0.047129586 -0.19438839 0.036136746 -0.15487252 -0.036667787 0.06336324 0.1766276 0.0034091284 0.20417114 0.03219036 0.049089447 -0.10512819 -0.0558576 0.014507443 0.013802756 0.15831761 -0.049573757 0.08308846 -0.126501 0.04112448 -0.15052804 -0.13044025 0.19847377 0.124363035 -0.058326922 -0.08450183 -0.22032413 0.07769346 0.15909058 0.16601984 -0.1463681 0.06711805 0.09714757 -0.10129249 -0.043761693 0.06972753 -0.036789555 0.22365232 0.031150438 0.0933423 -0.17405768 -0.11466852 -0.093040384 0.033274826 -0.004125051 0.025105447 0.09993654 -0.13821588 -0.091434926 0.17579892 -0.01777416 -0.16929099 -0.030641261 0.04594391 -0.0016599434 -0.1432764 0.012480968 0.02816588 -0.010323086 -0.0051828558 0.06326429 -0.064998336 0.061668105 0.05083487 0.015565512 0.0235162 -0.062304676 -0.15418945 -0.025609946 -0.16540878 -0.09267395 0.16935168 -0.0020710411 0.034144286 -0.06638518 0.0030188013 0.03676939 0.077017404 0.100971356 -0.036622517 -0.08132574 0.21711601 -0.092861496 -0.060318597 0.109903075 -0.060109556 -0.22795445 0.101725444 -0.15838583 -0.09046105 -0.027421053 0.063566506 0.2079937 0.06363764 -0.03628398 -0.044057377 0.04581421 -0.043293588 0.027473886 0.0020888865 -0.029937785 0.0077774087 -0.049079075 0.1918374 -0.09978611 -0.00030877092 -0.07177715 -0.08359592 0.044657554 -0.16304982 -0.1065422 0.09671276 -0.015630065 0.16159157
30 -0.083098285 -0.22790931 0.03995319 0.11044103 0.043586515 -0.13133046 0.15443788 0.04569529 0.039011184 0.023247097 -0.06546059 0.10169648 0.02132854 -0.15857911 -0.04903112 -0.18488187 0.0370897 -0.14450254 -0.039359055 0.06266788 0.16507679 0.0027210969 0.20322457 0.030407667 0.046157215 -0.10151973 -0.049402263 0.010435994 0.0059283925 0.1567011 -0.04566135 0.077654585 -0.11782197 0.037634693 -0.14750732 -0.1210149 0.19025896 0.11833516 -0.05842187 -0.08845048 -0.21455434 0.07832274 0.14617112 0.15671799 -0.138238 0.06991128 0.09264803 -0.09424855 -0.042917386 0.07017576 -0.034985967 0.22027516 0.028656868 0.082836956 -0.16257663 -0.1089891 -0.09571121 0.030270388 -0.009752551 0.031093748 0.09218056 -0.13462277 -0.085886516 0.17534524 -0.015111602 -0.1739258 -0.026933676 0.044838734 -0.0032555966 -0.13825896 0.01599863 0.027956959 -0.014518438 0.0014115492 0.059089433 -0.063843966 0.05563516 0.05197174 0.019480402 0.02851578 -0.064238764 -0.14652476 -0.025416369 -0.16398458 -0.08755861 0.17354253 -0.0137443105 0.037736554 -0.07248705 -0.00049166294 0.039313998 0.07335556 0.1024423 -0.031133872 -0.071154736 0.21164852 -0.09148373 -0.04824996 0.10957893 -0.06608931 -0.22204138 0.10202221 -0.16570085 -0.09464491 -0.020884216 0.06595502 0.21031086 0.06380755 -0.032762688 -0.041680776 0.04074712 -0.045836553 0.022912862 -0.0016866656 -0.024357634 0.0022492327 -0.052960966 0.18365316 -0.09447982 0.003693506 -0.07819331 -0.08763135 0.044581033 -0.1597273 -0.09470081 0.09933428 -0.017862575 0.15729766
9 -0.09071237 -0.23135118 0.044294134 0.10792505 0.04944194 -0.13871425 0.1566687 0.05223351 0.0392156 0.024842553 -0.06624546 0.10662511 0.028330587 -0.16805679 -0.055265345 -0.18931644 0.038653072 -0.14367467 -0.03612979 0.0643546 0.1673034 0.00893717 0.2132559 0.029692553 0.042910717 -0.0970227 -0.054258972 0.011621598 0.010462892 0.16387215 -0.047089566 0.08762082 -0.1267899 0.041556798 -0.14860575 -0.13060974 0.19741032 0.11543731 -0.061215673 -0.08599865 -0.22916363 0.07531941 0.15021245 0.16342478 -0.14192933 0.06692638 0.0918262 -0.09851217 -0.045420855 0.06652499 -0.036617205 0.22250237 0.025095966 0.09418016 -0.17106205 -0.112659246 -0.09790972 0.031368192 -0.013987448 0.031042708 0.094223626 -0.13448146 -0.10024983 0.17797703 -0.013372199 -0.17915152 -0.023086093 0.04668164 -0.007970706 -0.13334465 0.016485762 0.030398566 -0.0057589947 0.00033791596 0.057553865 -0.066067785 0.056683473 0.055180185 0.020760372 0.032584 -0.059042275 -0.15725926 -0.026237832 -0.17493488 -0.09080636 0.18120699 -0.014501841 0.035628166 -0.076012984 -0.00080057373 0.036712613 0.08023955 0.106519684 -0.03431909 -0.07936454 0.2147274 -0.09147633 -0.050186053 0.11055115 -0.06769117 -0.23744649 0.0986993 -0.16608208 -0.09218588 -0.01575882 0.069963604 0.21312252 0.067635134 -0.036715634 -0.04183964 0.046112914 -0.04724177 0.03162021 0.0024547265 -0.027839724 0.00071887975 -0.053556208 0.19372006 -0.10043455 0.0046058046 -0.07873128 -0.09201757 0.037908103 -0.15938015 -0.09559994 0.104073435 -0.020389084 0.15626687
25 -0.099162444 -0.21275635 0.06862892 0.08932805 0.046143748 -0.13706015 0.14425379 0.04035291 -0.013119672 0.037142683 -0.08587087 0.07169437 0.049057834 -0.16490842 -0.09232666 -0.18312548 0.062073313 -0.12501879 -0.013332518 0.07287923 0.17218752 0.016474018 0.22950251 0.03691281 0.024155846 -0.07884439 -0.048661806 0.036188304 0.012632884 0.1796728 -0.05096923 0.08748078 -0.128138 0.05193296 -0.17364313 -0.12710549 0.18248744 0.09726673 -0.0466743 -0.10150856 -0.25657576 0.07883411 0.12963513 0.15436919 -0.10683414 0.07309322 0.067046635 -0.09425431 -0.05400647 0.06352949 -0.018284893 0.20988402 0.01779167 0.11190966 -0.20110855 -0.09693785 -0.09793891 0.030293971 -0.041854147 0.06657596 0.08490796 -0.12198002 -0.11828309 0.16587612 -0.002012342 -0.19705522 -0.016995944 0.051964875 -0.03133683 -0.0938774 0.024110166 0.027938083 0.015894786 0.017435549 0.017293118 -0.0768149 0.0667383 0.06616844 0.049319852 0.06631043 -0.05549474 -0.1910592 -0.018766226 -0.19744228 -0.070190825 0.2316313 -0.052654155 0.023274329 -0.09759243 -0.020942446 0.009261655 0.099060826 0.09736329 -0.06285299 -0.07634887 0.23498608 -0.11205786 -0.016012762 0.11357324 -0.10445346 -0.26982364 0.10391815 -0.15289001 -0.08282301 0.017351966 0.09696329 0.23427358 0.07772584 -0.028849227 -0.02418593 0.036580544 -0.07802078 0.035071757 0.014013577 -0.025054742 -0.010992676 -0.048812747 0.19305973 -0.10602379 0.008022982 -0.08929579 -0.10776349 0.0019389058 -0.17194642 -0.061432317 0.13422592 -0.03416106 0.13724582
31 -0.092519894 -0.21938892 0.06833938 0.09916233 0.05018107 -0.14223565 0.1483658 0.04375025 -0.0011906433 0.035854436 -0.07569631 0.090652116 0.047151268 -0.17265865 -0.07770213 -0.18736872 0.048806775 -0.12936512 -0.019292766 0.06691538 0.17193142 0.0125864195 0.21837427 0.036541164 0.031718593 -0.0797625 -0.048777875 0.035794232 0.01557572 0.17254281 -0.054509796 0.09274707 -0.13277598 0.0552729 -0.1603898 -0.12751158 0.18753915 0.1006284 -0.043812137 -0.09746407 -0.24397056 0.07895494 0.13898113 0.15865324 -0.12182426 0.06888473 0.069818705 -0.10082762 -0.053989414 0.068112835 -0.025692366 0.21335568 0.019559683 0.10500059 -0.18885535 -0.102807395 -0.09896114 0.03226632 -0.035418347 0.047110245 0.09397029 -0.13049948 -0.116160475 0.16622125 -0.006968684 -0.18946253 -0.022087978 0.046230048 -0.0213478 -0.10798819 0.020335661 0.027865596 0.006800846 0.009047654 0.034352988 -0.06990456 0.07212623 0.05949416 0.04210761 0.055895444 -0.055395413 -0.17960791 -0.02221768 -0.18809786 -0.07706015 0.21494211 -0.041080203 0.027248139 -0.085760795 -0.013457328 0.015411497 0.097158596 0.1004815 -0.055245817 -0.08216216 0.22824056 -0.10855915 -0.029023295 0.11144805 -0.09037232 -0.259428 0.10209697 -0.15299368 -0.08940932 0.002143342 0.08900406 0.22758797 0.07421257 -0.03073748 -0.029404154 0.0360944 -0.072121926 0.029638657 0.010193093 -0.022406025 -0.001949438 -0.05560718 0.19897346 -0.10986204 0.00892409 -0.088632524 -0.10842992 0.01460243 -0.17156357 -0.07503035 0.121292636 -0.031173248 0.14560875
27 -0.09660522 -0.23093918 0.066956386 0.09665489 0.054434948 -0.14404242 0.15683356 0.05106095 -0.0091034705 0.03732788 -0.08510259 0.083640575 0.04692607 -0.17347203 -0.08723635 -0.1925571 0.060763292 -0.137012 -0.019234778 0.06680311 0.18215103 0.017844511 0.23358023 0.039048173 0.028635984 -0.08817208 -0.056967065 0.037558716 0.015035123 0.18461053 -0.053538624 0.087643676 -0.1371396 0.052999873 -0.17027965 -0.1374124 0.19410509 0.1034638 -0.05054655 -0.10367838 -0.2591483 0.07957078 0.14163913 0.16668229 -0.120910145 0.07486723 0.076816484 -0.1029262 -0.057104025 0.0703268 -0.017118726 0.22175817 0.016082795 0.11392124 -0.20183685 -0.1079112 -0.10402565 0.038402837 -0.03130191 0.05874199 0.09140482 -0.12848575 -0.12187098 0.17640398 -0.002675007 -0.19758844 -0.022153232 0.053693164 -0.022136826 -0.10635072 0.01878665 0.035770025 0.008543585 0.007850053 0.025498988 -0.0777339 0.07408209 0.0616938 0.042186037 0.06314325 -0.06296107 -0.19053136 -0.020316586 -0.19346938 -0.08068416 0.23124354 -0.041057326 0.028738225 -0.09653489 -0.012682944 0.014377887 0.096558645 0.099652074 -0.058360156 -0.082220264 0.24072196 -0.1114593 -0.02783608 0.11987106 -0.10341833 -0.2731617 0.106019534 -0.1520492 -0.09162847 0.009425854 0.096799046 0.23909818 0.0727367 -0.035137694 -0.024247581 0.041785777 -0.0749388 0.03221139 0.013633322 -0.021728285 -0.009051739 -0.05338672 0.20039086 -0.11051525 0.006700822 -0.0921858 -0.1070383 0.013810547 -0.17787224 -0.07433602 0.13107578 -0.028242946 0.14729017
29 -0.10117417 -0.21745147 0.071537785 0.09099499 0.054632492 -0.14329383 0.1488494 0.04243786 -0.015887214 0.04003977 -0.08528575 0.080951035 0.049425166 -0.1749395 -0.09395709 -0.18720825 0.058586843 -0.12865046 -0.01226014 0.072314784 0.17621425 0.0169934 0.2290066 0.03294226 0.020594748 -0.07829035 -0.05080921 0.03785476 0.020435594 0.18461628 -0.051886585 0.09021905 -0.13066371 0.05851673 -0.17670874 -0.1319083 0.19280572 0.09727145 -0.041811865 -0.102658525 -0.25614712 0.079502136 0.13251384 0.15906507 -0.10940787 0.072683945 0.063023515 -0.10182531 -0.060836866 0.06505005 -0.016484668 0.20844692 0.015864281 0.11373779 -0.20735629 -0.09381357 -0.09955829 0.038218778 -0.04082367 0.06453228 0.09032365 -0.1318184 -0.12642986 0.16938487 -0.00027582888 -0.20063415 -0.01885064 0.048244987 -0.02471462 -0.0925433 0.021997627 0.029734457 0.013248029 0.01672946 0.019784182 -0.07178083 0.07631781 0.06693278 0.049933482 0.06847858 -0.060013503 -0.19358489 -0.017303858 -0.20291322 -0.07060349 0.23938976 -0.05035542 0.023363532 -0.094852574 -0.020584736 0.012893422 0.099546194 0.093739435 -0.061516207 -0.07540931 0.24114034 -0.11883176 -0.013324415 0.11452229 -0.10989801 -0.27416953 0.10580553 -0.15070213 -0.08397202 0.016961882 0.098674834 0.23304233 0.074504174 -0.03219094 -0.02243933 0.039385315 -0.07995185 0.031764086 0.015340836 -0.025061501 -0.012977589 -0.053903446 0.19563724 -0.10633294 0.008800846 -0.09279431 -0.114170626 -0.0010161446 -0.17494486 -0.058926016 0.13458435 -0.032522775 0.13648646
20 -0.07094333 -0.25927195 -0.0046408297 0.13985455 0.042511273 -0.13517076 0.17466322 0.05707271 0.132406 -0.004888282 -0.028976217 0.14796515 -0.01603577 -0.14697911 0.019775722 -0.19728222 -0.0017817379 -0.1860001 -0.07319365 0.04548293 0.16730626 -0.018507048 0.16525123 0.03687681 0.08611938 -0.1427904 -0.054927338 -0.035241157 -0.0013152543 0.123280644 -0.038243603 0.06865978 -0.10771838 0.014869581 -0.11120529 -0.121705025 0.21004629 0.15327573 -0.087948404 -0.071219586 -0.16702354 0.08066298 0.17016272 0.15816899 -0.19142881 0.0735366 0.14492305 -0.088256225 -0.01779871 0.07609094 -0.07234978 0.24612814 0.050848074 0.050183363 -0.12179312 -0.1367742 -0.07990304 0.016233845 0.036573566 -0.018186105 0.10359864 -0.14441258 -0.03964274 0.1915458 -0.05132998 -0.14000893 -0.039402597 0.043446243 0.03027826 -0.20256211 -0.0069029834 0.026301717 -0.063992 -0.021202307 0.12170317 -0.044140104 0.03174598 0.024580942 -0.024062935 -0.04056609 -0.07263793 -0.08356669 -0.02945472 -0.12113368 -0.120833 0.07982086 0.05303324 0.055095904 -0.039140623 0.027057065 0.08250194 0.039869606 0.1204139 0.0068545863 -0.07693887 0.1854924 -0.0558853 -0.112163916 0.10499548 0.0051214574 -0.17450528 0.10208078 -0.19983876 -0.10633896 -0.08010042 0.019517172 0.17885296 0.043235954 -0.028031152 -0.06882819 0.052282367 0.015014964 0.014708965 -0.025278434 -0.045065712 0.02359415 -0.043616947 0.17540963 -0.07383587 -0.010103374 -0.05282482 -0.046217054 0.111962385 -0.1511654 -0.15845183 0.049315546 -0.005973005 0.19221953
8 -0.0749655 -0.25164273 0.011509211 0.12915237 0.042368393 -0.13040926 0.16772121 0.05278639 0.10747055 0.00782697 -0.03956957 0.1365297 -0.010163192 -0.15085925 0.003870264 -0.19523084 0.013655374 -0.17374839 -0.057521146 0.05530856 0.16343287 -0.010416962 0.17196502 0.031490747 0.07378513 -0.12646557 -0.055718027 -0.016623547 0.0004199188 0.13738489 -0.04043683 0.07462939 -0.112014994 0.027424961 -0.12601152 -0.12683521 0.2063232 0.14417177 -0.07308021 -0.06838039 -0.18129312 0.08060459 0.16143633 0.16188377 -0.17604777 0.07485116 0.12454151 -0.09147231 -0.028043557 0.077323645 -0.06304725 0.234668 0.04777532 0.0663074 -0.13889274 -0.12841852 -0.08953926 0.020777475 0.022873119 -0.007333995 0.094900794 -0.14660044 -0.055463616 0.18714523 -0.03794139 -0.15287672 -0.03050588 0.040465616 0.02188047 -0.18852313 -0.0028799362 0.023286613 -0.04929438 -0.01424597 0.10207687 -0.04923355 0.035491828 0.031514052 -0.011977309 -0.024211561 -0.06673546 -0.1050527 -0.030671258 -0.13143574 -0.11716872 0.10880059 0.0385155 0.04892918 -0.045600396 0.014541059 0.07077289 0.047806036 0.113157175 -0.005743447 -0.079363935 0.19039933 -0.07157803 -0.09794329 0.10648309 -0.020963617 -0.18917844 0.10098563 -0.19580737 -0.10722858 -0.058455437 0.028434515 0.19308205 0.045049388 -0.034813907 -0.06728599 0.04783099 -0.002150222 0.020785855 -0.019919915 -0.0438827 0.022509396 -0.050617084 0.17948729 -0.084303714 -0.006079787 -0.06308856 -0.06549597 0.09626243 -0.15247533 -0.14110169 0.059444647 -0.0055370275 0.18218237
13 -0.076791726 -0.2524887 0.020646337 0.124309435 0.0470605 -0.13895191 0.16947845 0.050299566 0.09440951 0.013452962 -0.047561828 0.13065557 0.004124572 -0.1608721 -0.0106250085 -0.19770837 0.013587855 -0.17329027 -0.05781761 0.053061824 0.1753582 -0.006530493 0.18090332 0.036558706 0.062339023 -0.1254221 -0.051389437 -0.007820476 0.006651995 0.1441401 -0.047113698 0.08175555 -0.11943523 0.029227948 -0.131866 -0.13203315 0.20728275 0.14394672 -0.07219784 -0.07942384 -0.19031858 0.081574395 0.16458513 0.16476035 -0.17308713 0.07545103 0.11984245 -0.09266512 -0.03303814 0.07866698 -0.06116679 0.24292779 0.044925 0.07488094 -0.15018918 -0.13115731 -0.0931904 0.02274658 0.01974479 -0.001665247 0.10228644 -0.14419273 -0.06971931 0.18110305 -0.032289088 -0.15953627 -0.03563048 0.040472444 0.01945234 -0.17865166 -0.00097176404 0.023286082 -0.037843507 -0.015928155 0.09328401 -0.057825774 0.04228899 0.034034003 -0.007046311 -0.01592049 -0.06867386 -0.12128163 -0.027933028 -0.14540435 -0.11448936 0.123735026 0.028032683 0.04555575 -0.055156488 0.01878967 0.066732414 0.056221157 0.108913355 -0.019520707 -0.07890548 0.19885589 -0.07625448 -0.09062188 0.107747264 -0.028637653 -0.19887832 0.10495202 -0.1844383 -0.10479745 -0.05365844 0.035219416 0.20236959 0.05134521 -0.034585956 -0.06330093 0.052003544 -0.016444206 0.019656206 -0.0104105845 -0.04067525 0.011242256 -0.052304734 0.18630238 -0.08539157 -0.009255323 -0.062807836 -0.06398123 0.08559059 -0.1520922 -0.13367194 0.073990986 -0.009552151 0.18247533
21 -0.09523353 -0.21551377 0.05838406 0.093864255 0.0446402 -0.13632414 0.14702232 0.04367139 0.01321983 0.035007693 -0.0733046 0.091485485 0.037434567 -0.16807324 -0.068677254 -0.18195659 0.047279637 -0.13382533 -0.023417605 0.06610975 0.17052856 0.010828231 0.21367346 0.033809047 0.03462232 -0.08640816 -0.04930725 0.026672656 0.014558051 0.16646841 -0.046272315 0.08503094 -0.1263834 0.05146907 -0.1627581 -0.1316076 0.18994237 0.110715844 -0.04739664 -0.08931738 -0.24406387 0.08198981 0.14104003 0.16034335 -0.13251491 0.07218778 0.08165089 -0.098259844 -0.047275428 0.06589258 -0.023712678 0.21378276 0.025106782 0.09825266 -0.18513495 -0.1016331 -0.09804902 0.029346716 -0.030064674 0.048578955 0.08802876 -0.12983468 -0.10484547 0.17271818 -0.003565628 -0.1836026 -0.020281805 0.04275768 -0.016859878 -0.12004109 0.022159057 0.024101157 0.0023813206 0.008505148 0.043423824 -0.06616578 0.062481135 0.054349873 0.034830045 0.047623757 -0.060202997 -0.1684069 -0.023695292 -0.18594933 -0.08479395 0.20102623 -0.032033473 0.028037569 -0.07734308 -0.011821561 0.028771862 0.09040855 0.0971768 -0.043657236 -0.07862858 0.22189768 -0.10596594 -0.03349345 0.1138139 -0.08515994 -0.25077018 0.10022684 -0.16213936 -0.08541328 0.0013634191 0.08400257 0.22336093 0.06695105 -0.03510041 -0.037567504 0.044576626 -0.05721915 0.029784076 0.009662793 -0.027591297 0.0023699405 -0.05682524 0.19510466 -0.10388017 0.009325427 -0.084137805 -0.10372925 0.025002584 -0.16962785 -0.0781072 0.113510154 -0.021697652 0.14500314
10 -0.08747435 -0.2333666 0.041753337 0.11118282 0.050420128 -0.13302487 0.15943994 0.047978092 0.044397246 0.019843837 -0.061213214 0.10646941 0.021599239 -0.159267 -0.05094014 -0.18650967 0.039245196 -0.14575848 -0.03723169 0.06330825 0.17172648 0.0038805841 0.20533225 0.03891841 0.044537563 -0.103808895 -0.051600233 0.008087347 0.008510059 0.1574367 -0.050278876 0.07899851 -0.12137558 0.044270422 -0.15302855 -0.12799074 0.19675963 0.11502319 -0.061985172 -0.091628715 -0.22108604 0.077940136 0.15051837 0.16059612 -0.13748014 0.07475317 0.09610664 -0.09519418 -0.037995066 0.066677816 -0.036308143 0.22575462 0.031975918 0.08885252 -0.17228349 -0.11033056 -0.09181567 0.02529335 -0.014295821 0.03377986 0.0942391 -0.1340465 -0.095683925 0.17899233 -0.019034022 -0.1762166 -0.028027441 0.045045692 -0.008089932 -0.14149444 0.016423246 0.024740672 -0.011273414 0.0009912704 0.06130683 -0.06301541 0.05541835 0.04874551 0.017374951 0.02611311 -0.067173526 -0.1532282 -0.023416214 -0.16615239 -0.09455181 0.17526339 -0.014214764 0.03471281 -0.073193155 -0.0027353913 0.04211537 0.078871295 0.10867879 -0.033269715 -0.076967105 0.22003135 -0.09336855 -0.056914017 0.11263411 -0.06311334 -0.2349898 0.10329699 -0.16861893 -0.09407591 -0.021973617 0.06674974 0.21882176 0.06799055 -0.03420133 -0.040405028 0.047967874 -0.04812429 0.0282864 -0.0013963283 -0.029196609 0.0034905837 -0.048586283 0.1897318 -0.09670675 -0.0012239619 -0.07671522 -0.09023078 0.045215823 -0.16173945 -0.094836295 0.098595574 -0.02222241 0.15965974
16 -0.09657613 -0.2153487 0.068646476 0.0941935 0.048817128 -0.13732624 0.14991118 0.045645695 -0.0031769348 0.035755057 -0.08297158 0.084627226 0.04210718 -0.16545384 -0.078176126 -0.18340471 0.0519049 -0.13169096 -0.02294074 0.063799754 0.16839807 0.016030278 0.22572511 0.031423166 0.030630047 -0.079286814 -0.048887257 0.03362355 0.014160823 0.16920598 -0.053715155 0.09018927 -0.13014674 0.050834294 -0.16394535 -0.12822127 0.18996301 0.09685751 -0.048559837 -0.098103605 -0.25240615 0.07984776 0.14188002 0.16051704 -0.117641754 0.06678914 0.074618146 -0.09720168 -0.056021392 0.07047274 -0.017054774 0.21020178 0.019058628 0.10799163 -0.19022532 -0.09946109 -0.10148718 0.03520205 -0.03505184 0.051891454 0.09087195 -0.13130315 -0.11589614 0.16495673 -0.00014249305 -0.1911236 -0.016248463 0.051224977 -0.024499556 -0.10973509 0.026757598 0.024723569 0.010496216 0.009983518 0.032576922 -0.07223523 0.07348835 0.05918569 0.0396845 0.058430895 -0.053300373 -0.1827991 -0.020281345 -0.19114229 -0.074353024 0.22335066 -0.042546242 0.031485498 -0.08548668 -0.0127897505 0.014510341 0.098584965 0.092852555 -0.05194954 -0.07803119 0.23136479 -0.105632015 -0.027163079 0.112343475 -0.09995709 -0.25557795 0.10287812 -0.15010902 -0.08840627 0.0054300367 0.08882541 0.22716421 0.07382644 -0.029732691 -0.027383797 0.03684771 -0.066269055 0.028861782 0.015645426 -0.01959481 -0.0017483912 -0.05324824 0.19907458 -0.1075565 0.005499857 -0.088420585 -0.10634565 0.010261055 -0.16998744 -0.06712902 0.12324736 -0.02725666 0.14434229
19 -0.09645072 -0.23080926 0.0732517 0.09674157 0.051202815 -0.14376952 0.15431221 0.04742661 0.0015902313 0.038090557 -0.08706182 0.09156073 0.0458317 -0.17625342 -0.08499585 -0.18972014 0.053381745 -0.1381801 -0.01838668 0.07312495 0.1794856 0.011988627 0.2319396 0.03574818 0.030141247 -0.079579145 -0.053848933 0.036678635 0.016030358 0.17901391 -0.054312203 0.09467711 -0.1336248 0.052712794 -0.17395712 -0.1371637 0.19313598 0.10705665 -0.045652617 -0.097648315 -0.260642 0.07937621 0.14597508 0.16817965 -0.12256337 0.073829554 0.07829252 -0.106185496 -0.05676874 0.07053591 -0.02459333 0.21801254 0.017165923 0.11105605 -0.19853322 -0.10206096 -0.10892417 0.037995357 -0.031622056 0.054559793 0.09395657 -0.13657041 -0.11694145 0.17724451 -0.0029835745 -0.19942296 -0.015152673 0.04921331 -0.024740437 -0.11271487 0.022537373 0.030127939 0.010549405 0.011189416 0.02864745 -0.076074645 0.07573087 0.065225884 0.03896056 0.05473244 -0.05927196 -0.18865839 -0.020798028 -0.19854529 -0.082598165 0.22808322 -0.039672133 0.030607212 -0.092755385 -0.014382322 0.018787777 0.10241117 0.103360355 -0.055530608 -0.083574355 0.24061255 -0.112066716 -0.028472327 0.11733417 -0.10154501 -0.2657776 0.10687344 -0.16244869 -0.09122255 0.0062167128 0.09313311 0.23697235 0.07584652 -0.035545353 -0.03129651 0.037944086 -0.07259445 0.03470919 0.012376752 -0.021284007 -0.0028882525 -0.05070028 0.20666409 -0.11465102 0.00936055 -0.09151821 -0.11194098 0.013042245 -0.17646356 -0.07772523 0.12546575 -0.031970765 0.1467873
23 -0.09053893 -0.23021142 0.046502385 0.10992502 0.050490048 -0.1362695 0.1569361 0.05195003 0.03373438 0.023574578 -0.07023819 0.10190547 0.030211754 -0.16927621 -0.061230212 -0.18847248 0.04238353 -0.142236 -0.03059305 0.068095565 0.17080534 0.005665444 0.20873746 0.038997293 0.043621436 -0.09962785 -0.056862514 0.0129046785 0.00693047 0.16694364 -0.04917044 0.08629722 -0.12762113 0.04417606 -0.15829973 -0.13198087 0.196461 0.112620376 -0.060550366 -0.090585336 -0.2314397 0.08053259 0.15036474 0.16286427 -0.13508217 0.06958925 0.08881324 -0.0943295 -0.047341637 0.06928149 -0.03169854 0.22410192 0.02894864 0.09340621 -0.17874165 -0.11534086 -0.09920321 0.030335877 -0.016342951 0.03436427 0.09435054 -0.13614804 -0.0969532 0.17993955 -0.013019307 -0.18331222 -0.022122148 0.051522337 -0.007838212 -0.1290179 0.016436664 0.029956149 -0.005406843 0.0045184344 0.04804613 -0.06704858 0.06218293 0.055157367 0.028836938 0.03566356 -0.058767237 -0.16233715 -0.01944896 -0.17617558 -0.09026617 0.19089097 -0.021747828 0.036925223 -0.0813957 -0.0049362103 0.033850014 0.08567673 0.10240473 -0.04136786 -0.083502926 0.22300982 -0.096329 -0.048420552 0.11239439 -0.06969829 -0.24535841 0.10504486 -0.16369036 -0.097793356 -0.015831925 0.071138434 0.21809483 0.06629588 -0.030305004 -0.037445772 0.04075569 -0.05436127 0.026768597 -0.00034454465 -0.029406017 -5.332622e-05 -0.052581515 0.19382945 -0.099524535 0.0046022725 -0.07827154 -0.09135806 0.03485164 -0.16787626 -0.09171171 0.10381079 -0.0234743 0.15667224
22 -0.07797938 -0.25562635 0.018384485 0.1279304 0.047355603 -0.14262511 0.16739713 0.053006135 0.09201943 0.009504754 -0.04654687 0.13574952 0.0045670485 -0.16154826 -0.008897334 -0.20027822 0.013685555 -0.17491934 -0.053499885 0.059315216 0.17665225 -0.0069268774 0.19085583 0.035692208 0.06375844 -0.12242598 -0.057906922 -0.014945481 0.007198248 0.14816011 -0.043509223 0.07678462 -0.121374615 0.029606914 -0.13433956 -0.1327013 0.20589127 0.14028035 -0.07564304 -0.08045518 -0.19147082 0.07815186 0.16209608 0.1676214 -0.17178686 0.07857617 0.117337935 -0.09206647 -0.029676015 0.07397266 -0.0595525 0.23733893 0.03804837 0.070793465 -0.14488567 -0.12752251 -0.087557234 0.029105889 0.018678134 -0.0008436532 0.10255033 -0.144132 -0.064858496 0.19006905 -0.035620283 -0.15688442 -0.037682507 0.044848546 0.020840505 -0.17295429 0.00056161976 0.02843887 -0.039383907 -0.014917578 0.09862056 -0.052496407 0.04131943 0.038220264 -0.0016471962 -0.012515398 -0.07163574 -0.11882413 -0.025286064 -0.14896178 -0.1125837 0.12328581 0.02932586 0.042145092 -0.050303087 0.0141863795 0.064784266 0.055900715 0.1136058 -0.017722627 -0.08009259 0.2031938 -0.077274255 -0.08624775 0.1143204 -0.031988785 -0.20485051 0.10603075 -0.184938 -0.100100115 -0.05125816 0.042775474 0.19965972 0.055218082 -0.033959482 -0.05992959 0.052529402 -0.01432718 0.023387572 -0.0111478865 -0.04024602 0.014662692 -0.054405324 0.18737389 -0.09101667 -0.007539567 -0.062962405 -0.07129847 0.08469653 -0.15993533 -0.13296328 0.07307444 -0.009334026 0.18156363
15 -0.10323649 -0.21169066 0.081807785 0.082401134 0.052022826 -0.134855 0.14434943 0.040182006 -0.028565146 0.04039064 -0.088660136 0.07009836 0.056000303 -0.16984107 -0.09762937 -0.18054406 0.061620682 -0.11963059 -0.013511453 0.06760112 0.17463875 0.023193844 0.23355669 0.033652246 0.014106025 -0.067658596 -0.051770553 0.04676078 0.01927805 0.17771815 -0.056523792 0.093401656 -0.12855738 0.05947199 -0.17426984 -0.12997337 0.18174736 0.08927539 -0.03496207 -0.09797484 -0.2655279 0.075375736 0.13027531 0.16043901 -0.10136476 0.07217521 0.05449648 -0.10068846 -0.06214409 0.06097053 -0.011459586 0.20178442 0.012792251 0.11804005 -0.20808308 -0.09538653 -0.107394725 0.03354616 -0.04782155 0.07215647 0.09007221 -0.12137527 -0.12659359 0.16100277 0.007408169 -0.19408613 -0.012108778 0.048760712 -0.028184913 -0.082843244 0.02871807 0.028721927 0.023734547 0.012872989 0.008620652 -0.075867146 0.0781301 0.06795684 0.049030535 0.07262277 -0.05300875 -0.19663061 -0.018632801 -0.20411097 -0.06913205 0.24392502 -0.061681688 0.02014463 -0.0966767 -0.017872084 0.00718378 0.10745516 0.09401563 -0.06935662 -0.0791744 0.2379194 -0.116315626 -0.005209005 0.11449985 -0.111689195 -0.27106205 0.1009513 -0.14795688 -0.07970773 0.026139049 0.10120997 0.23979525 0.0796592 -0.032709196 -0.024187898 0.03510424 -0.086829424 0.033673663 0.01775255 -0.021046596 -0.008392834 -0.051815074 0.20375466 -0.115740396 0.012927744 -0.09189823 -0.121916614 -0.0022712213 -0.16976796 -0.057109073 0.13607392 -0.031878635 0.13661014
18 -0.06837972 -0.2549701 -0.005984778 0.13469782 0.047215376 -0.13167462 0.1654631 0.056560446 0.13528349 0.0016800581 -0.029892864 0.15163136 -0.015029461 -0.14661272 0.020373553 -0.19813567 -3.7238322e-05 -0.18214835 -0.07295681 0.052280754 0.16824876 -0.016558003 0.16540706 0.036867946 0.08555996 -0.1377718 -0.05619756 -0.031548634 -0.0003485856 0.12664828 -0.036600538 0.07334561 -0.107469924 0.019276502 -0.111310355 -0.12538107 0.20260774 0.15259132 -0.08189086 -0.0637161 -0.16661876 0.08553024 0.1685562 0.15785587 -0.19041954 0.075858966 0.1361575 -0.08855387 -0.017770642 0.0762089 -0.0689523 0.23834307 0.051124714 0.058464684 -0.12189263 -0.13128027 -0.08074608 0.016719809 0.036884855 -0.02149284 0.101181336 -0.14890581 -0.042439613 0.18583505 -0.044878367 -0.13760601 -0.037405994 0.037966926 0.03566503 -0.1976056 -0.0076979664 0.02349787 -0.056103166 -0.024362978 0.12184399 -0.04416017 0.03544728 0.027952144 -0.022581095 -0.042794682 -0.07536392 -0.08024534 -0.026151938 -0.121226236 -0.12508887 0.07918136 0.056722753 0.051468447 -0.04003573 0.028191775 0.0786976 0.036565945 0.12035971 0.0025436 -0.08263623 0.18544999 -0.061647166 -0.1065454 0.10873877 -0.0015983505 -0.17394899 0.1072338 -0.19444706 -0.10788076 -0.07757324 0.017862218 0.17635879 0.03968277 -0.033540178 -0.07414472 0.050916284 0.007445078 0.011585516 -0.028426558 -0.041886188 0.021906607 -0.047041155 0.17265125 -0.073695876 -0.010638291 -0.054282162 -0.054598883 0.10968844 -0.15100184 -0.15704055 0.045584902 -0.00709188 0.1900788
12 -0.07844974 -0.24474958 0.0147953965 0.12120987 0.044503637 -0.13175063 0.15977424 0.047181193 0.09090458 0.009608772 -0.03828543 0.13221033 -0.0020593747 -0.1474979 -0.008551804 -0.18635733 0.012345512 -0.16533133 -0.053240508 0.0496219 0.16488734 -0.0045528873 0.17679967 0.033576388 0.06276331 -0.12716115 -0.052678265 -0.014303039 0.0024755527 0.13670783 -0.037329372 0.07462606 -0.11627695 0.026661227 -0.12392339 -0.11881812 0.19488752 0.1391851 -0.07306867 -0.07310051 -0.18335725 0.08043362 0.16170883 0.1537332 -0.16883694 0.07433357 0.12148486 -0.0909052 -0.03064163 0.07218996 -0.055463925 0.2335503 0.03881161 0.06407587 -0.14156133 -0.12826048 -0.08307706 0.023826951 0.019671323 0.0020399399 0.09701091 -0.13503581 -0.06394016 0.18129158 -0.040236443 -0.1493361 -0.031716324 0.041338205 0.02130201 -0.17024736 0.005508985 0.02744609 -0.040613737 -0.010830181 0.09428356 -0.053140663 0.042826958 0.037782848 -0.006936767 -0.01213505 -0.06938513 -0.104802854 -0.028877338 -0.13611042 -0.11008164 0.115238525 0.027901616 0.04505247 -0.0532654 0.012007768 0.06131224 0.05624901 0.109840885 -0.010912871 -0.07512478 0.19171126 -0.06712067 -0.08978363 0.10723939 -0.023405004 -0.19422086 0.098738305 -0.17843734 -0.101456404 -0.055815898 0.0312285 0.18819551 0.049523838 -0.0275841 -0.060836557 0.045632236 -0.01031608 0.018179687 -0.014172514 -0.03552754 0.018797735 -0.047012392 0.17773473 -0.084084526 -0.0083761895 -0.061339177 -0.06362924 0.08526832 -0.14697759 -0.13412815 0.06743341 -0.013217246 0.17357005
