34 128
34 -0.095383175 -0.18418388 0.07421077 0.041163348 0.08824462 -0.089172825 0.11293991 0.049291484 -0.047631092 0.093641736 -0.16508757 0.076667964 0.06456101 -0.23216377 -0.084647134 -0.120311946 0.08301305 -0.033510033 0.077593945 0.124919236 0.17767224 0.039962206 0.14531021 -0.06344458 -0.09261708 -0.012328657 -0.0269817 0.05135857 -0.032548934 0.21368712 0.008003112 0.11261792 -0.08391947 0.09645991 -0.1787002 -0.17142613 0.26867026 0.09229227 -0.025410755 -0.04933861 -0.28738502 0.09663966 0.12302446 0.2033663 -0.0680792 0.07888009 -0.020089375 -0.093331344 -0.06738215 0.065467894 -0.033732753 0.16797219 0.09356057 0.15894455 -0.23984775 -0.08384061 -0.15524419 0.0081859 -0.078660496 -0.028177112 0.09682276 -0.17281626 -0.14118642 0.12500699 0.122427024 -0.20583123 -0.056784578 -0.062506445 0.014248017 -0.10138567 -0.045805663 0.033792667 0.015693003 0.036068663 0.022588842 -0.025502417 0.00097321934 0.11585201 0.0025043634 0.12155009 -0.047922567 -0.2705275 0.013926 -0.17225434 -0.09092541 0.28548986 -0.044079117 -0.035497773 -0.066125505 -0.011818235 0.086373575 0.019523857 -0.0054957513 -0.06490645 -0.028482161 0.13481322 -0.17022651 0.0011265662 0.028543526 -0.17285207 -0.22102173 0.03607513 -0.10148163 -0.015364567 0.032007575 0.06861993 0.20962209 0.04147971 -0.12056113 -0.057431348 0.07218132 -0.097113244 -0.002898074 0.06384163 -0.04487598 -0.055203553 -0.17082487 0.12353189 -0.11288477 0.057532076 -0.07013764 -0.14262465 -0.007612079 -0.14645192 0.05663721 0.08643454 0.06062726 0.026093602
1 -0.032902468 -0.21894999 -0.004371807 0.06536994 0.040451534 -0.09353851 0.11032958 0.15536006 0.10045444 0.07218442 -0.103004076 0.16807896 0.049483187 -0.21455559 0.045343906 -0.14084777 0.027797192 -0.14209111 0.011022262 0.01466491 0.15988517 -0.008289096 0.09733724 -0.0694002 0.04968759 -0.033999037 -0.027874427 0.01286035 0.03323415 0.17232914 0.022787124 0.052800145 -0.07527085 0.0758457 -0.09508451 -0.16908847 0.23428981 0.10138331 -0.08037763 -0.08942721 -0.22509433 0.055770747 0.18057196 0.2292698 -0.198634 0.044411995 0.079820506 -0.06958263 0.073487215 0.0787349 -0.14129643 0.13781889 0.04469526 0.20558764 -0.18084267 -0.10091142 -0.11407641 0.06441749 0.027289545 -0.10256759 0.16877641 -0.16206437 -0.054385763 0.11360521 -0.02881425 -0.049247798 -0.09871449 0.017148234 0.013159631 -0.20667903 -0.15494211 0.07848397 -0.066069275 0.0032198816 0.1642266 0.08606185 0.04219457 0.07384508 -0.027628077 -0.07017318 -0.12579773 -0.14802302 0.04610416 -0.018682253 -0.13483262 0.09105339 0.12977426 -0.04202542 0.058365565 0.050522186 0.17499514 -0.02904674 0.065605916 -0.06869165 -0.11588465 0.16415188 -0.07115365 -0.17423631 0.055271067 -0.031758666 -0.15395449 0.02924078 -0.1570273 -0.024913246 -0.10179438 0.06325152 0.1881823 0.08147969 -0.16345933 -0.071798734 0.09757859 0.024349894 0.031865414 0.09366177 -0.10824666 -0.02510696 -0.10708181 0.12318971 -0.12982427 -0.004990449 -0.033050686 -0.06873023 0.1423789 -0.18239968 -0.12467165 -0.035143886 0.13434917 0.15771607
33 -0.08717907 -0.19152315 0.06350584 0.046726443 0.08337294 -0.092458844 0.11142629 0.067350805 -0.022497043 0.09163395 -0.15364091 0.08846569 0.06246276 -0.2344717 -0.06374412 -0.118899085 0.0725667 -0.047746386 0.06300372 0.11080456 0.1838207 0.033137105 0.14339249 -0.066824704 -0.07979224 -0.015535349 -0.034580003 0.04576472 -0.022662232 0.21132225 0.0073536597 0.11023394 -0.076231845 0.093483254 -0.17613019 -0.17492476 0.25758636 0.09216611 -0.037587788 -0.052556176 -0.27822596 0.09309112 0.12736426 0.1946206 -0.0843546 0.08036831 -0.010869317 -0.08945985 -0.054877378 0.06269733 -0.044819247 0.16595565 0.086233884 0.15194719 -0.22839712 -0.07781392 -0.14971995 0.014332926 -0.06124332 -0.029840196 0.108773075 -0.17487818 -0.12804979 0.12377697 0.105376594 -0.1856732 -0.05198649 -0.05208098 0.010306392 -0.10487791 -0.046619233 0.033556625 0.011731036 0.032554645 0.030605 -0.010932428 0.007662577 0.10262859 -0.0010294772 0.09467891 -0.04634929 -0.24502037 0.014970948 -0.15117505 -0.09178006 0.25340042 -0.027645359 -0.03509552 -0.04880995 -0.007020564 0.09793623 0.019502467 0.0036212092 -0.06078204 -0.028051917 0.13377653 -0.14533705 -0.017111113 0.03323089 -0.14691143 -0.19222713 0.026250994 -0.09624855 -0.007814029 0.025580717 0.05780965 0.18993396 0.042059865 -0.10768742 -0.055299334 0.06439401 -0.07781312 0.0011731554 0.05473145 -0.04402744 -0.045756545 -0.15122916 0.10661268 -0.10734827 0.039347187 -0.058376085 -0.12517093 0.0072834194 -0.13811624 0.042203553 0.06671663 0.05555064 0.028788151
3 -0.06831792 -0.20234126 0.041387573 0.05362015 0.067613184 -0.09385143 0.1144767 0.104265325 0.018742245 0.08514334 -0.13604794 0.11907586 0.055825062 -0.23579293 -0.02274821 -0.13608837 0.060880538 -0.088239014 0.045382395 0.07150558 0.17238116 0.02113643 0.12382642 -0.064044476 -0.023514625 -0.020386787 -0.028951569 0.039323837 0.0035483036 0.20406783 0.011037789 0.08455856 -0.08377184 0.091727026 -0.13979404 -0.17472075 0.25385237 0.09603231 -0.050919853 -0.064634584 -0.25633386 0.07284127 0.1491473 0.21899135 -0.13051626 0.06423842 0.027732663 -0.08337673 -0.0070774266 0.071457475 -0.07980078 0.14696145 0.066600345 0.1814166 -0.21235599 -0.09048603 -0.13617648 0.03419407 -0.032222833 -0.05978137 0.12620297 -0.16538417 -0.10027965 0.119757876 0.05152198 -0.13064991 -0.06962543 -0.021802885 0.012328863 -0.15059479 -0.09271272 0.054208227 -0.02249677 0.021435432 0.090105206 0.026507257 0.02426122 0.08947423 -0.007796331 0.02915872 -0.07909704 -0.20736502 0.025087684 -0.09812338 -0.10877231 0.19287448 0.037815165 -0.037765253 -0.0079161795 0.015602529 0.12626393 -0.001807861 0.02589453 -0.06772988 -0.07328996 0.14815806 -0.1243837 -0.080037266 0.041797083 -0.10229812 -0.18710865 0.028457327 -0.12707837 -0.017091315 -0.0280939 0.06766067 0.19523795 0.059422065 -0.13624093 -0.06716192 0.08475071 -0.038802814 0.015446905 0.07610104 -0.073795885 -0.037313644 -0.14083017 0.120981626 -0.11455844 0.025343277 -0.05339589 -0.11061282 0.060788468 -0.16289908 -0.027303355 0.027718725 0.09466455 0.087622434
2 -0.049594205 -0.20074761 0.023272125 0.05227189 0.058154516 -0.090473935 0.107681885 0.118057184 0.037105717 0.07929022 -0.12568597 0.13290432 0.05662997 -0.22463416 -0.0013563819 -0.13476917 0.04570951 -0.09443511 0.034840666 0.05434753 0.17060542 0.015023661 0.11808478 -0.06743901 -0.011387893 -0.023258412 -0.028629433 0.031528044 0.012898781 0.19329868 0.018173596 0.074270174 -0.08615979 0.09226516 -0.13079777 -0.16963457 0.2486603 0.09157877 -0.060730845 -0.074532725 -0.24455307 0.07363796 0.15963596 0.217792 -0.14790872 0.059755348 0.038203184 -0.07995868 0.0186835 0.06865174 -0.09840151 0.14069368 0.065367535 0.19320047 -0.20894662 -0.09106248 -0.12714402 0.046642546 -0.016428338 -0.07058756 0.14074142 -0.16549614 -0.091921754 0.11279369 0.029184716 -0.10399725 -0.081052065 -0.01539405 0.009212276 -0.16575804 -0.113288075 0.060768813 -0.027958445 0.01562697 0.10953655 0.048342586 0.03149127 0.0857117 -0.013637348 0.0018269334 -0.09677709 -0.20378953 0.027987111 -0.07795496 -0.11693118 0.17539863 0.0642835 -0.043400787 0.014451847 0.023846602 0.14928325 -0.0075406707 0.037288073 -0.078752294 -0.09057349 0.15995394 -0.114284575 -0.11432815 0.042129923 -0.08284166 -0.17933035 0.023898875 -0.13149123 -0.02157102 -0.051828954 0.060239416 0.20221582 0.072771594 -0.15227038 -0.069158904 0.085591756 -0.02135317 0.021523181 0.08023972 -0.0874429 -0.037273306 -0.13357966 0.12324479 -0.12803213 0.014459422 -0.0501165 -0.10295001 0.08785601 -0.17849675 -0.049060035 0.013350361 0.11190272 0.10853818
32 -0.069814846 -0.22113223 0.026819378 0.06077574 0.06604987 -0.0954861 0.1251762 0.110017605 0.03431712 0.08809591 -0.13855895 0.13588125 0.056266095 -0.2365111 -0.016562613 -0.13413739 0.05619486 -0.10189899 0.037722815 0.07323193 0.17996527 0.016983284 0.12358821 -0.071942165 -0.023580808 -0.030166147 -0.038312178 0.02889858 0.00060808205 0.20290598 0.017881138 0.08504042 -0.06989223 0.08404201 -0.14658733 -0.17598327 0.26409236 0.106323935 -0.06294266 -0.07691928 -0.26370892 0.07997898 0.15100516 0.21393389 -0.14294647 0.067787245 0.036619786 -0.07677834 0.0023802058 0.067233466 -0.090964176 0.1600608 0.065773375 0.18067962 -0.21289188 -0.09598226 -0.13608101 0.03355941 -0.022199389 -0.06672204 0.13886246 -0.16996764 -0.09544245 0.12896447 0.038613487 -0.13148618 -0.08214617 -0.015477957 0.013092623 -0.1619445 -0.10587837 0.063578114 -0.03032394 0.01937749 0.09512007 0.036837567 0.01922756 0.09687985 -0.016879411 0.022233626 -0.08824049 -0.20410891 0.03790541 -0.08988283 -0.115462095 0.18916532 0.047884718 -0.03779013 -0.0019475726 0.014079991 0.13764887 -0.0025922908 0.037721563 -0.06503753 -0.06547735 0.1514285 -0.1109945 -0.08895531 0.038534097 -0.10323367 -0.17966186 0.028361727 -0.13701198 -0.018543052 -0.031579714 0.0686346 0.19851297 0.05823585 -0.13875829 -0.061224997 0.08651147 -0.033674017 0.01674372 0.07680263 -0.075125284 -0.036336392 -0.13640444 0.11922138 -0.10997919 0.01928148 -0.04941972 -0.1071564 0.07049808 -0.16258198 -0.032893922 0.019147472 0.08968801 0.09408971
4 -0.03964487 -0.1929355 0.010628712 0.057402156 0.051074833 -0.09037032 0.09771144 0.1319 0.063275814 0.070518926 -0.10669323 0.14171779 0.053306606 -0.21175444 0.020390607 -0.13285843 0.037499685 -0.11347136 0.024299882 0.037888736 0.16124427 0.005328771 0.10113461 -0.067342475 0.017016742 -0.023709623 -0.028817309 0.025353977 0.024569368 0.17757535 0.01628143 0.060625114 -0.080449514 0.08219472 -0.11040749 -0.16620702 0.23926573 0.09536815 -0.067674235 -0.074369214 -0.22335885 0.05886765 0.1645984 0.21936539 -0.16056673 0.048302293 0.053838026 -0.07372938 0.03736605 0.06655956 -0.10971542 0.12805185 0.05528475 0.1927242 -0.18845578 -0.08835102 -0.1143224 0.051577035 0.004984662 -0.08585912 0.1514675 -0.16091241 -0.069581084 0.10916544 0.0068491898 -0.07421793 -0.090052605 0.0014005253 0.012743187 -0.18066876 -0.12868841 0.06964375 -0.043648392 0.005967116 0.13549925 0.06272061 0.036881875 0.08062684 -0.021844951 -0.025505308 -0.10302919 -0.17960593 0.03462452 -0.048675794 -0.12025176 0.1346224 0.09674376 -0.043379206 0.03587336 0.038251594 0.15423091 -0.020193582 0.042837545 -0.07664158 -0.09960726 0.16066755 -0.09754164 -0.13941462 0.046175253 -0.060981013 -0.16834553 0.02717607 -0.13598555 -0.015346416 -0.07700422 0.062743835 0.18809517 0.075810164 -0.15502357 -0.07231771 0.094569534 -0.0018188327 0.025438296 0.08711246 -0.0955404 -0.029185839 -0.12273561 0.120334 -0.12503451 0.0056893476 -0.03938618 -0.086881205 0.10737359 -0.18268044 -0.0831931 -0.0072276955 0.124208726 0.13275626
24 -0.07962082 -0.18715993 0.058887124 0.04718359 0.077782266 -0.090906724 0.10908261 0.068972215 -0.012845047 0.09081559 -0.14547616 0.09270825 0.06438871 -0.23166418 -0.057036478 -0.12424173 0.066915825 -0.060378443 0.062377084 0.10153024 0.17991969 0.03218057 0.13414343 -0.05949332 -0.06730697 -0.012678915 -0.03286503 0.040184703 -0.018861715 0.21019025 0.0047326107 0.10319588 -0.07808685 0.08610529 -0.16589656 -0.1733677 0.26207453 0.09179176 -0.039427903 -0.06400414 -0.2694543 0.09104006 0.12670566 0.19989921 -0.09204643 0.0797228 -0.006710583 -0.0790822 -0.040977113 0.058475956 -0.048993405 0.15959151 0.075369045 0.16154565 -0.21640247 -0.073879376 -0.13688523 0.016097128 -0.05855025 -0.03876587 0.1102285 -0.17015778 -0.11682748 0.12061253 0.08448897 -0.174728 -0.062366065 -0.04032997 0.0064720158 -0.11351346 -0.060423695 0.042166 -0.0015192777 0.029020585 0.04581607 -0.005149654 0.004312527 0.09898265 -0.006068379 0.08435869 -0.053689364 -0.23467863 0.021437617 -0.1355612 -0.097237065 0.23578395 -0.014473618 -0.032191932 -0.03730255 -0.0023446283 0.10250124 0.012130033 0.011396946 -0.06580201 -0.033515897 0.13985406 -0.13773452 -0.02826857 0.030478645 -0.14222726 -0.1954735 0.034578945 -0.1015244 -0.0070988676 0.011227768 0.06807154 0.19466043 0.048570722 -0.11620111 -0.05487447 0.07539106 -0.07365445 0.004016328 0.06477977 -0.059573974 -0.04890397 -0.15142009 0.10895059 -0.10215952 0.0395899 -0.058092445 -0.12789926 0.017389307 -0.15240093 0.031492922 0.0637576 0.06595371 0.04914604
14 -0.041224863 -0.2118248 0.012134351 0.055742193 0.050657384 -0.091011405 0.1047732 0.13587001 0.06688476 0.07735803 -0.11403354 0.15062746 0.049392942 -0.21726489 0.027439637 -0.13484606 0.03665089 -0.1178643 0.021615481 0.02777347 0.16432323 0.009523387 0.10125406 -0.064831905 0.019906776 -0.02328435 -0.022405664 0.027463555 0.020689776 0.18340462 0.020947 0.06248835 -0.08174812 0.0861192 -0.10166973 -0.16715282 0.23572059 0.095605835 -0.073385194 -0.07884931 -0.22767867 0.060546502 0.16614744 0.22127841 -0.17133813 0.05287432 0.06156969 -0.067836 0.04543286 0.07389029 -0.121251866 0.1290414 0.04898123 0.1961964 -0.18376519 -0.09520696 -0.118124165 0.057084605 0.0050283177 -0.09149803 0.15006772 -0.15876752 -0.06508829 0.10333448 -0.008794308 -0.06730312 -0.08448049 0.00067965884 0.01242246 -0.18454039 -0.13795273 0.07405429 -0.053314958 0.012432039 0.14277166 0.07076789 0.037163325 0.07511548 -0.021289643 -0.042783484 -0.10987176 -0.1683357 0.03955182 -0.038051333 -0.12818491 0.13046713 0.1005539 -0.04386351 0.039649475 0.037175547 0.16063513 -0.022124847 0.051970102 -0.07762243 -0.10686065 0.16373606 -0.0945 -0.14471102 0.050580803 -0.054154288 -0.16981673 0.023968674 -0.14798838 -0.018165791 -0.08408098 0.06480182 0.19919033 0.08124166 -0.16282046 -0.07535937 0.08949869 -0.0005221048 0.025935866 0.08991592 -0.09527457 -0.031225102 -0.12352081 0.12006425 -0.12567985 0.0036169705 -0.04101586 -0.08967832 0.118678 -0.18544123 -0.08737142 -0.0150812315 0.12085943 0.13771659
9 -0.06636064 -0.19866301 0.033515856 0.051522672 0.06570461 -0.0901601 0.11164259 0.09956978 0.02305949 0.08296855 -0.13331105 0.12054249 0.056707084 -0.2292332 -0.025534958 -0.12965168 0.054442607 -0.080015436 0.043609258 0.07677051 0.16683431 0.022422928 0.12586129 -0.06854235 -0.032144055 -0.019084001 -0.033358596 0.029933179 -0.0034334816 0.20004229 0.014933646 0.08914134 -0.08185453 0.084746175 -0.14099236 -0.1753146 0.2586638 0.096708566 -0.056030463 -0.0649325 -0.26043445 0.07459556 0.146929 0.21488671 -0.12797335 0.06465914 0.024641305 -0.083920576 -0.009066157 0.062719285 -0.080849245 0.15074137 0.06602411 0.17416734 -0.20387171 -0.08814204 -0.13536485 0.030956727 -0.030106822 -0.061028827 0.12620912 -0.16476654 -0.10217054 0.12053893 0.056001507 -0.13522896 -0.07022631 -0.024569178 0.010390758 -0.1441612 -0.088472344 0.05636254 -0.016248707 0.019020777 0.086191654 0.022380276 0.016183542 0.096426725 -0.014640669 0.0379153 -0.07483046 -0.21094204 0.022720724 -0.10410455 -0.11009603 0.19382934 0.03365997 -0.037628915 -0.012343687 0.014941618 0.12851174 -0.0024903533 0.030734846 -0.06187667 -0.06626177 0.14276804 -0.11844093 -0.07569276 0.038045716 -0.104683094 -0.18640596 0.025073187 -0.1253504 -0.016153065 -0.023550715 0.06296717 0.1904127 0.060173992 -0.13781919 -0.065501206 0.08487171 -0.040028 0.017007763 0.070455655 -0.07227465 -0.041035786 -0.14384882 0.12175989 -0.11798579 0.030764649 -0.054562707 -0.111528814 0.057683542 -0.16126984 -0.023896044 0.035127256 0.09197237 0.08452046
28 -0.08039259 -0.20776375 0.050892975 0.052066717 0.07383698 -0.092544176 0.117737874 0.08723362 0.0032598916 0.090214126 -0.14657217 0.11471614 0.06296136 -0.23675346 -0.043920826 -0.13403018 0.06447324 -0.08152515 0.057398178 0.095307566 0.18255727 0.024896817 0.13505867 -0.067677304 -0.051182825 -0.018472377 -0.0378429 0.038858052 -0.00703583 0.21362163 0.011276733 0.10076148 -0.07674358 0.09221089 -0.16293755 -0.18484479 0.2722716 0.103181265 -0.04834202 -0.06916707 -0.27853882 0.083479494 0.14529006 0.2184872 -0.12006398 0.074556194 0.007885752 -0.084876865 -0.02638399 0.0646437 -0.074708864 0.164355 0.07875792 0.17256136 -0.22057903 -0.08810975 -0.1454471 0.021348475 -0.048698016 -0.051568575 0.12676445 -0.17801236 -0.108487345 0.12925665 0.071649306 -0.15957667 -0.07370411 -0.029514791 0.006991245 -0.14210579 -0.08380316 0.053466048 -0.015118254 0.021434879 0.06990915 0.012462571 0.011595532 0.105624706 -0.013485379 0.061154068 -0.07358149 -0.23692979 0.029175056 -0.12233864 -0.10914208 0.22826071 0.014811332 -0.036529627 -0.023940621 0.0075867656 0.1236843 0.003997845 0.019848162 -0.07154571 -0.050431337 0.14808886 -0.13548988 -0.054747388 0.037710413 -0.13117829 -0.20000249 0.03669 -0.12510046 -0.014313661 -0.005762282 0.07295877 0.2077495 0.05997869 -0.13053864 -0.06604998 0.08373357 -0.056752034 0.00676965 0.07163104 -0.068155475 -0.048203185 -0.15347925 0.11792182 -0.11435874 0.029966868 -0.056394465 -0.12304193 0.041964862 -0.16274172 -0.0029243084 0.044801835 0.08387658 0.07238273
8 -0.059671517 -0.19235806 0.03947758 0.047801986 0.06136638 -0.086514086 0.10455701 0.09827193 0.017460212 0.084990256 -0.13252322 0.113322675 0.053909495 -0.21987341 -0.016095847 -0.12947825 0.054373827 -0.078739546 0.047884572 0.069126606 0.16542469 0.021439644 0.11557275 -0.06651664 -0.028336689 -0.011617729 -0.02594076 0.04089874 -0.0012482369 0.191354 0.008937118 0.08330409 -0.07867965 0.087270424 -0.13265647 -0.16418414 0.24306373 0.086211264 -0.045641284 -0.061135955 -0.24048916 0.07289372 0.13717295 0.20497493 -0.115948424 0.06438272 0.01887215 -0.07572447 -0.007620736 0.06690365 -0.0788545 0.13618454 0.06948197 0.1758688 -0.2027613 -0.08140902 -0.13020098 0.031201001 -0.031553533 -0.061915815 0.121025376 -0.16231953 -0.09518519 0.10777092 0.052392602 -0.12595654 -0.06707676 -0.024013197 0.009916085 -0.143874 -0.0925656 0.049166963 -0.018711291 0.017832968 0.08319369 0.02658951 0.021372499 0.08471387 -0.011374952 0.03037247 -0.070931815 -0.20754251 0.021334695 -0.092088886 -0.108204596 0.18975972 0.038458575 -0.036907777 -0.004322369 0.013439513 0.12422881 -0.0056063775 0.02169255 -0.06997658 -0.06845049 0.13852425 -0.119214185 -0.08341727 0.03312527 -0.104058 -0.17386258 0.02296974 -0.11736166 -0.01604432 -0.025294079 0.05723108 0.18884693 0.054530647 -0.13442972 -0.06611513 0.07482365 -0.036923774 0.013706895 0.07281983 -0.074932836 -0.035467274 -0.13874447 0.112912916 -0.116020374 0.023347178 -0.052637488 -0.10759377 0.060486015 -0.15768203 -0.017242046 0.024759823 0.09330273 0.080415204
7 -0.02577057 -0.26644787 -0.025978278 0.08692042 0.035927236 -0.104704104 0.137193 0.19905522 0.14549515 0.078917705 -0.10949338 0.21749921 0.050061256 -0.2515676 0.080591 -0.16240343 0.022250107 -0.18721764 -0.0072784736 -0.000115141476 0.18515028 -0.019843051 0.107460596 -0.0820418 0.08444617 -0.053398177 -0.042768434 -0.0017821884 0.04301542 0.19691351 0.04105571 0.05377493 -0.08300792 0.07597001 -0.0947267 -0.18802662 0.2656439 0.11969287 -0.11127165 -0.104976974 -0.24751292 0.06198676 0.21561238 0.26230776 -0.25239834 0.05034838 0.11946819 -0.073915735 0.10705323 0.090684906 -0.17959666 0.1546076 0.041691992 0.23610608 -0.19326286 -0.121841736 -0.12429974 0.07756606 0.05760739 -0.12790264 0.20490973 -0.17810155 -0.040374592 0.13509381 -0.06227214 -0.030875826 -0.11863609 0.035620682 0.021594193 -0.2616873 -0.19854808 0.107639864 -0.103893034 0.0038525683 0.21876706 0.12492767 0.04881393 0.08314455 -0.040846895 -0.11580768 -0.15758647 -0.13918975 0.061112408 0.012679187 -0.16569985 0.075114116 0.1791738 -0.04708046 0.08287191 0.06871525 0.22369756 -0.04010485 0.09449748 -0.076315 -0.14785329 0.20204099 -0.058101702 -0.23204927 0.06304963 -0.011163231 -0.16599323 0.030541163 -0.20587753 -0.030543579 -0.14623111 0.06526253 0.21244545 0.09875425 -0.19008021 -0.08643589 0.12208188 0.058630623 0.0402551 0.10484808 -0.13524014 -0.020518767 -0.116027564 0.13903993 -0.1507223 -0.011232486 -0.03221941 -0.06764756 0.20228536 -0.21710068 -0.18137893 -0.064991415 0.16953316 0.20911847
6 -0.020278636 -0.2571596 -0.029306518 0.092141144 0.03167856 -0.10157667 0.1340905 0.19974941 0.14905705 0.07487222 -0.09413089 0.21359225 0.045859985 -0.23706788 0.08597386 -0.15636262 0.014330462 -0.19095252 -0.008638827 -0.008754597 0.17062254 -0.026636982 0.09680018 -0.085664965 0.09517173 -0.053918615 -0.037012324 -0.0113172075 0.049229406 0.18815437 0.039447967 0.038386382 -0.072372854 0.06946942 -0.079728395 -0.17703176 0.25212947 0.1226959 -0.11327995 -0.10539428 -0.22616768 0.0557998 0.20971331 0.24448575 -0.25467134 0.043423064 0.123523384 -0.072414145 0.116446696 0.08771852 -0.17596802 0.14238487 0.03051128 0.22052887 -0.16767703 -0.11984584 -0.11131233 0.07567482 0.06708546 -0.13414848 0.20108137 -0.16000412 -0.028885782 0.12455518 -0.069526955 -0.020711191 -0.121659815 0.03795147 0.017751146 -0.25542808 -0.19272885 0.10240779 -0.10546175 0.0026433864 0.22038336 0.12505999 0.048929226 0.07866364 -0.04233441 -0.12104995 -0.15925428 -0.115499295 0.06358256 0.025379717 -0.15223275 0.046231437 0.18992814 -0.046656236 0.08848313 0.068746306 0.21625906 -0.040547684 0.0954809 -0.06566658 -0.1446984 0.18890099 -0.0428128 -0.23307993 0.06607219 0.0013820835 -0.1415777 0.025272688 -0.19413224 -0.028079005 -0.15133226 0.065833434 0.19566657 0.09861619 -0.18104006 -0.0826081 0.12077756 0.06598784 0.04301735 0.10501363 -0.13006198 -0.010969258 -0.09760873 0.12843837 -0.13693605 -0.019127587 -0.022614157 -0.05822887 0.20343547 -0.20792529 -0.19092594 -0.06768311 0.16749394 0.2002399
30 -0.06989752 -0.21058181 0.04203934 0.056619637 0.06704592 -0.09377239 0.119596004 0.092265934 0.010601406 0.09386107 -0.14997108 0.12013051 0.05968899 -0.24066646 -0.03577616 -0.1373747 0.061530516 -0.0819347 0.048116196 0.08925052 0.18404642 0.020394823 0.13737094 -0.0723494 -0.04027323 -0.022428896 -0.029663624 0.037597105 -0.011711394 0.20706183 0.013106674 0.09131244 -0.08106388 0.08761358 -0.15774217 -0.1761497 0.26735765 0.10349855 -0.048936456 -0.07148145 -0.27586997 0.08852948 0.15052897 0.22316778 -0.12304321 0.07525669 0.01851206 -0.08994124 -0.019760191 0.0735081 -0.07679354 0.16649759 0.078416474 0.17519216 -0.22112295 -0.09011011 -0.15025713 0.031300735 -0.03666905 -0.05751516 0.13233785 -0.18204454 -0.10744947 0.12742575 0.07180189 -0.15508088 -0.07697492 -0.033817995 0.014419674 -0.14904334 -0.08560068 0.05287981 -0.015268706 0.022795208 0.079783954 0.01577757 0.018807676 0.103022665 -0.011130505 0.05465981 -0.08009952 -0.23085044 0.022038609 -0.11794855 -0.113151014 0.22214526 0.020108879 -0.038330305 -0.020769106 0.010706204 0.12851763 -0.0015434192 0.023706747 -0.06405927 -0.05736003 0.15251777 -0.13373162 -0.06244759 0.03989907 -0.12406038 -0.19060247 0.032238558 -0.124884345 -0.020444136 -0.01698579 0.064836726 0.20576262 0.057231456 -0.14029384 -0.06578541 0.080681816 -0.05459144 0.0057777995 0.06897878 -0.0651322 -0.044356786 -0.15579265 0.12171804 -0.122012824 0.036158822 -0.060372543 -0.11689153 0.05093336 -0.16389038 -0.0061950334 0.04369673 0.0917058 0.07596919
26 -0.07282355 -0.18841922 0.047327787 0.047028087 0.07144551 -0.08913292 0.11249819 0.07640663 -0.0016099068 0.08181898 -0.13875087 0.0984338 0.059029154 -0.22325101 -0.043759022 -0.116111636 0.06352891 -0.07065881 0.051164422 0.09115637 0.1738108 0.024625843 0.12921244 -0.059113435 -0.05206547 -0.023092877 -0.038714007 0.030972892 -0.015793255 0.20165193 0.015181825 0.09376439 -0.068093106 0.077017836 -0.15731293 -0.16979524 0.24969746 0.09309595 -0.047347765 -0.061544128 -0.25669762 0.076937184 0.12533894 0.19157627 -0.10528809 0.07645165 0.006386982 -0.07705914 -0.029588154 0.064916566 -0.0571003 0.15535246 0.06874289 0.14977358 -0.20474738 -0.08255063 -0.1316741 0.020573486 -0.04756183 -0.043028887 0.11368112 -0.1619719 -0.102377355 0.12304364 0.07012226 -0.15287118 -0.06037413 -0.036150675 0.010260819 -0.12333959 -0.068707734 0.045584727 -0.012715776 0.025551604 0.061312146 0.0042117457 0.004717684 0.09564017 -0.010148133 0.057777435 -0.065868616 -0.21135634 0.026572762 -0.115814894 -0.096622966 0.21472968 0.002302653 -0.034009133 -0.028135411 0.00054367253 0.109742664 0.00814359 0.021963205 -0.053054478 -0.04068141 0.13209435 -0.12590739 -0.044704765 0.038255546 -0.12455582 -0.18205044 0.029243223 -0.11293772 -0.0089231245 0.0006537385 0.06487123 0.19069847 0.049691062 -0.112070225 -0.05313284 0.07081312 -0.056897234 0.008309324 0.06625152 -0.057873104 -0.040961113 -0.13929833 0.10706813 -0.098688 0.026590738 -0.052448507 -0.116443455 0.031234602 -0.15109707 0.006037358 0.04923485 0.06739605 0.05307934
25 -0.07664214 -0.19749992 0.040659536 0.047855955 0.06725047 -0.090563014 0.11027399 0.08057629 0.011965182 0.083962716 -0.13952638 0.104102924 0.058416687 -0.22261307 -0.039598368 -0.12677668 0.06403983 -0.07908172 0.052894786 0.092264175 0.17907627 0.023438787 0.12999699 -0.059689328 -0.04663986 -0.024685495 -0.03541534 0.031942435 -0.013932556 0.20711458 0.014388374 0.094847836 -0.06925774 0.07755561 -0.15736863 -0.16824886 0.24810576 0.09744485 -0.050602596 -0.067001894 -0.25937372 0.08119891 0.12786043 0.19376366 -0.10574298 0.0769754 0.011796358 -0.07221091 -0.019848837 0.059551287 -0.06912123 0.15521628 0.07122117 0.16109163 -0.20948571 -0.08058587 -0.12854289 0.017169746 -0.043036327 -0.042802926 0.11557371 -0.16146892 -0.099903196 0.11946085 0.059775796 -0.1506886 -0.06579591 -0.02717905 0.0051103537 -0.1275016 -0.076818354 0.04681953 -0.012027463 0.026927758 0.06373369 0.0075909304 0.004840209 0.098763846 -0.009272671 0.05176552 -0.06743019 -0.21645297 0.02739077 -0.11570924 -0.1021379 0.20836978 0.011142093 -0.038392466 -0.02685212 0.00078423496 0.113337055 0.0032752377 0.026055625 -0.0652429 -0.046575893 0.1406534 -0.1255193 -0.0540421 0.036404468 -0.12108572 -0.19084826 0.033093516 -0.12158792 -0.00907689 -0.004246867 0.06519559 0.19476615 0.055397067 -0.11987262 -0.060006946 0.076465696 -0.05416994 0.0115350075 0.06582698 -0.07030648 -0.045089558 -0.13893795 0.10916118 -0.104345344 0.027193835 -0.052542735 -0.113622546 0.038959637 -0.15894243 -0.0014187442 0.048055645 0.07263763 0.06727982
31 -0.06481812 -0.18569642 0.042136494 0.048744712 0.064421825 -0.08932036 0.10427895 0.083563715 0.008012299 0.08169091 -0.12758817 0.110749416 0.058352776 -0.21791247 -0.030336281 -0.12458412 0.052232362 -0.07139182 0.048248433 0.076297894 0.16526581 0.020273147 0.11701637 -0.057883173 -0.036718752 -0.017676672 -0.02735318 0.03775863 -0.0058224034 0.18875656 0.010070939 0.08852231 -0.07853547 0.0846972 -0.13792226 -0.15996428 0.24040078 0.089176655 -0.043317266 -0.06511312 -0.24567047 0.07784397 0.13412926 0.19595803 -0.11219063 0.065697424 0.014489563 -0.07951188 -0.015863173 0.06403157 -0.07207247 0.14641964 0.06745338 0.16126923 -0.19971052 -0.08334142 -0.12666973 0.025054442 -0.038954888 -0.05447631 0.119148344 -0.15809157 -0.10294361 0.10859242 0.055598877 -0.13517137 -0.07002444 -0.029741917 0.008209608 -0.13050364 -0.07941451 0.045124788 -0.012170088 0.020651866 0.07405414 0.01674138 0.019386986 0.08815833 -0.006378512 0.045001045 -0.067707136 -0.20729843 0.021325579 -0.1058739 -0.10065874 0.19499174 0.019465487 -0.03938563 -0.015443516 0.006276028 0.11076135 0.00420576 0.025420023 -0.06316842 -0.06116243 0.13706349 -0.1212968 -0.06252007 0.034569014 -0.10436076 -0.18109699 0.027352788 -0.111731075 -0.017161634 -0.016980588 0.060534313 0.18564317 0.0548896 -0.12294486 -0.05852076 0.07347569 -0.048970602 0.008669189 0.06349244 -0.06336037 -0.036908437 -0.13849583 0.114702135 -0.11120736 0.02942702 -0.05335476 -0.10885277 0.0442341 -0.15405723 -0.010624925 0.039236926 0.0767422 0.07069444
29 -0.07278056 -0.20649664 0.039538622 0.051083118 0.07219708 -0.09595175 0.11498003 0.09492673 0.018103035 0.08889806 -0.14042251 0.122230805 0.057022624 -0.2354627 -0.029116035 -0.13384262 0.056695804 -0.087719895 0.051134564 0.08156665 0.18395075 0.020252403 0.12759775 -0.068425715 -0.040985174 -0.023731252 -0.034348957 0.0337958 -0.0036789095 0.21037365 0.016755585 0.092728436 -0.076477766 0.086925276 -0.15482993 -0.17701717 0.26526162 0.100112185 -0.051883094 -0.07089675 -0.26205376 0.08374558 0.14261508 0.20905611 -0.1201899 0.075314336 0.019212414 -0.08175427 -0.015941368 0.069126375 -0.078450374 0.15651548 0.07070135 0.17573111 -0.21983606 -0.08479853 -0.1362779 0.032530747 -0.03375632 -0.05585079 0.13077079 -0.17657158 -0.10641722 0.12301763 0.057378475 -0.14654998 -0.07557286 -0.029499888 0.013757086 -0.14303504 -0.0918765 0.05270346 -0.020703005 0.025297534 0.082816854 0.024716547 0.020932043 0.09784594 -0.011584866 0.041447837 -0.07969069 -0.21844296 0.030025119 -0.11191738 -0.11196603 0.20944497 0.030692881 -0.042419035 -0.014070493 0.008092795 0.12948392 -0.0023416616 0.025190119 -0.065471865 -0.05879649 0.15364294 -0.12865594 -0.0692468 0.039444465 -0.11741764 -0.19254786 0.032683823 -0.1252843 -0.0133612845 -0.018524665 0.064342104 0.19751745 0.055141807 -0.13353166 -0.06331468 0.0841686 -0.045209717 0.008587851 0.071026295 -0.075352974 -0.045543235 -0.14863706 0.11756794 -0.115353726 0.02677278 -0.055244308 -0.11604087 0.05306073 -0.16937126 -0.012290591 0.038303252 0.08726983 0.076975875
5 -0.027403388 -0.24782956 -0.023134211 0.082222216 0.04024715 -0.10016973 0.1301006 0.17676023 0.130563 0.071127675 -0.09717641 0.20019569 0.04387135 -0.22818798 0.06931373 -0.15302922 0.019062415 -0.1718453 -0.0037656974 0.007898393 0.1719061 -0.013607268 0.09812109 -0.075277604 0.07268655 -0.04959981 -0.03783938 -0.00467399 0.03874883 0.18267408 0.033264697 0.04589383 -0.07567291 0.07349834 -0.08597343 -0.17423724 0.24674125 0.11429696 -0.10057433 -0.0929265 -0.2201424 0.056501515 0.19212247 0.23518923 -0.22927772 0.045286164 0.10496453 -0.070069484 0.092128925 0.080146804 -0.15927304 0.14399001 0.043202166 0.20841916 -0.17426103 -0.115334265 -0.11305129 0.07024106 0.05120583 -0.12228061 0.18441576 -0.16632377 -0.03817983 0.12588057 -0.05231423 -0.035582878 -0.10789642 0.025622701 0.020942457 -0.23832062 -0.178804 0.095243715 -0.091680184 -0.00015441194 0.19736482 0.10728544 0.041617084 0.0748563 -0.039913416 -0.10018867 -0.14659366 -0.13488874 0.05467129 0.0027792414 -0.15113968 0.07357968 0.16460921 -0.041141678 0.07594785 0.0591924 0.20244777 -0.035841886 0.08417325 -0.06700856 -0.13515413 0.18412879 -0.06027412 -0.20602496 0.063473076 -0.01066608 -0.15334487 0.027153874 -0.18344979 -0.0303704 -0.13260345 0.060269773 0.19669627 0.08917499 -0.17720562 -0.07938924 0.107586645 0.04765396 0.03884839 0.093478456 -0.12133183 -0.014463218 -0.10167248 0.12823609 -0.1305925 -0.010574532 -0.028001126 -0.064298406 0.1784902 -0.20100078 -0.16244125 -0.051164754 0.14914353 0.18674242
20 -0.058443937 -0.20576794 0.027171979 0.055621028 0.05662059 -0.094705656 0.11383193 0.11142817 0.034847744 0.07986403 -0.12981789 0.12754892 0.058980506 -0.22314711 -0.008076331 -0.13224715 0.045688916 -0.09688675 0.035985887 0.05809172 0.17296498 0.011963447 0.119639635 -0.0657734 -0.011952232 -0.021516228 -0.02735584 0.027969323 0.0060926196 0.1887107 0.014303137 0.077913806 -0.07634529 0.08208918 -0.12972175 -0.16897006 0.25427598 0.09565862 -0.06302276 -0.07699939 -0.25302202 0.0719378 0.1506079 0.2146638 -0.14101946 0.06378304 0.04030425 -0.07580653 0.011577724 0.06664233 -0.09819092 0.14737473 0.065220386 0.17747568 -0.20188344 -0.09053024 -0.1283108 0.034772225 -0.020586217 -0.067795865 0.14127366 -0.16318688 -0.08600456 0.11830207 0.031961836 -0.11505591 -0.079115584 -0.012345875 0.009766032 -0.15614636 -0.1089217 0.062013775 -0.0339663 0.01640953 0.10280525 0.04148265 0.024945518 0.08849756 -0.014699228 0.013174021 -0.08788969 -0.20022759 0.032509167 -0.0851466 -0.113512725 0.17804213 0.053323664 -0.03819907 0.0029766117 0.023014715 0.14045466 -0.0075317477 0.037057925 -0.06996094 -0.07486276 0.15159947 -0.10799031 -0.099297754 0.038743116 -0.08809845 -0.18054879 0.026760211 -0.13641258 -0.014187411 -0.043592338 0.066688195 0.19588736 0.064785056 -0.13834745 -0.06382527 0.08383941 -0.024173817 0.016844982 0.07917219 -0.082899645 -0.03878013 -0.13148716 0.1204919 -0.11752426 0.018876823 -0.04831022 -0.09803355 0.078560054 -0.17142966 -0.042896353 0.018210556 0.09639347 0.101672724
11 -0.03619374 -0.23617221 -0.009748317 0.07561209 0.041030936 -0.09785796 0.118755266 0.16950877 0.11274511 0.07025314 -0.1047588 0.18231168 0.045479298 -0.21996592 0.056585692 -0.1463174 0.025148844 -0.15489449 0.0046065105 0.011544571 0.1702831 -0.0124729145 0.10508964 -0.07407117 0.05460168 -0.04400185 -0.03789797 0.006750084 0.030367566 0.18010591 0.033918813 0.0529865 -0.07222916 0.07065482 -0.09626809 -0.17022501 0.25232112 0.11248893 -0.09248636 -0.086953595 -0.23105073 0.062696256 0.1917167 0.23523317 -0.2143894 0.05067306 0.0964206 -0.06727462 0.07582516 0.0816563 -0.1461835 0.14231268 0.04459973 0.20627089 -0.18177819 -0.111513965 -0.11664867 0.06819962 0.031529237 -0.10696312 0.17476894 -0.16540855 -0.04464 0.1232134 -0.038543835 -0.046275917 -0.10737471 0.019376516 0.018959638 -0.22348464 -0.16414896 0.08710117 -0.08026934 0.0033968724 0.18121172 0.09842819 0.04097635 0.07444435 -0.03500982 -0.08013852 -0.13005844 -0.14170489 0.050565176 -0.01194907 -0.14613499 0.0930139 0.14574218 -0.043139637 0.06371311 0.052338168 0.18515453 -0.033072427 0.07497821 -0.06464363 -0.12039116 0.17217955 -0.06310366 -0.18508184 0.05403271 -0.02307836 -0.1503951 0.030316804 -0.17383152 -0.024221392 -0.113090314 0.061229024 0.19699721 0.0803563 -0.16647322 -0.07710987 0.10377511 0.03792705 0.030528082 0.090991214 -0.11287847 -0.02460385 -0.113632 0.12929127 -0.13273236 -0.009192284 -0.03078465 -0.07312969 0.16280454 -0.19595028 -0.13951617 -0.04503991 0.13836342 0.1694713
13 -0.051143512 -0.1947414 0.027570004 0.050828565 0.056830443 -0.089005806 0.10703564 0.10796546 0.038331196 0.08126879 -0.12443244 0.12205017 0.054417986 -0.2195154 -0.0028538634 -0.12718412 0.044080347 -0.09488488 0.03321977 0.052352622 0.16645594 0.013293553 0.10729409 -0.06422215 -0.014121245 -0.021582171 -0.023691153 0.032120585 0.008631861 0.18568769 0.011470885 0.0758087 -0.07635673 0.07966746 -0.12380808 -0.1658567 0.24200623 0.09516556 -0.05785275 -0.07010534 -0.23097941 0.06790728 0.14682509 0.2064858 -0.13525932 0.06108273 0.037404153 -0.07183694 0.010049865 0.07049863 -0.09327144 0.14085764 0.062515974 0.17999059 -0.1970635 -0.089276 -0.12730974 0.03703518 -0.012724374 -0.07235471 0.13616036 -0.15849096 -0.08760448 0.1070786 0.034857053 -0.109906904 -0.078626186 -0.01622736 0.014990215 -0.15946561 -0.106675185 0.055589374 -0.029638207 0.013659709 0.10430841 0.037430182 0.024887655 0.08192966 -0.017588533 0.0039403364 -0.085117914 -0.19164315 0.029649394 -0.0767741 -0.11427414 0.16392049 0.060218427 -0.03930197 0.0061857128 0.02654184 0.1381127 -0.010281431 0.03011573 -0.06996995 -0.07550578 0.14347292 -0.105384685 -0.10428785 0.03802596 -0.084230736 -0.1651888 0.025582422 -0.12560219 -0.015786912 -0.04558222 0.05601277 0.18747066 0.05974337 -0.13685814 -0.06739081 0.08570776 -0.024029233 0.01677301 0.07985863 -0.08110777 -0.036778525 -0.13066107 0.11681879 -0.11230055 0.012596477 -0.04357774 -0.09211678 0.08065114 -0.15867215 -0.04429945 0.015127494 0.10007057 0.100273244
21 -0.07998067 -0.19391009 0.051127456 0.04414499 0.06960252 -0.0920376 0.112430505 0.08068679 -0.0010136119 0.09268554 -0.14682528 0.106725596 0.060639676 -0.23456623 -0.04539186 -0.12588854 0.06340146 -0.067521416 0.058168463 0.0915503 0.178003 0.025306655 0.1299357 -0.06206256 -0.053033154 -0.019056505 -0.030689059 0.040506203 -0.013969846 0.20220998 0.014329446 0.09582637 -0.07836882 0.08877079 -0.16095924 -0.17523055 0.25707668 0.09776293 -0.041036956 -0.06144654 -0.27186254 0.08863571 0.13432503 0.20330957 -0.10768055 0.074060746 0.0093826 -0.08270366 -0.02716302 0.066619165 -0.059495874 0.15952982 0.07797068 0.16315028 -0.21859477 -0.083640814 -0.14144005 0.021111032 -0.050231967 -0.04398653 0.11472794 -0.16869901 -0.1119085 0.12235837 0.08032879 -0.15858099 -0.06510223 -0.04004098 0.007963278 -0.13046151 -0.0684061 0.040357243 -0.0042399396 0.027416594 0.062117495 0.0065948023 0.012257923 0.094489895 -0.0056369654 0.06654067 -0.065151796 -0.22539897 0.020750493 -0.1280114 -0.10491496 0.22091246 0.002608179 -0.03908994 -0.025254918 -0.0003466859 0.11321138 0.009346699 0.01381642 -0.057788398 -0.05027992 0.13740286 -0.13426265 -0.045445614 0.035586447 -0.12674835 -0.19053605 0.027315121 -0.11144431 -0.011829873 0.0022218293 0.064479366 0.1925366 0.046625786 -0.1251593 -0.060270023 0.0778063 -0.05580475 0.0053898944 0.06725671 -0.06171107 -0.03989242 -0.15190992 0.117303774 -0.112533785 0.03879392 -0.057488237 -0.1189302 0.033045094 -0.15757708 0.010492485 0.050769277 0.078140035 0.055267528
18 -0.048756912 -0.20738858 0.015064237 0.05656125 0.055553578 -0.09210423 0.1077568 0.12450431 0.056491625 0.082594596 -0.12132598 0.1416827 0.055725046 -0.22212659 0.010258507 -0.13639623 0.041450333 -0.107574046 0.025480183 0.050590575 0.17218456 0.008657359 0.1152596 -0.06694843 0.0059028566 -0.023458833 -0.029115945 0.024757775 0.014655924 0.18950921 0.01866614 0.07423976 -0.07491394 0.08260304 -0.11736981 -0.16917606 0.24201146 0.09667723 -0.065455675 -0.07175438 -0.23706415 0.07046506 0.1535921 0.21246916 -0.15539947 0.061250832 0.045692287 -0.07180513 0.028045857 0.06828363 -0.10581709 0.13767143 0.060474265 0.18844092 -0.19351152 -0.089013204 -0.12239 0.04012256 -0.006805998 -0.07874562 0.14529881 -0.16352707 -0.07698713 0.11299753 0.01920577 -0.09423139 -0.08190807 -0.008282953 0.016494129 -0.16866235 -0.12148203 0.065139055 -0.039508726 0.009896631 0.123668 0.055151783 0.030960046 0.08565229 -0.018344019 -0.013189445 -0.10073921 -0.17925182 0.037051585 -0.06488951 -0.12345075 0.1522906 0.07931923 -0.040294606 0.016897345 0.032662377 0.15023567 -0.016816085 0.0467227 -0.072625205 -0.09054827 0.15542622 -0.101282775 -0.11903535 0.045658346 -0.07589361 -0.17131598 0.02948929 -0.14132376 -0.016947277 -0.059558216 0.062122278 0.19088812 0.065872125 -0.14753187 -0.07254998 0.087489694 -0.013484522 0.018574381 0.07999515 -0.08848198 -0.035594985 -0.12776737 0.11599498 -0.11718187 0.009533018 -0.044205002 -0.096576 0.09814991 -0.17322151 -0.063578375 -0.0020177448 0.10727442 0.11495048
16 -0.071909055 -0.20008531 0.043915156 0.052170917 0.067606926 -0.091611415 0.11621159 0.09365289 0.014684831 0.08666962 -0.14154142 0.11712908 0.055344217 -0.2251153 -0.02824272 -0.1297893 0.05592178 -0.08392484 0.04486694 0.076640375 0.17250036 0.021693043 0.12864858 -0.06639815 -0.035181947 -0.020798117 -0.030906158 0.034898706 -0.008856767 0.19525774 0.011563668 0.091333106 -0.077791125 0.081345245 -0.14587134 -0.16973665 0.25712317 0.09344663 -0.05191198 -0.068341285 -0.2627476 0.08302648 0.14534543 0.20832509 -0.11724198 0.0665306 0.02261001 -0.078102365 -0.017380577 0.07332289 -0.07103279 0.15534659 0.07116359 0.1725688 -0.20937379 -0.08833548 -0.13823636 0.030678151 -0.034881253 -0.05889196 0.1257746 -0.17084457 -0.103308186 0.11533249 0.062471803 -0.14229013 -0.069993585 -0.025709184 0.009444112 -0.14402346 -0.081231244 0.046295643 -0.014944809 0.020958452 0.08023244 0.017508961 0.020657647 0.09137341 -0.0127438195 0.044195388 -0.06888397 -0.21401055 0.026907949 -0.107906535 -0.10615528 0.20549726 0.024429493 -0.034649108 -0.013130794 0.010147279 0.115436785 0.0033926843 0.020023307 -0.05929587 -0.05921655 0.1446821 -0.11877916 -0.06644862 0.03646184 -0.11449023 -0.17886919 0.030985089 -0.11485886 -0.017933702 -0.01941184 0.05974222 0.18925305 0.053503398 -0.12612154 -0.058948185 0.07679855 -0.041964617 0.0065170964 0.07122767 -0.064283215 -0.0374452 -0.14319108 0.12003487 -0.11334738 0.026946116 -0.05293016 -0.10837162 0.04796696 -0.15841913 -0.010156552 0.038085252 0.084161855 0.076793894
17 -0.043015245 -0.24662617 -0.0033322019 0.08056449 0.04300563 -0.10409302 0.13330488 0.16759667 0.10778754 0.08407089 -0.11441285 0.1889882 0.05392611 -0.23860155 0.040798727 -0.14716263 0.033179443 -0.15851218 0.0092305625 0.029897178 0.18018577 -0.01146794 0.116121426 -0.08166607 0.048203442 -0.04125709 -0.04144693 0.0074273557 0.029757712 0.20194069 0.033247814 0.06309347 -0.074271165 0.07694777 -0.11359699 -0.18565351 0.26633126 0.11749842 -0.09274289 -0.08900229 -0.2516205 0.06381033 0.18905148 0.24532714 -0.21361217 0.05327409 0.08915299 -0.07343659 0.06699158 0.083555 -0.14561972 0.1517662 0.05122611 0.20638736 -0.19303642 -0.11387792 -0.13108633 0.06555567 0.030340897 -0.109936856 0.1793457 -0.17435485 -0.055961713 0.12878679 -0.021653224 -0.06382358 -0.105287164 0.013132831 0.01820807 -0.21967566 -0.16279751 0.086966686 -0.07404116 0.006094845 0.17512412 0.09420869 0.03419551 0.0835035 -0.031592812 -0.066513225 -0.12886526 -0.15942435 0.054635458 -0.022067266 -0.14813 0.11239291 0.13458346 -0.04568098 0.05712123 0.046863772 0.18433699 -0.02647299 0.07046409 -0.06364338 -0.1178478 0.17767806 -0.07116325 -0.17314395 0.05816698 -0.037974324 -0.16219243 0.028009236 -0.17627686 -0.022319335 -0.1028392 0.06341298 0.20254003 0.079665676 -0.17037378 -0.07291908 0.10656897 0.026378984 0.03566732 0.09457815 -0.11082458 -0.024571663 -0.12080542 0.13374567 -0.1336662 -0.004567476 -0.032135084 -0.07713184 0.1534338 -0.19255427 -0.13123268 -0.03413024 0.13886444 0.1645185
10 -0.07040174 -0.19528933 0.04177911 0.049682587 0.072238855 -0.08655617 0.11222848 0.0910909 0.012309634 0.08255745 -0.13809186 0.11142972 0.056360796 -0.2255882 -0.036279764 -0.12347097 0.06316576 -0.071623504 0.049073152 0.08485044 0.17617176 0.023248184 0.12742442 -0.060838338 -0.04425758 -0.019949442 -0.03055516 0.034809288 -0.008520692 0.2010232 0.009329162 0.08845155 -0.07697773 0.091265984 -0.15488847 -0.17451783 0.25758362 0.09042768 -0.05138155 -0.06702375 -0.26181284 0.07824692 0.1428341 0.21001053 -0.10985956 0.072379366 0.017746532 -0.081324294 -0.014053973 0.06315096 -0.06964912 0.15345493 0.076460965 0.17040709 -0.21598594 -0.082502104 -0.13591933 0.024572203 -0.043132175 -0.050841894 0.123619296 -0.16877085 -0.109479904 0.11996941 0.06667733 -0.14308424 -0.06915614 -0.033120517 0.006827105 -0.13834421 -0.078437805 0.045329522 -0.0077620028 0.023393644 0.07549173 0.017570695 0.015906401 0.09350272 -0.012002773 0.048729625 -0.074552365 -0.22341496 0.02518054 -0.10967554 -0.108519085 0.21107543 0.016170535 -0.04097991 -0.017950753 0.0068969456 0.12333978 0.0033592836 0.023191283 -0.06308312 -0.05772285 0.14603207 -0.12867866 -0.06539991 0.037988443 -0.11362318 -0.18830863 0.02691844 -0.11515557 -0.012141941 -0.014521136 0.061608557 0.19483458 0.058005262 -0.13113825 -0.058698833 0.08075537 -0.053891726 0.012532869 0.06876726 -0.065646395 -0.04193412 -0.14272462 0.11811978 -0.11414879 0.026799256 -0.053711947 -0.11507113 0.04494268 -0.15821293 -0.0011658729 0.038922623 0.08234648 0.07138729
27 -0.080698825 -0.21296147 0.053628474 0.047815565 0.08071587 -0.09465838 0.12305431 0.08748064 -0.0093651805 0.097743504 -0.16131443 0.10879302 0.06272915 -0.24476075 -0.053874772 -0.13674802 0.07338782 -0.070596054 0.06201237 0.0986247 0.19233395 0.03049891 0.14309484 -0.06499101 -0.06299986 -0.021696467 -0.037265055 0.046078566 -0.020397596 0.21806753 0.011619215 0.09997588 -0.084028244 0.08980638 -0.16925454 -0.1850062 0.27239907 0.09865757 -0.045500807 -0.06881007 -0.28649622 0.09182234 0.14049955 0.21615164 -0.10142002 0.082560696 0.0077488483 -0.08936435 -0.03737682 0.0736611 -0.059163995 0.17229892 0.08073479 0.1778194 -0.23466434 -0.091671646 -0.15428281 0.025284614 -0.0497487 -0.04646783 0.120636106 -0.17922826 -0.12615989 0.12778354 0.09057993 -0.17549834 -0.072798185 -0.040635683 0.010301661 -0.1337492 -0.0757105 0.048012055 -0.001463442 0.024583345 0.057251845 -0.0009383621 0.01579153 0.1029371 -0.0094995545 0.07800369 -0.06880511 -0.2480406 0.022251418 -0.13413583 -0.11183029 0.24660654 0.002070338 -0.04154492 -0.039041836 0.00066131435 0.11136848 0.0048115226 0.013930503 -0.063344866 -0.050298326 0.14745913 -0.14298047 -0.045190662 0.038814116 -0.14350842 -0.20493773 0.03200619 -0.10945778 -0.018910116 0.0058664326 0.06684403 0.20775038 0.04764506 -0.13277268 -0.057881106 0.08047342 -0.068861686 0.0031193546 0.065588415 -0.058286615 -0.049886223 -0.16147842 0.12360188 -0.121072106 0.0387646 -0.06382914 -0.12324751 0.029982973 -0.1628427 0.015866889 0.060627803 0.07852829 0.055696264
19 -0.07508478 -0.20116404 0.053567436 0.047627 0.07289383 -0.091219276 0.11398402 0.079017505 0.0013221115 0.08898931 -0.14875036 0.10925142 0.05863481 -0.23111787 -0.046527103 -0.1256092 0.06145198 -0.073428154 0.057675015 0.09702323 0.17965242 0.022573294 0.13351971 -0.062145833 -0.053437073 -0.017291972 -0.035361856 0.03874369 -0.015690152 0.20516376 0.012653853 0.09944326 -0.07635576 0.08380723 -0.16210353 -0.17562114 0.25813743 0.100520276 -0.042637847 -0.06217022 -0.27251926 0.08573353 0.13783889 0.20635357 -0.1060788 0.07764354 0.011484495 -0.087301016 -0.031130534 0.06851458 -0.06491871 0.16067077 0.07226492 0.16303213 -0.21539608 -0.08450741 -0.14491546 0.024658196 -0.04385993 -0.04777353 0.11758776 -0.17253187 -0.109195314 0.1263688 0.075379744 -0.16411607 -0.063307405 -0.038200706 0.009330199 -0.1321909 -0.071887456 0.04604878 -0.0073589794 0.026984226 0.06005105 0.0029125884 0.01495397 0.10189355 -0.010978724 0.060961284 -0.067223676 -0.22671363 0.023969335 -0.12899324 -0.106445335 0.22555703 0.0077320663 -0.03559595 -0.032251246 0.0005488135 0.11266723 0.010621411 0.023190333 -0.05926549 -0.051141836 0.14497027 -0.13536797 -0.047186047 0.037848882 -0.13208199 -0.19232818 0.033240847 -0.12027168 -0.01701803 -0.0024611033 0.06604022 0.19954614 0.051518083 -0.12679018 -0.06163022 0.07505851 -0.060633525 0.007661125 0.06454209 -0.05843389 -0.041259978 -0.14762577 0.122143835 -0.11593171 0.037834477 -0.059270445 -0.12386851 0.033762228 -0.16062395 0.0027759569 0.05127826 0.07224352 0.05853697
22 -0.03989682 -0.21265969 0.008349968 0.06181156 0.04892417 -0.09419223 0.10916496 0.13400419 0.06552767 0.07552317 -0.115126535 0.15302505 0.053689186 -0.22184053 0.026053118 -0.13842258 0.034107085 -0.121060915 0.025765775 0.038478307 0.16799912 0.0034084546 0.10968725 -0.06938501 0.01639809 -0.025711294 -0.029779138 0.01733999 0.023583725 0.18550004 0.021055445 0.060255628 -0.08136821 0.08244016 -0.11100916 -0.16999322 0.24193953 0.09764806 -0.07504506 -0.08251522 -0.22819884 0.06080871 0.16408959 0.22343628 -0.16922797 0.05692261 0.057778545 -0.07048109 0.046129424 0.07115936 -0.120952554 0.1359302 0.050749253 0.19373368 -0.1874518 -0.09731979 -0.11756365 0.05529601 0.009249764 -0.09222111 0.15556291 -0.15874699 -0.06887899 0.116364695 -0.00026957731 -0.07753307 -0.095288716 0.0030309064 0.018234069 -0.18400614 -0.13644843 0.07407842 -0.05138012 0.008306764 0.1431196 0.069780506 0.031860124 0.083408885 -0.018998383 -0.032868132 -0.1130399 -0.17645825 0.042084742 -0.051025268 -0.12726201 0.13321033 0.10225654 -0.046437267 0.037038233 0.036983658 0.16340667 -0.020666687 0.05171114 -0.07705333 -0.10272668 0.16360843 -0.09385755 -0.14356743 0.051115632 -0.0629346 -0.16932738 0.027137829 -0.14687058 -0.018664164 -0.07727454 0.065683536 0.19664839 0.07809457 -0.15767485 -0.07198813 0.09758436 0.0017549226 0.0283862 0.090602025 -0.09816198 -0.029679546 -0.12654217 0.123934016 -0.12958387 0.003918919 -0.039074395 -0.09012679 0.11907547 -0.18290552 -0.08665445 -0.011129301 0.12450085 0.13472533
23 -0.07417177 -0.2084538 0.04019535 0.055374913 0.07137738 -0.09299127 0.11836843 0.10093714 0.016702162 0.089565784 -0.14821814 0.12135754 0.060732923 -0.24315512 -0.036255997 -0.13253559 0.06198689 -0.08155731 0.052900594 0.08899258 0.18194304 0.020771358 0.12987767 -0.06584068 -0.039264716 -0.023112696 -0.0381192 0.033354733 -0.012008525 0.21159059 0.013911511 0.09547065 -0.079759344 0.08758172 -0.15942496 -0.18150218 0.26666164 0.097585954 -0.05491048 -0.06870477 -0.2724698 0.08467709 0.14817148 0.2166438 -0.11991823 0.07125045 0.017737152 -0.08029714 -0.019062012 0.07004055 -0.0749051 0.16091906 0.07611741 0.17407992 -0.22054729 -0.09323255 -0.14522037 0.029847346 -0.03781362 -0.059753492 0.1294813 -0.17756608 -0.10442944 0.12631823 0.066160776 -0.14972162 -0.07000409 -0.026105631 0.0117913 -0.14100444 -0.0861482 0.052911654 -0.01260582 0.024854505 0.073994815 0.019057881 0.019329311 0.098766655 -0.0076991846 0.048747446 -0.07133235 -0.2247532 0.030553369 -0.11272654 -0.11263192 0.21588957 0.021101708 -0.037492 -0.019792674 0.0069390093 0.12548737 0.0030992792 0.021530585 -0.064277686 -0.06284564 0.1472392 -0.12646133 -0.06759381 0.037884034 -0.11536902 -0.19262625 0.029680412 -0.11994527 -0.019046307 -0.016093165 0.062326796 0.19628811 0.054010775 -0.13117789 -0.060941648 0.07750508 -0.051437296 0.00850146 0.0680597 -0.070506655 -0.043602735 -0.15085585 0.12123771 -0.11663726 0.030654995 -0.054063737 -0.1130946 0.04760849 -0.16618642 -0.007858751 0.036375947 0.08561168 0.0746984
15 -0.08110675 -0.18794873 0.055136442 0.04112549 0.07480945 -0.0841989 0.10917524 0.070844375 -0.00940159 0.084273465 -0.142265 0.095188595 0.059138454 -0.22129098 -0.049274977 -0.12198138 0.06273092 -0.060802385 0.05422397 0.09217234 0.17382151 0.030173477 0.12918474 -0.06059153 -0.062813565 -0.015012265 -0.03379468 0.042100992 -0.015190643 0.19606188 0.006648055 0.09862395 -0.07325189 0.086754575 -0.15845408 -0.16991174 0.25131133 0.0916201 -0.035149835 -0.05626464 -0.26505673 0.08256195 0.12834148 0.19951075 -0.09187034 0.07468156 -0.0026427116 -0.08287824 -0.037793312 0.061728995 -0.055580895 0.15424104 0.07649266 0.16197705 -0.21863613 -0.08499903 -0.14354791 0.017056134 -0.05102597 -0.038926657 0.112925865 -0.16262957 -0.113448635 0.11412827 0.08511572 -0.15653197 -0.060026955 -0.0404779 0.013353116 -0.11498928 -0.061859846 0.038219027 0.0030835392 0.021268344 0.04844999 -0.0010070915 0.013156568 0.09656195 -0.009072419 0.06888166 -0.057693925 -0.22631168 0.019758575 -0.13272922 -0.10004553 0.22448958 -0.0048991214 -0.039804645 -0.03297696 0.0023286163 0.10452418 0.010935216 0.014103792 -0.06312797 -0.047433116 0.13498713 -0.13424268 -0.032692887 0.03418241 -0.12719813 -0.184927 0.028691264 -0.10708133 -0.011982652 0.009095938 0.058676798 0.18973988 0.047072202 -0.11916407 -0.059940785 0.07136848 -0.065680526 0.0036382815 0.059554156 -0.056971654 -0.041095845 -0.14552477 0.11712393 -0.11040843 0.039354708 -0.054173578 -0.12168833 0.02613463 -0.14407377 0.014300159 0.05445614 0.07163574 0.05292413
12 -0.055035785 -0.21963166 0.018456224 0.05829212 0.053028345 -0.09542398 0.11318863 0.12512667 0.055343464 0.08438123 -0.11902168 0.15159576 0.052508567 -0.22652315 0.0109590795 -0.13533969 0.03827561 -0.113428816 0.031184783 0.04318848 0.1745997 0.010909971 0.1163158 -0.071282044 0.0022540612 -0.029458359 -0.028957453 0.02487504 0.014141929 0.1912013 0.021333918 0.07326922 -0.08257798 0.08365732 -0.1198604 -0.16915153 0.24841829 0.10253027 -0.06896485 -0.07629796 -0.24437211 0.07007102 0.1661139 0.22043625 -0.16324155 0.063832805 0.054591343 -0.07633247 0.025969768 0.07207641 -0.1110441 0.14812693 0.057374824 0.1865511 -0.2003771 -0.099856295 -0.12755695 0.047696248 -0.0034947926 -0.08081694 0.15286021 -0.16533561 -0.08138218 0.12055844 0.012390519 -0.09717992 -0.08504058 -0.0062242267 0.01659148 -0.17680794 -0.119751714 0.07042989 -0.042827744 0.014737524 0.12852857 0.05643079 0.034948155 0.08872602 -0.020066932 -0.01022869 -0.103648454 -0.1852655 0.033891354 -0.06550906 -0.12976082 0.15781444 0.080948666 -0.042654056 0.020035619 0.027440371 0.15563135 -0.011091093 0.045269962 -0.07092325 -0.09078849 0.15934667 -0.09704303 -0.13012232 0.04867607 -0.07363868 -0.17811888 0.024241764 -0.14390333 -0.019277805 -0.06394914 0.060314946 0.19994241 0.07124015 -0.14914599 -0.07476987 0.08966771 -0.01001388 0.02106829 0.085464686 -0.08942618 -0.029167006 -0.13267542 0.1269189 -0.12895699 0.008080173 -0.04642591 -0.097446404 0.10526825 -0.17657518 -0.0717128 0.00055225525 0.110402465 0.12135092
