34 128
34 -0.09621135 -0.24923298 0.07840116 0.03696208 0.056414984 -0.13471839 0.14517546 0.05832508 0.024240242 0.037527896 -0.020935835 0.15331475 0.09757385 -0.21818303 -0.025720358 -0.24004881 -0.048999276 -0.16887458 0.004721594 0.0030350666 0.26991028 0.015324184 0.18734065 0.083557956 0.0010733453 -0.062377915 -0.111931816 0.002149384 0.03749442 0.17408189 -0.04154684 0.09873111 -0.1117349 0.061123323 -0.15084626 -0.18738107 0.19525677 0.080120265 -0.005195502 -0.11810777 -0.25052002 0.09138027 0.11061923 0.15098336 -0.1546501 0.1504594 -0.025178159 -0.092725165 -0.022965781 0.037434522 -0.060892973 0.22399142 0.034031663 0.1057365 -0.19805895 -0.11942376 -0.08537518 0.0066692634 -0.056939818 0.04902988 0.16153653 -0.14160524 -0.050314497 0.13100809 -0.015166329 -0.09693568 -0.060124412 0.017292475 -0.024837043 -0.089361325 -0.015583454 0.021252053 -0.011109828 -0.055988923 0.071190394 -0.021590268 0.09282647 0.0030276712 -0.014547572 0.011316496 -0.092622824 -0.1269278 -0.01584358 -0.17361757 -0.15175541 0.12335858 -0.016416332 -0.046368275 0.0070961807 0.0013592656 0.10688519 0.0742764 0.1281836 -0.059811965 -0.13670681 0.22179578 -0.10112886 -0.043176617 0.1527307 -0.0013032279 -0.26535267 0.082560614 -0.14741991 -0.036358092 0.013345943 0.070058234 0.24664918 0.10146864 -0.053729344 -0.07165677 0.04282129 -0.032793257 -0.022817325 -0.043201216 -0.12311315 0.011463296 -0.07732492 0.1754668 -0.15597926 0.02603851 -0.043408286 -0.12867682 0.079372436 -0.26131144 -0.1147542 0.104584105 0.035217658 0.12740882
1 -0.09302808 -0.24951361 0.075727694 0.026308957 0.05125305 -0.13925594 0.13342953 0.06885134 0.043827146 0.0357737 -0.015490796 0.1578239 0.094221935 -0.21118547 -0.012431685 -0.23484017 -0.053623877 -0.17585792 0.011158725 -0.01111441 0.26480135 0.009787572 0.16993695 0.08391813 0.011363812 -0.05381346 -0.10022246 0.007626067 0.04415928 0.15665089 -0.04728452 0.09017629 -0.104987845 0.05694276 -0.14062224 -0.18968405 0.1814124 0.07667199 -0.00045474136 -0.121711545 -0.23303463 0.070445344 0.11204673 0.15421754 -0.15881538 0.14606713 -0.02163863 -0.08472481 -0.007993807 0.044539787 -0.077286586 0.21535945 0.02776154 0.10632243 -0.19066907 -0.113613755 -0.077410415 0.016697384 -0.055926885 0.037419662 0.16802703 -0.14785412 -0.04238886 0.12595479 -0.031064518 -0.074352354 -0.062006406 0.021482304 -0.028572878 -0.10005132 -0.025120415 0.014669935 -0.009453383 -0.061551284 0.087784395 -0.015716922 0.10025161 -0.009431759 -0.016987737 -0.015052031 -0.09909141 -0.11503574 -0.015332563 -0.15747328 -0.15984137 0.09227155 0.0032266174 -0.052218758 0.02693882 0.0032131167 0.11440084 0.061077066 0.1272546 -0.050838526 -0.13847344 0.2010867 -0.090783864 -0.06800661 0.15576889 0.01633029 -0.24919504 0.078160904 -0.1403781 -0.030776372 0.006482667 0.069704086 0.23481807 0.10049629 -0.056451343 -0.07339617 0.037995227 -0.02442594 -0.018428825 -0.03079253 -0.1276722 0.013900746 -0.070125915 0.17225172 -0.15498707 0.008417612 -0.03967157 -0.11524995 0.081378676 -0.25793636 -0.12567468 0.084965505 0.036145158 0.13020712
33 -0.09285131 -0.24505349 0.07637802 0.037421357 0.055209108 -0.13390331 0.13867708 0.061660975 0.027640546 0.036657784 -0.014227515 0.1498053 0.09594093 -0.21777199 -0.020826671 -0.23298137 -0.0524823 -0.16419189 -0.0016137261 0.00020370093 0.26822373 0.016251132 0.18464155 0.08307465 -0.0022419333 -0.05753886 -0.11645046 0.0030901735 0.039948907 0.17240766 -0.045713034 0.10056747 -0.108610936 0.06244379 -0.15429756 -0.1912731 0.18839946 0.07574926 -0.010031809 -0.11529562 -0.24670422 0.08839976 0.10711216 0.14488254 -0.15221651 0.15356523 -0.030082125 -0.09049464 -0.029052537 0.03301802 -0.06171104 0.22354153 0.03299124 0.099325486 -0.19583441 -0.11172948 -0.08615672 0.007110139 -0.05386186 0.053032946 0.16369139 -0.1455548 -0.048210513 0.13009615 -0.011874538 -0.09762469 -0.052788425 0.019679567 -0.02710135 -0.08395891 -0.009419076 0.02147395 -0.0067969155 -0.055655554 0.066676095 -0.018594887 0.09436348 -0.0014906785 -0.013414943 0.01028449 -0.082594626 -0.12513067 -0.018087039 -0.17123728 -0.15095991 0.12231507 -0.01933535 -0.046276435 0.009055264 0.0006325264 0.11073979 0.07598502 0.12643813 -0.060831863 -0.12903944 0.22069046 -0.100395724 -0.046436615 0.155741 -0.0026943672 -0.2645868 0.07618075 -0.14593776 -0.028447246 0.019717585 0.06649627 0.24187376 0.102513365 -0.048279844 -0.0731126 0.039873194 -0.032918923 -0.021904754 -0.049683366 -0.11911215 0.011947463 -0.07840052 0.16464551 -0.15495469 0.018977493 -0.040272105 -0.1264078 0.07814302 -0.25617096 -0.10699984 0.09997567 0.029642604 0.12223842
3 -0.09117735 -0.23346294 0.07578109 0.031102538 0.049913105 -0.12859422 0.13436545 0.05808279 0.025238074 0.033249725 -0.012359181 0.14534253 0.088054165 -0.2106652 -0.020190911 -0.22897406 -0.048534986 -0.16627789 0.003401378 -0.0049936622 0.25159913 0.015110426 0.16973424 0.08570996 0.0076811574 -0.054564722 -0.10521773 0.0060660206 0.04366436 0.1638379 -0.04534835 0.087901376 -0.10739621 0.06001039 -0.14190699 -0.1841928 0.18251786 0.07614937 -0.0034110183 -0.112356156 -0.22967294 0.07294062 0.103635155 0.14803365 -0.14981191 0.14465362 -0.022651492 -0.08699035 -0.023886612 0.0372176 -0.06113605 0.20662789 0.024821447 0.099014424 -0.18589017 -0.111625284 -0.07965211 0.009021894 -0.05701244 0.046946395 0.15367436 -0.13543868 -0.043002322 0.12668018 -0.019462312 -0.0862185 -0.05358907 0.022714688 -0.025742734 -0.09170012 -0.014574307 0.021078385 -0.011928402 -0.054456446 0.077868715 -0.018787052 0.09547478 -0.0033667255 -0.011699588 0.0013283648 -0.08835474 -0.11224068 -0.017594581 -0.16048405 -0.14617449 0.10839097 -0.009773105 -0.045877866 0.011997391 -0.00068818947 0.1049458 0.06820818 0.12164929 -0.054021902 -0.13354945 0.2062115 -0.09589591 -0.04632441 0.1500794 0.0056717726 -0.25085542 0.07523634 -0.14277732 -0.030507127 0.014044376 0.07062796 0.22806944 0.097920746 -0.04694931 -0.07249213 0.041513633 -0.028535496 -0.019439938 -0.039025817 -0.118144944 0.01458231 -0.07501746 0.16587473 -0.14331226 0.017536463 -0.041925877 -0.12318087 0.07377638 -0.25003773 -0.11325232 0.09341703 0.034330033 0.12397935
2 -0.0850541 -0.2374916 0.072482415 0.027996896 0.049103998 -0.12941805 0.13393646 0.06166183 0.026262172 0.03501975 -0.01628774 0.15232182 0.09394101 -0.21039434 -0.0183332 -0.23055187 -0.054332633 -0.16233306 0.0054336516 -0.00416151 0.25826198 0.0147746485 0.17281188 0.08171955 0.00036335044 -0.053297397 -0.10471944 0.005625597 0.04336402 0.16178353 -0.041086107 0.08746501 -0.10792002 0.061785433 -0.14429058 -0.1800263 0.18318014 0.071766205 -0.0017216965 -0.11619442 -0.22833344 0.078817494 0.10636658 0.14651579 -0.15135045 0.14570576 -0.026534915 -0.08621259 -0.01655065 0.033820167 -0.06523065 0.20453854 0.031040734 0.1042296 -0.19000226 -0.1102703 -0.075522795 0.013076169 -0.058248233 0.04523251 0.15644115 -0.13674124 -0.043608148 0.12015634 -0.022031242 -0.07879581 -0.059617747 0.016661763 -0.029739907 -0.0929178 -0.020138491 0.018391814 -0.0057507753 -0.058230095 0.07745181 -0.013801413 0.09528973 -0.0051555084 -0.015099875 -0.0016226479 -0.093478106 -0.11836033 -0.019655325 -0.15785058 -0.14772159 0.10937053 -0.007308625 -0.04933454 0.019903047 -0.0023769639 0.11043707 0.06814887 0.12277307 -0.05892383 -0.13622938 0.20453061 -0.095580086 -0.05464171 0.1452568 0.009647319 -0.24458642 0.07182373 -0.13723268 -0.03340933 0.0101017505 0.06353774 0.2348928 0.102217175 -0.055824082 -0.07103631 0.03638796 -0.027466314 -0.017986046 -0.038819484 -0.123070836 0.012228532 -0.073027715 0.16768955 -0.15081772 0.014255592 -0.041497603 -0.122680955 0.07783788 -0.25479457 -0.109992936 0.09314977 0.0379378 0.1233434
32 -0.09074355 -0.23621672 0.06751409 0.031703018 0.0496828 -0.12631105 0.13414271 0.055647988 0.026306909 0.03581409 -0.015096659 0.1476552 0.08940157 -0.20322907 -0.01996743 -0.22235669 -0.048518922 -0.1633689 -0.0006693943 -0.0007478324 0.25355855 0.017367199 0.16802587 0.07979525 -0.0010559827 -0.056445695 -0.10912465 0.007164937 0.038936265 0.15887292 -0.04330213 0.091147125 -0.098806106 0.057778873 -0.14474541 -0.17954239 0.18296789 0.078212224 -0.0062505896 -0.11603664 -0.23428027 0.08169439 0.1009336 0.14071397 -0.14996223 0.14351362 -0.022841148 -0.081326425 -0.022606067 0.029958442 -0.06193315 0.21134563 0.027233928 0.099257335 -0.18640633 -0.11139981 -0.079544075 0.006910112 -0.054153215 0.045009255 0.1552461 -0.13570035 -0.04562232 0.1264413 -0.022237502 -0.08768018 -0.05895418 0.023494055 -0.026228799 -0.089741886 -0.018591445 0.023907073 -0.008199851 -0.05723267 0.06840224 -0.01627332 0.09014967 -0.0011476754 -0.015264205 0.0052233217 -0.08623008 -0.116782 -0.012539696 -0.15809596 -0.14651328 0.112346254 -0.010590027 -0.044724356 0.013156663 -0.0032111437 0.10471543 0.0698005 0.12422157 -0.057755552 -0.12517795 0.2044678 -0.09173593 -0.04684195 0.14227568 -0.0017433324 -0.24662238 0.07298628 -0.14200823 -0.032354936 0.0174929 0.07061223 0.23230252 0.094299994 -0.052444488 -0.06736031 0.039920036 -0.032274112 -0.018675521 -0.039059516 -0.1142428 0.013536633 -0.0746482 0.16422862 -0.14156356 0.016733076 -0.04105986 -0.12285732 0.073673 -0.24439275 -0.10492825 0.09036444 0.02709576 0.123698965
4 -0.08801947 -0.23352042 0.07255988 0.030828243 0.052170824 -0.13296574 0.12882142 0.06450082 0.031929832 0.032707702 -0.011012529 0.15168731 0.0943891 -0.2085256 -0.017276026 -0.2289533 -0.05184071 -0.16812937 0.006899721 -0.002866985 0.25899103 0.012377997 0.16739476 0.080858134 0.0072860215 -0.05270783 -0.105691545 0.006652116 0.044039167 0.15768157 -0.04531267 0.08590045 -0.10555493 0.05684295 -0.14168425 -0.18309811 0.18433724 0.076903425 -0.002309212 -0.11328527 -0.22839622 0.07273015 0.108489916 0.15044327 -0.14814599 0.14284945 -0.024031427 -0.088148065 -0.019591488 0.03429612 -0.06349842 0.20505868 0.02992388 0.10186204 -0.18775909 -0.10902279 -0.075054385 0.010744254 -0.053116206 0.039803833 0.16304624 -0.14085841 -0.040410858 0.12346509 -0.019521024 -0.07678535 -0.06260379 0.0209068 -0.026251106 -0.09364096 -0.018946042 0.020438896 -0.0072727134 -0.0614683 0.08230022 -0.017360354 0.09806321 -0.0019988173 -0.0178577 0.001227875 -0.09039046 -0.11842153 -0.017399043 -0.15599164 -0.14822745 0.10309297 -0.0013881801 -0.050879404 0.02029328 0.0020892096 0.105527446 0.06376488 0.119310446 -0.05541256 -0.13432434 0.20478684 -0.09608183 -0.056594513 0.1485689 0.008034539 -0.24959144 0.07536613 -0.13490163 -0.026419234 0.0059626424 0.06816831 0.22719042 0.09975015 -0.05374906 -0.07261781 0.042099074 -0.028206998 -0.019677678 -0.036172472 -0.12082115 0.016433489 -0.07335778 0.16723835 -0.14892358 0.015105289 -0.038089808 -0.11803687 0.07394643 -0.2561306 -0.1175213 0.09186127 0.038321886 0.12635954
24 -0.08709435 -0.23455572 0.07535512 0.036511146 0.050813764 -0.12949371 0.13433555 0.05775772 0.029483424 0.036758363 -0.011226136 0.14747503 0.09590788 -0.21228202 -0.021901125 -0.2306204 -0.052053712 -0.16525862 0.0037172828 -0.000745547 0.25855955 0.01562152 0.17514826 0.08714877 0.004267997 -0.052753408 -0.11025786 -0.0005201728 0.03690159 0.16722333 -0.0464931 0.09345074 -0.10889158 0.054554608 -0.14399295 -0.18398441 0.18774605 0.07294619 -0.0061042327 -0.11805578 -0.23421496 0.08497731 0.10244119 0.14651951 -0.14921758 0.148795 -0.02951626 -0.08121811 -0.021402081 0.031083133 -0.05798333 0.21401742 0.025840111 0.10180701 -0.18228509 -0.10691695 -0.07620654 0.0076157106 -0.056147102 0.044902306 0.15636107 -0.13897263 -0.04094434 0.1257218 -0.021400455 -0.09061493 -0.057738177 0.0231176 -0.028424596 -0.084451154 -0.0138031505 0.023777867 -0.01305286 -0.055927474 0.07245239 -0.019875994 0.08664453 -0.0041471547 -0.015203135 0.009798849 -0.08315569 -0.1143612 -0.015297082 -0.1588414 -0.14983827 0.10820119 -0.016433872 -0.041575003 0.013708071 0.0010692271 0.10410873 0.06952522 0.12560807 -0.05740448 -0.12747125 0.21251039 -0.091291405 -0.04400255 0.14719409 0.001050695 -0.25518996 0.08076392 -0.13820416 -0.028460534 0.012636831 0.07052932 0.23293239 0.0997185 -0.049084138 -0.06762358 0.04315993 -0.0331915 -0.020902388 -0.042527635 -0.12327607 0.0102014085 -0.07648235 0.16215889 -0.14429143 0.022973213 -0.03943106 -0.124490835 0.07521579 -0.25312606 -0.10570908 0.098342896 0.032403383 0.12597731
14 -0.08985263 -0.24075858 0.07566643 0.027061062 0.051727206 -0.12906021 0.13050339 0.059767928 0.030928748 0.03727782 -0.017542271 0.15353568 0.08921928 -0.20730583 -0.015210435 -0.2259765 -0.050877612 -0.16643853 0.0060458556 -0.0075450293 0.25977358 0.016282637 0.16920024 0.08365156 0.004166251 -0.05172639 -0.10070396 0.0079599125 0.037431 0.162723 -0.041510183 0.090069495 -0.104793034 0.060448486 -0.1379891 -0.18425314 0.1811421 0.07522652 -0.0060530626 -0.11566347 -0.23298822 0.07596846 0.10698803 0.14906986 -0.15123367 0.14768867 -0.021644937 -0.082232185 -0.017138626 0.040918518 -0.06933549 0.2089126 0.027819717 0.10152368 -0.18500857 -0.11208119 -0.08084447 0.014110675 -0.05697282 0.038408816 0.15972361 -0.14301668 -0.039709814 0.12050895 -0.025472298 -0.07871991 -0.0567821 0.016714768 -0.026430547 -0.094712436 -0.022681728 0.02168866 -0.013446819 -0.054142553 0.08399376 -0.013068177 0.09561678 -0.005087611 -0.016944878 -0.006349114 -0.09345185 -0.11339408 -0.013123629 -0.15280508 -0.15418692 0.1067416 -0.0055848733 -0.050312918 0.020143038 -0.00052105705 0.108398356 0.06316239 0.1236495 -0.053981148 -0.13397397 0.20661364 -0.09466727 -0.05226386 0.15180944 0.008841397 -0.24944143 0.074173406 -0.14057845 -0.02749502 0.0064539397 0.068486474 0.23338377 0.101382606 -0.055574853 -0.072477445 0.035516795 -0.029708691 -0.022057364 -0.035971444 -0.11699655 0.012333973 -0.07646371 0.16437435 -0.14918888 0.014757611 -0.039686028 -0.12121502 0.077932395 -0.2543719 -0.11211736 0.0876805 0.03163452 0.12392512
7 -0.08601713 -0.24910302 0.06752782 0.03234011 0.046135683 -0.13371237 0.13756734 0.068822704 0.050346475 0.03352718 -0.014217328 0.16218807 0.09282177 -0.21419454 -0.005202938 -0.23406011 -0.05709931 -0.17894799 0.0034245083 -0.009714299 0.26566517 0.005333453 0.17192614 0.08620595 0.018199883 -0.061630677 -0.109886564 -0.0031562832 0.03702444 0.15774208 -0.0394839 0.093530275 -0.10659183 0.048170704 -0.1407458 -0.18753234 0.18393804 0.07723372 -0.008249189 -0.12150148 -0.23709007 0.078494504 0.11365903 0.15339796 -0.16216378 0.151053 -0.015372724 -0.08494886 -0.006205708 0.044267632 -0.07760287 0.22126168 0.02825908 0.10402524 -0.18621877 -0.115469016 -0.077303335 0.010032146 -0.04698742 0.037015267 0.16990878 -0.14537708 -0.035093255 0.131179 -0.031590775 -0.0755465 -0.06256937 0.025668954 -0.024320137 -0.10538848 -0.0257015 0.021340359 -0.019797714 -0.059961516 0.09287539 -0.013160343 0.09493464 -0.0047037182 -0.020624883 -0.015477043 -0.09653555 -0.104353495 -0.014969027 -0.15097395 -0.16142336 0.08750217 0.0027199956 -0.04845 0.022366296 0.0066392454 0.11820602 0.06128428 0.13415702 -0.04766556 -0.13944523 0.20676833 -0.08353092 -0.07061525 0.1518909 0.017586745 -0.24865603 0.080060385 -0.14941518 -0.03321575 0.00053568545 0.06274022 0.22884557 0.098846704 -0.049248874 -0.07370868 0.04151968 -0.015170155 -0.022893062 -0.04037026 -0.12931487 0.0168766 -0.0730672 0.16902691 -0.15684502 0.016409742 -0.039894182 -0.112946406 0.091940574 -0.26055238 -0.133178 0.08330272 0.04088708 0.13522607
6 -0.09213179 -0.25999194 0.07382189 0.039353326 0.050899103 -0.14066479 0.14475924 0.07342909 0.04925054 0.035962675 -0.01097206 0.16708268 0.094395556 -0.2206945 -0.0064518484 -0.24400994 -0.06126588 -0.18903586 0.0077406857 -0.011132226 0.27336177 0.0044573634 0.17778142 0.08314629 0.019771101 -0.06386498 -0.110307105 -0.0064674714 0.04075211 0.16992386 -0.042887174 0.0910517 -0.106009185 0.05160547 -0.1427582 -0.19511884 0.19556499 0.08769352 -0.011985597 -0.1274189 -0.2447121 0.082232535 0.11985521 0.15482 -0.17271996 0.1560867 -0.01471163 -0.091457464 -0.0067380946 0.048235737 -0.07815143 0.22968578 0.026206154 0.10347455 -0.18696277 -0.124608114 -0.08127064 0.010762403 -0.04863685 0.030898344 0.17891163 -0.1494656 -0.035967845 0.13540618 -0.03079387 -0.08397344 -0.068778396 0.02391333 -0.028069317 -0.1088156 -0.022910237 0.019401707 -0.0206132 -0.060347095 0.097896606 -0.015501822 0.10021905 -0.0030869916 -0.022517674 -0.011476041 -0.103219874 -0.10835308 -0.012367244 -0.15915596 -0.16288453 0.09008396 0.008873634 -0.051788364 0.023643652 0.0048424075 0.12161244 0.0647018 0.1381191 -0.045062836 -0.14359021 0.21301214 -0.08761852 -0.07329795 0.16369878 0.016111327 -0.25459668 0.08048122 -0.15224119 -0.032867987 -0.000799312 0.07095974 0.2394217 0.1054289 -0.051528826 -0.07827716 0.04446633 -0.017068015 -0.022707094 -0.03753041 -0.13180585 0.021276426 -0.07385134 0.17523293 -0.15855852 0.012721684 -0.038382087 -0.12180211 0.095220186 -0.27609956 -0.14005287 0.090306334 0.042952124 0.13388234
28 -0.09175797 -0.23691334 0.07533835 0.03237108 0.049764678 -0.12447332 0.13328798 0.05649561 0.025616467 0.034437086 -0.01232873 0.14931475 0.090909414 -0.20324825 -0.02240051 -0.22629881 -0.05082269 -0.16524355 0.005486452 0.00041837664 0.251095 0.014177648 0.1714104 0.08150214 0.0011085775 -0.052323215 -0.1109052 0.0038327589 0.041462813 0.1620094 -0.043359727 0.094104104 -0.101249 0.05913305 -0.14216734 -0.18461338 0.18443523 0.07570118 -0.004749886 -0.11386116 -0.23324808 0.07640719 0.104022354 0.14578149 -0.15102091 0.14333393 -0.029398665 -0.083975546 -0.024885459 0.031328026 -0.06586781 0.21071789 0.030363511 0.095175914 -0.18016057 -0.10948805 -0.08047885 0.0046306546 -0.058568507 0.04543157 0.15518674 -0.13915198 -0.039605815 0.12623039 -0.018663218 -0.087536804 -0.057880007 0.024470625 -0.030100347 -0.09067934 -0.017865302 0.024623206 -0.013492721 -0.059271347 0.07193818 -0.01687848 0.08892736 0.00089390436 -0.018461395 0.0076531866 -0.08642568 -0.118609086 -0.01332985 -0.15717787 -0.14759485 0.11255299 -0.010806425 -0.04274231 0.012833859 0.0009966743 0.10592344 0.066871926 0.12080477 -0.058079734 -0.12476407 0.2039249 -0.09249168 -0.04463894 0.14653441 -0.00024877078 -0.25186515 0.07935877 -0.14284639 -0.031352293 0.016191943 0.071194954 0.23321879 0.10106691 -0.04792942 -0.07230142 0.041050013 -0.028730629 -0.023283085 -0.04207659 -0.11718482 0.0086793825 -0.07710242 0.16035023 -0.1457739 0.015516815 -0.039477862 -0.121383645 0.07472726 -0.2457203 -0.111421965 0.0903429 0.032296818 0.12366883
9 -0.08907067 -0.23493248 0.06839406 0.030263266 0.049490325 -0.12772945 0.13210218 0.06018887 0.034359407 0.03448318 -0.01337719 0.15205029 0.091409035 -0.20939454 -0.019164287 -0.22651866 -0.053638496 -0.16120917 0.0019156061 -0.0011652614 0.251935 0.016487876 0.1740928 0.07814251 0.0022288277 -0.05136288 -0.107420154 -0.00062788883 0.03764347 0.1618045 -0.04222888 0.09402596 -0.1050365 0.053919148 -0.13797915 -0.1834958 0.18456945 0.07392818 -0.008424471 -0.11178813 -0.2343775 0.07477765 0.104622915 0.14769931 -0.15036494 0.14374404 -0.024677468 -0.086057454 -0.021714075 0.031123744 -0.06666339 0.21034448 0.026708666 0.09851583 -0.18022247 -0.110326424 -0.080129035 0.007991759 -0.054611973 0.04055743 0.15778755 -0.13886592 -0.04487552 0.12514035 -0.017493576 -0.08579879 -0.055545747 0.01997664 -0.02726263 -0.088499986 -0.015383879 0.022979453 -0.0062617874 -0.05860624 0.07836184 -0.018848332 0.08906186 0.00076700177 -0.018971536 0.004346517 -0.08507878 -0.115875155 -0.018839385 -0.16150858 -0.150565 0.106084816 -0.0089543285 -0.04651459 0.012508942 0.0017791956 0.10872562 0.06465059 0.12653768 -0.0502648 -0.1299553 0.2004969 -0.08982483 -0.049932003 0.14680424 0.0063044718 -0.2505374 0.071785934 -0.14213957 -0.029134268 0.012959574 0.06599355 0.22721738 0.100347705 -0.054379825 -0.072952695 0.04203229 -0.02850344 -0.017431786 -0.04188232 -0.11861681 0.0105782505 -0.07748572 0.16662912 -0.14846097 0.019966917 -0.041265365 -0.12127644 0.0744773 -0.24754313 -0.11234591 0.09477154 0.032874215 0.12398418
30 -0.08714636 -0.24329543 0.06998656 0.037987888 0.047057986 -0.128354 0.1405328 0.056068696 0.027297493 0.03779712 -0.019918816 0.1493245 0.092931464 -0.2136104 -0.024112502 -0.23468384 -0.05001794 -0.16623734 -0.001941909 0.004500774 0.26256847 0.012792793 0.18192588 0.08049945 0.0039149313 -0.059055682 -0.10817251 0.002083124 0.033944838 0.16870235 -0.044942677 0.091926776 -0.10556462 0.055280272 -0.14974867 -0.18189019 0.18693887 0.078797415 -0.0049227164 -0.12055733 -0.23989695 0.085862085 0.1056644 0.14979595 -0.1494728 0.149453 -0.026619112 -0.089616045 -0.02401988 0.03521769 -0.06174733 0.21904619 0.03262223 0.095765665 -0.18605214 -0.11099719 -0.085744046 0.0076458156 -0.05296552 0.047756955 0.15953252 -0.14321932 -0.040672723 0.1279785 -0.012700629 -0.0933932 -0.059349667 0.019736985 -0.025487857 -0.090366855 -0.012793092 0.021851046 -0.008676301 -0.05755373 0.07150674 -0.02251043 0.091955476 0.0022251063 -0.014895349 0.011398781 -0.09098787 -0.12231066 -0.020103356 -0.16590151 -0.14939538 0.1175909 -0.018080223 -0.04385695 0.008268387 0.0011336742 0.10981859 0.067108914 0.12638354 -0.05479413 -0.1280312 0.2139832 -0.09824086 -0.042086408 0.15047541 -0.0012369658 -0.25215688 0.07871763 -0.14473295 -0.03640806 0.013985924 0.06726508 0.23816969 0.10073463 -0.054859173 -0.071024194 0.037902903 -0.0360404 -0.02428827 -0.047212794 -0.11658341 0.01037234 -0.07959772 0.16599803 -0.15103422 0.025731418 -0.04447133 -0.12200198 0.076031014 -0.2524363 -0.10670926 0.10063949 0.0365319 0.12534462
5 -0.08835987 -0.24979047 0.065970555 0.033717033 0.051082365 -0.13605733 0.13977729 0.063239604 0.049097028 0.031258408 -0.00958037 0.16222303 0.088824116 -0.20840105 -0.007642963 -0.23651193 -0.059503336 -0.17977944 0.0040770513 -0.005115874 0.26459178 0.0101251025 0.16823432 0.08651767 0.015919339 -0.061412144 -0.10715561 -0.005762958 0.03748459 0.15872133 -0.043724097 0.08837926 -0.10541336 0.05194768 -0.1362949 -0.18862118 0.18664552 0.082037136 -0.008451958 -0.11764405 -0.22889075 0.07663236 0.10825239 0.14918728 -0.162388 0.14853658 -0.016641079 -0.085277416 -0.010936319 0.040198214 -0.073913746 0.2196487 0.031641018 0.0949205 -0.17962526 -0.11887787 -0.07555107 0.01031599 -0.04696418 0.03070966 0.16497938 -0.14645876 -0.032760143 0.13149479 -0.031172201 -0.07780947 -0.05961013 0.021067297 -0.023122165 -0.10282538 -0.02450006 0.019397205 -0.01847358 -0.0638633 0.09052316 -0.017895907 0.09201607 -0.008679381 -0.02319422 -0.01388261 -0.09793195 -0.107026644 -0.01564061 -0.15534939 -0.16019408 0.088172816 0.0062086647 -0.04487252 0.024080744 0.0038066849 0.11619386 0.06034441 0.13160667 -0.045151494 -0.13989359 0.20439802 -0.08930779 -0.06634973 0.15685697 0.019761473 -0.24957813 0.07828853 -0.1473152 -0.035563212 -0.00082141464 0.06402853 0.23118997 0.09757354 -0.05458873 -0.07473191 0.03734009 -0.019158458 -0.019837178 -0.04132584 -0.12825945 0.020030938 -0.06870602 0.17049043 -0.14826366 0.015333199 -0.038118318 -0.11402479 0.08793099 -0.263564 -0.13172352 0.088779144 0.03536492 0.13403445
8 -0.08612609 -0.23900421 0.07311522 0.030870786 0.046624616 -0.1274043 0.13337801 0.061142102 0.03269887 0.03781626 -0.015699744 0.15012899 0.0876404 -0.20471475 -0.012518701 -0.22726752 -0.050193887 -0.16429849 0.008776125 -0.0021499023 0.25337774 0.01205573 0.16696718 0.07714388 0.006926689 -0.049067747 -0.10268823 0.0064408584 0.038135268 0.16011874 -0.044069525 0.08846679 -0.10163886 0.05871268 -0.13986982 -0.18202563 0.18397872 0.073334545 -0.0012505251 -0.11044068 -0.22836344 0.07537829 0.10134278 0.14824441 -0.14793137 0.14738943 -0.025115598 -0.08420593 -0.018328639 0.038793538 -0.06857672 0.20448104 0.032919478 0.10048855 -0.18544324 -0.10917017 -0.08052709 0.008886405 -0.055267554 0.03716572 0.15592419 -0.14190473 -0.040332872 0.123610415 -0.019913116 -0.08289303 -0.055132605 0.01739072 -0.025730055 -0.09442988 -0.022475576 0.017307732 -0.01246994 -0.05763296 0.07906001 -0.01403905 0.09030559 -0.005157594 -0.017165067 -0.002859041 -0.08821086 -0.116213866 -0.017820412 -0.15274878 -0.15304743 0.10586921 -0.0016981469 -0.046922054 0.018780746 -0.0017644971 0.10980705 0.06086929 0.12144001 -0.05244871 -0.13192222 0.1979761 -0.092206426 -0.058143955 0.14442284 0.0048611267 -0.2406634 0.070325054 -0.14188471 -0.03089376 0.0119469045 0.062195208 0.22914849 0.09263793 -0.05359645 -0.07273338 0.034706745 -0.024907399 -0.01779464 -0.037594996 -0.12281433 0.0166264 -0.07443789 0.16250789 -0.14846367 0.014196684 -0.04131726 -0.120658554 0.08072242 -0.2479835 -0.11080163 0.084894225 0.03642757 0.12025184
11 -0.09273352 -0.25112402 0.07177018 0.03559184 0.050723534 -0.1373572 0.13465533 0.070737086 0.049878012 0.030641336 -0.013043586 0.1616022 0.08984037 -0.20800914 -0.0056527127 -0.23801485 -0.059644103 -0.17924199 0.0062312935 -0.010443316 0.26664156 0.0051336302 0.17479591 0.08371654 0.014411663 -0.061334625 -0.1090559 -0.0030155303 0.035887644 0.15733013 -0.03977069 0.08984558 -0.10084631 0.04638049 -0.13695642 -0.18364069 0.19053322 0.0834511 -0.007513631 -0.1152419 -0.23124295 0.080290556 0.114856586 0.15003242 -0.16257647 0.1513623 -0.01406373 -0.08233606 -0.011701911 0.04463909 -0.07278325 0.21933629 0.028611764 0.09852656 -0.18251422 -0.1199726 -0.07733642 0.0140496995 -0.053247318 0.035051007 0.16779993 -0.14798753 -0.031006796 0.13262378 -0.03195485 -0.07748804 -0.06692214 0.021308776 -0.022283696 -0.10434565 -0.022770673 0.018328523 -0.019744597 -0.06232239 0.09419344 -0.013777394 0.095830575 -0.0084620975 -0.023430122 -0.012622759 -0.09465606 -0.10378928 -0.01463165 -0.15695338 -0.16284736 0.09071629 0.008410516 -0.04818466 0.024355946 0.004942527 0.11305728 0.058537934 0.13267244 -0.042570155 -0.13614437 0.2020193 -0.084002815 -0.065641955 0.15355605 0.020098615 -0.24370322 0.08273467 -0.14807765 -0.03121074 0.00090295356 0.065090045 0.23283632 0.09516177 -0.04984967 -0.07643626 0.039619144 -0.015535293 -0.025353163 -0.041187096 -0.12761582 0.0149069475 -0.074704334 0.17258832 -0.15349911 0.011875053 -0.03660198 -0.11825944 0.09176722 -0.26538128 -0.1317371 0.08319119 0.034902148 0.13130899
31 -0.08510939 -0.23041005 0.07405078 0.03349814 0.047698297 -0.128501 0.13100646 0.053198107 0.024970863 0.035443615 -0.012049396 0.14982736 0.09381861 -0.20729747 -0.019315282 -0.22684902 -0.0544236 -0.15928692 0.0044269883 -0.0015258047 0.25283098 0.011890496 0.1670538 0.08423306 0.0050855596 -0.052822933 -0.10285748 0.006678089 0.037295662 0.15854274 -0.045147665 0.093895085 -0.1062687 0.058180626 -0.1379939 -0.17549983 0.17778817 0.072569 -0.0011746663 -0.11649335 -0.2293623 0.081410624 0.10233541 0.14043055 -0.14692822 0.14298147 -0.027197808 -0.08686536 -0.021524508 0.035956696 -0.06466255 0.2102187 0.029406587 0.094878756 -0.18023585 -0.11050075 -0.077123135 0.004905855 -0.057086267 0.04011787 0.15757307 -0.13657455 -0.04503675 0.1186526 -0.019949978 -0.086077824 -0.05961688 0.017893238 -0.028443439 -0.087705284 -0.014943031 0.017369727 -0.008189735 -0.056061972 0.0746193 -0.018517427 0.09438864 -0.0027433569 -0.011852129 0.006279185 -0.08452971 -0.11584438 -0.018165544 -0.15971653 -0.14468181 0.107166655 -0.014466833 -0.04753041 0.012836274 -0.0023097636 0.10053694 0.070310086 0.12486025 -0.05469641 -0.13276443 0.20337339 -0.094240345 -0.04735381 0.1441241 0.0067337565 -0.24842043 0.07419575 -0.13737842 -0.034458417 0.0108262515 0.06612249 0.22795825 0.09876122 -0.047901537 -0.068824284 0.03565947 -0.03280939 -0.023245083 -0.043896165 -0.11473602 0.015946988 -0.07643126 0.16589217 -0.1491034 0.021885183 -0.042140853 -0.12051723 0.07204334 -0.2494188 -0.10923658 0.09469655 0.029143862 0.1206354
26 -0.084213816 -0.22966482 0.07122366 0.0307663 0.05067103 -0.12855624 0.1334113 0.055069543 0.02364623 0.032476295 -0.014846436 0.14114194 0.093749 -0.20684573 -0.02134769 -0.22093683 -0.04814118 -0.16175729 0.0020973813 0.0005807216 0.2553328 0.015087956 0.17351426 0.08339704 0.0005295392 -0.056107916 -0.110968985 -0.0005928213 0.035632983 0.1645906 -0.04012491 0.09059904 -0.100618795 0.051120672 -0.1453065 -0.1829396 0.18243062 0.07232105 -0.00817156 -0.115123846 -0.22954509 0.0748285 0.09685753 0.1401126 -0.147923 0.14889489 -0.029509021 -0.08218701 -0.023640666 0.035889883 -0.05813777 0.21048777 0.025852844 0.092667565 -0.18096772 -0.10846921 -0.07511547 0.008479759 -0.05749886 0.045522276 0.15549888 -0.13732563 -0.04069347 0.12718955 -0.018612782 -0.086248405 -0.054445714 0.018209366 -0.02585556 -0.084568426 -0.015520661 0.022525616 -0.013108454 -0.05614471 0.07364289 -0.021046506 0.08400678 -0.0017153043 -0.015835399 0.0041133417 -0.08812425 -0.11182084 -0.013924845 -0.15549009 -0.1429154 0.11050484 -0.015231391 -0.04422553 0.011587838 -0.000999065 0.10531003 0.06608194 0.12466887 -0.050355487 -0.12235807 0.201058 -0.09219562 -0.044793315 0.14839506 -0.00037104485 -0.24585696 0.074712634 -0.13761409 -0.026441814 0.016459817 0.0692097 0.23012814 0.09743873 -0.04396377 -0.06447066 0.03609713 -0.031283952 -0.019345656 -0.038349573 -0.11604249 0.010468035 -0.07270004 0.15670992 -0.13870597 0.013226407 -0.039661553 -0.12135912 0.07111232 -0.24943815 -0.10573152 0.0965077 0.028990462 0.11622454
25 -0.08919744 -0.23039734 0.06708617 0.03051493 0.044151276 -0.12597197 0.12780601 0.053412687 0.032627944 0.03327235 -0.014709153 0.1410913 0.089351796 -0.19829296 -0.02004466 -0.22407687 -0.047423583 -0.16253519 0.0052265227 0.00218611 0.2513836 0.012235674 0.17055528 0.08323838 0.0051745092 -0.057515956 -0.10463286 0.0002845591 0.03307292 0.16083483 -0.03932894 0.08972965 -0.100077964 0.049788866 -0.14292254 -0.1756074 0.17441157 0.076061144 -0.008901701 -0.1141466 -0.22956076 0.079727255 0.09709213 0.13622926 -0.14274882 0.14577945 -0.023292739 -0.07729597 -0.0182104 0.03340662 -0.065131575 0.20863746 0.029229512 0.09625644 -0.18181105 -0.10839702 -0.07317962 0.0037239636 -0.053439245 0.046986785 0.1502547 -0.13155413 -0.03774099 0.120005645 -0.023240933 -0.086391225 -0.055913147 0.023629064 -0.029838774 -0.08429305 -0.01664479 0.019094221 -0.009164651 -0.05183829 0.069899134 -0.021314746 0.083257295 0.0001704072 -0.012177224 0.0023640934 -0.08349423 -0.11334427 -0.014607647 -0.15738745 -0.14432532 0.10426193 -0.011409072 -0.04756172 0.0088713635 -0.0038975626 0.09987858 0.06418854 0.12378377 -0.055793777 -0.12594503 0.20177482 -0.08874242 -0.046185553 0.14433521 0.00478446 -0.24672596 0.076026194 -0.14016373 -0.028169556 0.015344915 0.06442293 0.22470458 0.0967612 -0.04427685 -0.06867869 0.036326334 -0.027935456 -0.018536856 -0.04286746 -0.12015616 0.0098678665 -0.06983089 0.15684474 -0.14171854 0.016203346 -0.037475683 -0.112602286 0.072062 -0.24521238 -0.109136716 0.0954947 0.027305808 0.11939387
29 -0.090417124 -0.2379436 0.07005944 0.030030109 0.05194795 -0.13141659 0.13420446 0.055323448 0.029705424 0.037142932 -0.013137165 0.15261514 0.08968004 -0.2089965 -0.01942172 -0.2300122 -0.054803707 -0.16827986 0.0056223017 -0.0023001742 0.25989154 0.012266822 0.16930783 0.08145094 -5.2489137e-05 -0.056614853 -0.10737781 0.0017941108 0.041942276 0.16526856 -0.040994897 0.09082881 -0.101347424 0.05708683 -0.14695233 -0.18248436 0.18689637 0.07639208 -0.003607341 -0.11923861 -0.23056644 0.082093924 0.0993939 0.14101464 -0.14654905 0.15112865 -0.027072566 -0.08528167 -0.023704961 0.035377044 -0.06532518 0.21108139 0.027589096 0.09869235 -0.19052234 -0.106395535 -0.07575057 0.010785572 -0.05318477 0.04621976 0.15918252 -0.14293495 -0.046056148 0.12464753 -0.022293571 -0.08909582 -0.060547784 0.018839404 -0.024282876 -0.08477775 -0.019894764 0.019844597 -0.012501021 -0.05442755 0.07456506 -0.014029598 0.09539953 -0.002386946 -0.013785206 0.0028618753 -0.091550596 -0.11468187 -0.013111977 -0.1633032 -0.14867502 0.111028746 -0.00788548 -0.05027578 0.013663172 -0.0042189877 0.10810225 0.06435406 0.12292176 -0.053798527 -0.12626675 0.21003759 -0.096590646 -0.045991626 0.14824235 2.5817524e-05 -0.25320524 0.07808805 -0.14182705 -0.029722914 0.015400429 0.06704907 0.22923584 0.09475051 -0.04954793 -0.06844353 0.041075427 -0.029336927 -0.023702996 -0.043357134 -0.12239676 0.008636089 -0.07640546 0.16109587 -0.14417163 0.01631039 -0.041562356 -0.121270575 0.07302137 -0.25281408 -0.106746934 0.09576381 0.029967727 0.1191826
20 -0.0882445 -0.23806584 0.07155784 0.031407114 0.046768773 -0.13252601 0.13596794 0.06201383 0.028962264 0.033102054 -0.016310606 0.14744575 0.094938144 -0.20659356 -0.017844029 -0.22732538 -0.055445496 -0.16389523 0.003510396 -0.0071294447 0.25830185 0.0111428 0.17264366 0.08179384 0.0066519743 -0.051369753 -0.101107314 0.0019288729 0.040546574 0.15633702 -0.045726825 0.08792042 -0.102479674 0.055016488 -0.13743857 -0.1798162 0.1852082 0.07195335 -0.0077273585 -0.11848034 -0.23352893 0.07491666 0.10211793 0.1455132 -0.14771564 0.14556499 -0.020085886 -0.084040105 -0.016678974 0.03333622 -0.06898335 0.20912853 0.03126452 0.09510673 -0.18427226 -0.10997199 -0.07724388 0.0056472635 -0.056658734 0.04332831 0.1624629 -0.1366487 -0.03987246 0.12476085 -0.021737617 -0.08249071 -0.058105193 0.022174196 -0.02871691 -0.08801129 -0.020432258 0.021208841 -0.011999152 -0.05815689 0.07801988 -0.014398364 0.09441846 -0.0042058914 -0.01538718 0.002167252 -0.08903694 -0.11704478 -0.01603568 -0.16018452 -0.14723548 0.107506886 -0.008845665 -0.04619966 0.0140671935 0.002683759 0.11011808 0.06540042 0.12361503 -0.05407282 -0.13011843 0.20274146 -0.089313745 -0.05394903 0.14510302 0.010358176 -0.24831225 0.07142292 -0.14223386 -0.026690392 0.009481458 0.06837338 0.22820003 0.09814162 -0.04813775 -0.067924134 0.037048507 -0.02462963 -0.019734807 -0.03701379 -0.1219215 0.011932025 -0.070197985 0.16657859 -0.14716452 0.01662143 -0.039926797 -0.11504991 0.077585526 -0.25369266 -0.112055935 0.09284508 0.031414196 0.12424366
17 -0.09161969 -0.25408852 0.07175469 0.036908075 0.044821408 -0.14134258 0.1417101 0.07121907 0.05353973 0.037642363 -0.010779326 0.16776063 0.094587535 -0.21078111 -0.009862981 -0.23527363 -0.058822755 -0.18641786 0.0035381506 -0.006619772 0.2677309 0.002456821 0.17681189 0.08193941 0.0205411 -0.058284782 -0.10937436 -0.0027921677 0.04118216 0.16443123 -0.041413166 0.091840744 -0.102619566 0.04954014 -0.14207478 -0.19339176 0.19132137 0.08442765 -0.008552597 -0.118561976 -0.23765479 0.074066386 0.11109761 0.15566187 -0.16705208 0.14898477 -0.0144487545 -0.083222665 -0.009906374 0.046704102 -0.078998305 0.22016221 0.029369345 0.096459776 -0.18288215 -0.12115565 -0.08281399 0.016255502 -0.04684479 0.030131027 0.17194436 -0.14955156 -0.032728896 0.13021128 -0.030508842 -0.075326115 -0.06436083 0.022330647 -0.024153326 -0.1025334 -0.027286062 0.017983234 -0.017516062 -0.064523876 0.09641514 -0.010935012 0.09381143 -0.009447288 -0.01997938 -0.017647209 -0.09669749 -0.10734271 -0.010969271 -0.15340604 -0.16628681 0.089886315 0.009652168 -0.051212944 0.02849683 0.0036017194 0.113489725 0.061121043 0.13277508 -0.041958723 -0.14170748 0.20566542 -0.08277821 -0.066673696 0.16005936 0.021239929 -0.2481381 0.07949589 -0.1515867 -0.030797953 0.001797974 0.06480286 0.23443076 0.09633099 -0.05436942 -0.0721558 0.039809942 -0.016778529 -0.01769473 -0.03702911 -0.1291642 0.017607152 -0.07373883 0.17686497 -0.15563671 0.009407083 -0.035165127 -0.11291278 0.09275244 -0.26304874 -0.13830084 0.08455529 0.037873972 0.13711411
13 -0.08258542 -0.2314413 0.07175618 0.02624242 0.047511324 -0.12805346 0.12981917 0.056646995 0.032240417 0.037158754 -0.016189313 0.14489971 0.09102883 -0.20583807 -0.014231632 -0.2221701 -0.054711703 -0.16280755 0.0046174685 -0.007472554 0.2552328 0.012358841 0.16149525 0.08053014 0.00065965386 -0.05190531 -0.09683738 0.0068037203 0.04068582 0.15594289 -0.044656523 0.088372245 -0.102603905 0.053880155 -0.13697112 -0.18019876 0.18180303 0.077068694 -0.0035393124 -0.11343539 -0.22121699 0.07450557 0.102605164 0.14502819 -0.14648737 0.14651628 -0.021757575 -0.081513934 -0.018350951 0.038206592 -0.06813595 0.20593259 0.030610086 0.10014967 -0.18364571 -0.10977771 -0.07820416 0.007712518 -0.05106389 0.036839634 0.15830323 -0.13582213 -0.043085057 0.117615476 -0.019260164 -0.08169345 -0.060514342 0.01563376 -0.022152502 -0.09378591 -0.022012332 0.017007755 -0.010031795 -0.05860107 0.080111586 -0.01836623 0.09017861 -0.0056404104 -0.01903858 -0.004944836 -0.08927638 -0.11462191 -0.016560735 -0.15465638 -0.15079188 0.101017825 -0.0019927842 -0.04842662 0.014866334 0.00434576 0.1106525 0.06070163 0.11731452 -0.05597659 -0.12786542 0.19569668 -0.09065354 -0.05773748 0.14165762 0.0076763607 -0.23727342 0.072580874 -0.13661382 -0.028273279 0.007753377 0.06082102 0.22744346 0.093517795 -0.051527 -0.073645 0.04177274 -0.027476814 -0.020143667 -0.03307924 -0.1210718 0.01004856 -0.075114265 0.16423829 -0.14295202 0.011565705 -0.037879385 -0.113848485 0.07985331 -0.24420196 -0.111452185 0.09033616 0.035271 0.123276375
10 -0.085079215 -0.23070903 0.06863079 0.03132329 0.05074887 -0.121077 0.13223213 0.05713833 0.031651318 0.03186713 -0.012208657 0.14783701 0.08594759 -0.19826029 -0.019403765 -0.21749786 -0.048945766 -0.15648633 0.0016379846 -0.001630995 0.25113836 0.012989788 0.16757715 0.08267758 0.0014238483 -0.05258285 -0.10062995 0.0011162766 0.037596613 0.15472569 -0.045842808 0.084624484 -0.099365026 0.05986228 -0.14098899 -0.17807007 0.1807536 0.068509854 -0.007708258 -0.114759825 -0.22767508 0.07459287 0.10431654 0.14510493 -0.14103144 0.1461556 -0.020496242 -0.08374189 -0.015827557 0.03125772 -0.062264144 0.2044803 0.032055937 0.09430798 -0.18111195 -0.104300365 -0.07553391 0.0049754595 -0.05693813 0.043216385 0.15497084 -0.13553949 -0.04604751 0.12101003 -0.017823549 -0.08135628 -0.05761163 0.016093649 -0.028839106 -0.08981471 -0.014044792 0.015934471 -0.005361841 -0.05589143 0.07768567 -0.014391586 0.090181015 -0.0045642927 -0.01841215 0.00196035 -0.09038117 -0.11577302 -0.015052309 -0.15190543 -0.14825644 0.10682722 -0.01145996 -0.048584692 0.014102562 -0.001623131 0.10784198 0.065135166 0.122690514 -0.050116315 -0.12646438 0.20199122 -0.09172181 -0.052099258 0.14472081 0.006463421 -0.24273762 0.07079432 -0.13588847 -0.028336314 0.009948466 0.063578 0.22802469 0.09891294 -0.053148292 -0.066669494 0.041443825 -0.032600388 -0.017996985 -0.040167883 -0.11335044 0.012444357 -0.07166373 0.16273116 -0.14441721 0.012909953 -0.039482858 -0.11921287 0.07415554 -0.24225602 -0.10260899 0.088335715 0.029939704 0.119854145
23 -0.08692631 -0.22879548 0.06684499 0.03310036 0.047837377 -0.12205135 0.13134247 0.05983272 0.03033326 0.033141937 -0.017081581 0.14548226 0.090614714 -0.20563093 -0.023344748 -0.22109619 -0.050144926 -0.15778553 0.004170539 0.003345688 0.25024563 0.011858793 0.16725624 0.08355885 0.0045806756 -0.055632766 -0.10953454 -0.00036357937 0.032593552 0.1612476 -0.042940255 0.09193069 -0.10259064 0.054397643 -0.14436552 -0.18039605 0.18043941 0.07097078 -0.007972219 -0.11189059 -0.2317578 0.08092625 0.103085764 0.14273758 -0.1425039 0.14108877 -0.025900891 -0.08019795 -0.023649666 0.03300752 -0.05917787 0.20720278 0.032521214 0.092862554 -0.18151031 -0.1119814 -0.08118141 0.005989665 -0.05309318 0.041155536 0.15355636 -0.1370171 -0.03898106 0.12281937 -0.013601855 -0.087034926 -0.053105384 0.023651881 -0.025422532 -0.083070554 -0.01416419 0.020201677 -0.0044795163 -0.055152226 0.0661767 -0.018758345 0.09183686 -0.000865292 -0.011504287 0.0074967043 -0.08077719 -0.11731734 -0.0126320915 -0.1587532 -0.14712678 0.111648254 -0.014494745 -0.042948827 0.008397353 -0.0015299583 0.1041763 0.06855287 0.117821455 -0.053683177 -0.13155702 0.20134021 -0.08997555 -0.047209587 0.14296156 0.00603857 -0.24642316 0.07362684 -0.13456857 -0.035278536 0.013068045 0.061617382 0.22359097 0.09324606 -0.047397327 -0.067087434 0.034685936 -0.031793058 -0.02283609 -0.045739204 -0.11693591 0.011309818 -0.07548081 0.16312921 -0.14429803 0.020426983 -0.038315054 -0.11478465 0.07125673 -0.24720913 -0.10543809 0.09015082 0.031416655 0.11975059
27 -0.08640301 -0.2381055 0.06927567 0.029156221 0.050752696 -0.12511137 0.13545313 0.060824543 0.024579737 0.03569317 -0.01702298 0.14448027 0.09012333 -0.20262067 -0.021096585 -0.22854137 -0.04681214 -0.16426195 0.0026291723 -0.0047787596 0.25788784 0.016177753 0.1743875 0.08525107 0.0026341805 -0.058437634 -0.111243166 0.005867504 0.03535046 0.16294898 -0.042487886 0.088268444 -0.105029024 0.053228285 -0.14022937 -0.18277794 0.18037426 0.07371765 -0.006866367 -0.1166023 -0.23622768 0.08108738 0.10185279 0.14385682 -0.14541474 0.14807253 -0.0216114 -0.08528782 -0.021916477 0.03572223 -0.05769916 0.21278505 0.026927514 0.10103825 -0.1845178 -0.11275715 -0.080081865 0.007829674 -0.05105129 0.047279924 0.1527599 -0.13271257 -0.045213077 0.123583905 -0.015884427 -0.08744924 -0.059242558 0.022962425 -0.02732742 -0.087587506 -0.018007327 0.023499453 -0.008311826 -0.06039904 0.06882245 -0.022721846 0.092844054 -0.0042111664 -0.017521359 0.007893299 -0.08878813 -0.11705915 -0.016326113 -0.15679996 -0.15046975 0.11117014 -0.008994444 -0.046363343 0.0073156385 0.0011142531 0.101711296 0.064336754 0.12347046 -0.053768225 -0.13110243 0.20616245 -0.09193269 -0.048801497 0.14913213 -0.0011138992 -0.25252485 0.07578971 -0.1360234 -0.034737255 0.016472492 0.06862232 0.23350368 0.09391779 -0.052937634 -0.066882096 0.041735813 -0.030391557 -0.022327043 -0.04405824 -0.115392156 0.010270156 -0.0747405 0.16438507 -0.14875078 0.019256692 -0.042797603 -0.117591776 0.07647763 -0.25135615 -0.11066053 0.097221695 0.033476718 0.12147447
22 -0.082903534 -0.2334969 0.06923545 0.029838415 0.047629233 -0.12933794 0.12779589 0.058123473 0.029697863 0.033283148 -0.014667994 0.1491176 0.09113791 -0.20393601 -0.012553145 -0.22277804 -0.054619044 -0.16330293 0.009028117 -0.0016838944 0.2532718 0.011774149 0.1681407 0.08004415 0.0027726677 -0.049185127 -0.102277316 -0.00039145013 0.040942106 0.15791996 -0.041984573 0.084097154 -0.1041832 0.05511225 -0.1373121 -0.18015382 0.17667589 0.07226605 -0.0067771184 -0.115522295 -0.22026488 0.07134417 0.09986626 0.14558023 -0.14516097 0.14637029 -0.025558908 -0.07978651 -0.013317725 0.034224793 -0.067554295 0.20191084 0.024493989 0.095467955 -0.1758183 -0.10740386 -0.07257596 0.012822236 -0.050385445 0.03569467 0.15762042 -0.1342052 -0.038185697 0.12391902 -0.02285421 -0.07767728 -0.061997224 0.020919027 -0.021407092 -0.087456234 -0.020650866 0.021025391 -0.011178789 -0.05789923 0.082628466 -0.013373737 0.08842196 -0.0021000842 -0.013434312 -0.0025191633 -0.09187928 -0.11131915 -0.012519714 -0.15568675 -0.14751619 0.09725437 -0.0013817752 -0.050404407 0.020089148 0.00083563547 0.10804412 0.06110742 0.12070811 -0.05513827 -0.12929396 0.19831565 -0.08991096 -0.053403612 0.14728425 0.005238323 -0.24046656 0.07357288 -0.13388894 -0.026100043 0.009628357 0.0673842 0.22296584 0.09761497 -0.05042464 -0.06920613 0.041137904 -0.025665436 -0.017501127 -0.033661883 -0.11882041 0.013487442 -0.07481039 0.16113275 -0.14681701 0.013522577 -0.03685352 -0.11812191 0.07824534 -0.2476212 -0.110264115 0.08768376 0.03582074 0.121393524
18 -0.08251569 -0.22747673 0.064911634 0.028202659 0.048666853 -0.12559353 0.12333904 0.06022313 0.035531655 0.037339527 -0.014163074 0.14778301 0.090035655 -0.1976183 -0.013081213 -0.22044733 -0.052542638 -0.15822509 0.002071112 -0.0010701299 0.2499376 0.010534624 0.1659464 0.078303754 0.009573283 -0.04866444 -0.09871378 0.002293419 0.039547224 0.15332775 -0.04076598 0.08732492 -0.097077735 0.055139214 -0.13161562 -0.17596477 0.17256252 0.07218085 -0.003885249 -0.10712258 -0.22073336 0.07704745 0.097290926 0.13809082 -0.14512219 0.14280137 -0.024527665 -0.07992873 -0.013688863 0.03398923 -0.064895764 0.19727224 0.030474769 0.097749725 -0.17600252 -0.10263641 -0.07332617 0.0061244415 -0.05214699 0.03655012 0.15504912 -0.1369112 -0.038434967 0.117838375 -0.018631201 -0.07637549 -0.056056768 0.016689252 -0.02093087 -0.08495271 -0.021306595 0.017853951 -0.008173168 -0.058966663 0.08030181 -0.012647534 0.09257709 -0.0015808387 -0.014760152 -0.0035421266 -0.09101248 -0.105178915 -0.012218126 -0.15209728 -0.14780109 0.09820807 -0.000561874 -0.04666958 0.0144707095 0.0040340265 0.104678206 0.058067705 0.121713385 -0.05277566 -0.13005029 0.1952181 -0.08870716 -0.05019622 0.1438343 0.006251377 -0.23514661 0.074239135 -0.13376322 -0.027280008 0.008731239 0.06321236 0.21575417 0.08968164 -0.05012064 -0.07113183 0.035050694 -0.02718796 -0.022273324 -0.03837318 -0.11490108 0.011110658 -0.069876626 0.1547054 -0.13861623 0.013079542 -0.037829805 -0.11613373 0.075238034 -0.24176298 -0.10818943 0.08177712 0.029795602 0.1160854
21 -0.08749936 -0.21985267 0.068651095 0.026368292 0.042894598 -0.121771984 0.12602302 0.051675495 0.02823656 0.036782417 -0.014377484 0.1408131 0.088069476 -0.19971302 -0.019688241 -0.21530522 -0.04885189 -0.15553738 0.0046706432 -0.00025234587 0.24577571 0.012321735 0.16294454 0.080626234 0.0040047076 -0.054145373 -0.1008025 0.0033777659 0.03534697 0.15226169 -0.038098127 0.0866192 -0.098439336 0.05365862 -0.1388708 -0.1738137 0.17095679 0.07491803 -0.0014347638 -0.1074633 -0.22529155 0.08071247 0.095525086 0.1337822 -0.14316398 0.13905917 -0.02283175 -0.079681456 -0.017395038 0.0319967 -0.055437986 0.2030727 0.030670585 0.089999445 -0.1759441 -0.10353122 -0.07560782 0.0032258285 -0.05480492 0.0459945 0.146495 -0.13039212 -0.039165795 0.12067302 -0.013052157 -0.08342532 -0.054240745 0.016137362 -0.027625768 -0.087478206 -0.010559468 0.014842119 -0.006912377 -0.052469853 0.07062508 -0.018841397 0.08478239 -0.0045546116 -0.013183034 0.007481003 -0.08387413 -0.109400034 -0.017165527 -0.15700126 -0.14350598 0.101326205 -0.014049138 -0.04528138 0.014806523 -0.0026185052 0.102958575 0.06685867 0.11540456 -0.04778404 -0.12413957 0.19435152 -0.090335146 -0.042680807 0.14049101 0.003239485 -0.23750019 0.07029428 -0.13382424 -0.02724608 0.01668556 0.06509806 0.21807553 0.089422345 -0.04891449 -0.06866208 0.040519822 -0.025132086 -0.021532828 -0.039227318 -0.11376381 0.016296197 -0.07386132 0.15676478 -0.13963297 0.023252025 -0.038839273 -0.11510358 0.07124922 -0.24112485 -0.10237684 0.091006726 0.03376671 0.113008164
16 -0.08983425 -0.23549254 0.07309396 0.03210839 0.048884418 -0.127924 0.13730642 0.056781076 0.028563865 0.036203057 -0.018161062 0.14977705 0.09005946 -0.20399977 -0.017413398 -0.22982803 -0.05457315 -0.16759953 -0.0011420008 -0.0043501 0.25671938 0.015136512 0.17628525 0.08100184 0.0043615964 -0.055286177 -0.106584184 0.0027566757 0.03628868 0.15873232 -0.045868147 0.09420813 -0.104914896 0.052964147 -0.14200777 -0.1801817 0.18609932 0.0721498 -0.0074007693 -0.11828924 -0.23761673 0.08487692 0.105825104 0.14422525 -0.14593199 0.1448417 -0.022808488 -0.082618125 -0.02448592 0.038322322 -0.05913097 0.21290453 0.031056235 0.099706516 -0.18397558 -0.11077757 -0.08100216 0.0074454076 -0.05354371 0.042060945 0.1590563 -0.1417412 -0.04448142 0.12070006 -0.015087343 -0.088631384 -0.05673098 0.023340296 -0.027974254 -0.09091552 -0.012339508 0.016142866 -0.007372208 -0.0592141 0.07506999 -0.020415416 0.095367305 -0.0041730325 -0.017312558 0.006617561 -0.08364935 -0.11927625 -0.015217693 -0.16324253 -0.14784862 0.114564456 -0.011675743 -0.04284917 0.013456176 0.0009495238 0.10265118 0.06984011 0.11973549 -0.053566556 -0.13007998 0.20978582 -0.09047717 -0.04855526 0.14598565 -0.0011835454 -0.24648605 0.07755187 -0.13672915 -0.034186177 0.011883194 0.06365873 0.22981723 0.09660682 -0.047954883 -0.06864842 0.037865985 -0.026387502 -0.025372658 -0.040751178 -0.11613374 0.014889141 -0.0758037 0.1677963 -0.14730166 0.017350992 -0.041258037 -0.11885478 0.07378765 -0.25207227 -0.10663319 0.09688401 0.03288201 0.12581104
19 -0.0854211 -0.23779678 0.075541936 0.030123167 0.04812203 -0.12633589 0.13352172 0.055418056 0.03128316 0.035266176 -0.01876043 0.15073273 0.09080758 -0.20655568 -0.021476638 -0.22631742 -0.054603 -0.16706096 0.005388307 0.0025583706 0.25756228 0.010140754 0.1735427 0.08463132 0.00400549 -0.052315056 -0.10895061 0.002823261 0.035699222 0.16006406 -0.043028753 0.09340953 -0.10287008 0.05163629 -0.1441567 -0.18156855 0.17797916 0.07723785 -0.0023808845 -0.11359133 -0.23439959 0.08042739 0.10368322 0.14273077 -0.14493677 0.14714621 -0.02232482 -0.08774224 -0.021873165 0.036081728 -0.06343227 0.2111971 0.026282074 0.09550972 -0.18042308 -0.10859599 -0.0832884 0.008811213 -0.050406415 0.0435008 0.15623492 -0.14008883 -0.03890231 0.12702358 -0.017745491 -0.09020066 -0.05367087 0.019644925 -0.02921097 -0.09092193 -0.013793397 0.019794444 -0.007974779 -0.05610385 0.07042641 -0.02309132 0.094627604 0.00026070862 -0.018680448 0.0019975018 -0.0876403 -0.11576755 -0.01592097 -0.16421126 -0.15073371 0.1091919 -0.009544163 -0.04381708 0.009347478 -0.0013158288 0.10537954 0.07143903 0.1276808 -0.05163907 -0.13280776 0.20949547 -0.093170576 -0.046914846 0.1481416 0.0010275944 -0.24692987 0.07783317 -0.1432782 -0.034580715 0.01254446 0.06681276 0.23011325 0.097879335 -0.05108072 -0.071256995 0.036829896 -0.029631563 -0.020918613 -0.045133047 -0.114931695 0.015937226 -0.0708233 0.16849652 -0.15100245 0.023467742 -0.041663088 -0.12147367 0.07365459 -0.25311533 -0.113742486 0.09533406 0.029466653 0.11978399
15 -0.0909346 -0.23376033 0.073679104 0.028652674 0.049653903 -0.12148985 0.13389483 0.05291255 0.028209839 0.033109505 -0.013123006 0.14512087 0.09041035 -0.202063 -0.018588034 -0.22474782 -0.053115018 -0.16295254 -3.4139703e-05 -0.0041870666 0.2551208 0.015312546 0.17059551 0.08241726 0.00053237233 -0.054411758 -0.10869785 0.002283351 0.037030526 0.15666944 -0.044574484 0.09256068 -0.09904094 0.05413981 -0.14036784 -0.17848916 0.17725022 0.07343819 -0.0014846819 -0.11127813 -0.23330528 0.079675086 0.10061891 0.14151065 -0.14244427 0.14696449 -0.028572755 -0.08445555 -0.022266926 0.032176305 -0.06094419 0.20836589 0.028304847 0.09740026 -0.18365169 -0.11227727 -0.082500815 0.0030211378 -0.05221388 0.047190964 0.15717946 -0.13218103 -0.041153505 0.119028874 -0.015712352 -0.08254762 -0.054539017 0.019464906 -0.023395259 -0.083196595 -0.01236691 0.017873915 -0.0069655934 -0.05909549 0.068597354 -0.020072464 0.09168323 -0.0014698043 -0.0190141 0.0024673152 -0.085005574 -0.11182173 -0.015438507 -0.16106987 -0.14863014 0.10529835 -0.01360042 -0.04852808 0.0115805445 0.0022925185 0.105074145 0.0694594 0.12474182 -0.05539554 -0.13128392 0.20578466 -0.089901954 -0.042070325 0.14667393 0.0061043315 -0.2428973 0.07421557 -0.1405997 -0.029873922 0.015993483 0.062584125 0.22893359 0.097178504 -0.049334165 -0.072240256 0.038975406 -0.030312521 -0.022815406 -0.04530975 -0.1182064 0.01590846 -0.07141943 0.16554627 -0.14816332 0.022681398 -0.03709624 -0.12151737 0.077192284 -0.24322654 -0.11185715 0.09379656 0.033710588 0.12205227
12 -0.084731705 -0.22419621 0.06556718 0.02543679 0.043135617 -0.12255337 0.11988948 0.053922422 0.030912833 0.034710467 -0.008602723 0.14523856 0.08306079 -0.18879771 -0.012272781 -0.2076892 -0.053070303 -0.15469936 0.007564622 -0.009030678 0.23942104 0.01362398 0.15720949 0.07327272 0.0036532888 -0.052294448 -0.09396784 0.0036567454 0.037427124 0.14598109 -0.03754907 0.08320077 -0.09921193 0.05179159 -0.1271573 -0.16603631 0.16729242 0.07321976 -0.0050375657 -0.10509385 -0.21157104 0.06958533 0.099954896 0.13463695 -0.142279 0.13868964 -0.017756945 -0.078140125 -0.016996564 0.033808257 -0.06534936 0.19582953 0.025486976 0.088053405 -0.17261423 -0.10662025 -0.07028296 0.010381374 -0.048628032 0.03685995 0.15134762 -0.12778522 -0.039245445 0.1171932 -0.026059784 -0.072703786 -0.053423826 0.018503116 -0.020265153 -0.08385233 -0.015837999 0.020232588 -0.009917733 -0.053092062 0.0775941 -0.014455139 0.08979134 -0.0009499776 -0.015600778 -0.0009380605 -0.08611952 -0.10217347 -0.017078863 -0.14479145 -0.14360043 0.09487471 -0.0020363086 -0.045710027 0.01547611 -0.001775109 0.10089779 0.0607584 0.11362002 -0.04893414 -0.12079063 0.18377312 -0.08029489 -0.057539467 0.13897255 0.009190399 -0.23043449 0.06587416 -0.12920564 -0.02678784 0.0071133524 0.0571729 0.21175197 0.08945321 -0.044251096 -0.06958082 0.03289721 -0.023015771 -0.018378377 -0.031627644 -0.11132962 0.016369248 -0.068784565 0.15619074 -0.14045866 0.009074169 -0.037666325 -0.11016109 0.07604758 -0.2308326 -0.11026277 0.08188878 0.028328294 0.11592947
